tree
version=v3
num_class=1
num_tree_per_iteration=1
label_index=0
max_feature_idx=29
objective=tweedie
feature_names=day_of_year enc_S100_I100_C100_C101_std_clipped enc_S100_I100_C100_C101_mean_clipped I100 day year C101 enc_I100_S100_std_clipped rolling_mean_tmp_I100_1_7_I100_C100_C101 enc_I100_S100_mean_clipped S102 enc_I100_mean_clipped S100 enc_I100_C100_C101_mean_clipped enc_I100_C100_C101_std_clipped enc_S100_C100_std_clipped QTT_lag_3 rolling_std_I100_7_C101 QTT_lag_6 QTT_lag_4 I101 enc_S100_mean_clipped enc_I100_C101_mean_clipped QTT_lag_5 QTT_lag_7 enc_I100_std_clipped S103 rolling_mean_tmp_14_14_clipped enc_S100_std_clipped enc_I100_C101_std_clipped
feature_infos=[3:365] [0:14.546875] [0.003875732421875:19.84375] [0:95] [1:31] [2017:2021] [0:354] [0.07281494140625:13.4375] [0:30] [0.00531768798828125:18.234375] [0:19] [0.0736083984375:4.7578125] [0:30] [0.00390625:6.08203125] [0.0625:10.6015625] [0.107177734375:3.736328125] [0:205] [0:16.03125] [0:175] [0:323] [0:5] [0.147216796875:0.78759765625] [0.00412750244140625:6.08203125] [0:184] [0:222] [0.396728515625:6.25390625] [0:10] [0:30] [0.7919921875:2.396484375] [0.06414794921875:8.296875]
tree_sizes=13346 13708 13749 13800 13786 13792 13838 13882 13899 13898 13979 13922 13970 13937 13972 14017 13977 14062 14035 14041 14041 14078 14021 14067 14009 14057 14077 14068 14064 14054 14020 14078 14103 14101 14097 14059 14052 14065 14028 14061 14104 14040 13973 14162 14119 14083 14064 14091 14058 14121 14136 14114 14124 14075 14132 14099 14082 14065 14119 13980 14078 14080 13947 13984 14074 13990 14043 13968 13974 13940 14079 13793 13986 14080 13913 14052 14059 13936 13933 13988 14123 14053 14074 14050 14118 13996 13960 14142 14027 13998 13866 13824 13807 14032 13847 14072 13979 13997 13960 14008 14011 14059 13893 13899 13869 13847 13882 14088 13940 13925 14105 13902 13804 14114 13839 13967 14007 14009 13915 13943 14038 14009 14119 13826 14112 13848 13902 14026 13996 13818 14050 13854 14043 13748 14036 14041 13825 13914 13978 13929 13946 7453 14069 13851 13878 13924 13817 14001 14011 13930 13893 13783 14021 13932 13832 13863 13766 13930 13825 13968 14071 14004 13923 14078 13866 13882 13881 13961 14109 13812

Tree=0
num_leaves=128
num_cat=0
split_feature=1 8 1 8 8 8 1 1 0 1 1 0 3 1 0 0 1 0 8 1 8 1 1 1 0 1 3 3 3 8 0 1 3 0 23 2 1 3 0 1 17 23 8 8 8 0 2 0 8 8 8 23 0 0 0 3 8 3 20 0 2 3 3 3 3 20 0 3 29 1 2 8 27 24 1 3 8 2 27 2 27 8 3 1 0 3 2 8 27 3 0 6 2 17 27 3 1 0 3 18 20 0 0 3 3 1 1 18 0 2 16 0 0 23 0 8 8 25 0 0 8 22 3 22 0 0 6
split_gain=771743 207838 155147 52988.8 43328.5 25770.1 21267.8 13667.7 10074.8 9214.96 8936.3 8726.07 8026.49 7060.76 6556.05 6000.98 4625.52 4566.7 3278.97 3198.07 3096.42 2753.45 2602.24 2470.26 2589.67 2451.59 2298.72 2041.67 1968.75 1905.98 1667.92 1523.63 1521.76 1590.62 1427.79 1337.95 1334.71 1293.5 1199.09 1181.13 1100.1 998.84 983.109 980.936 974.514 956.356 953.94 893.523 864.279 830.621 819.182 794.948 784.475 853.029 1059.27 855.506 771.268 762.415 760.998 744.31 739.083 731.76 706.708 688.114 658.782 645.341 635.602 628.198 609.912 606.526 1133.72 596.067 593.276 593.251 584.371 563.239 558.3 554.107 535.322 533.977 531.971 522.701 510.748 502.062 488.004 483.78 479.427 477.927 473.936 467.899 467.493 452.54 429.799 415.082 412.178 474.138 406.594 406.177 403.937 400.529 399.837 398.593 658.48 397.943 423.46 390.331 389.937 389.071 388.016 388.043 386.565 384.775 383.895 378.363 368.458 364.516 359.533 357.436 356.586 452.654 356.263 352.165 349.596 408.209 346.965 979.873 346.426
threshold=3.0791015625000004 9.9296875000000018 1.3872070312500002 23.929687500000004 5.0722656250000009 2.5000000000000004 0.80834960937500011 7.1972656250000009 350.50000000000006 4.5273437500000009 4.8457031250000009 350.50000000000006 8.5000000000000018 1.9506835937500002 350.50000000000006 345.00000000000006 2.2587890625000004 353.00000000000006 3.0712890625000004 0.52368164062500011 16.929687500000004 6.7441406250000009 1.0981445312500002 6.8964843750000009 347.00000000000006 5.3339843750000009 26.500000000000004 22.500000000000004 10.500000000000002 4.3574218750000009 345.00000000000006 2.2177734375000004 51.500000000000007 345.00000000000006 1.0000000180025095e-35 0.91772460937500011 1.9409179687500002 23.500000000000004 353.00000000000006 2.3994140625000004 12.796875000000002 45.500000000000007 1.3574218750000002 14.359375000000002 2.0712890625000004 39.000000000000007 0.28918457031250006 91.500000000000014 1.6425781250000002 7.0722656250000009 29.789062500000004 1.0000000180025095e-35 91.500000000000014 226.00000000000003 338.00000000000006 56.500000000000007 7.7851562500000009 65.500000000000014 1.5000000000000002 30.000000000000004 0.15728759765625003 51.500000000000007 56.500000000000007 55.500000000000007 24.500000000000004 1.5000000000000002 89.000000000000014 52.500000000000007 2.5742187500000004 3.5263671875000004 1.2797851562500002 1.6425781250000002 1.1069335937500002 2.5000000000000004 0.31506347656250006 56.500000000000007 1.2143554687500002 0.063690185546875014 0.67871093750000011 0.45300292968750006 1.5356445312500002 0.78564453125000011 56.500000000000007 0.65307617187500011 340.00000000000006 67.500000000000014 0.27355957031250006 1.5000000000000002 0.32141113281250006 27.500000000000004 205.00000000000003 290.50000000000006 0.41247558593750006 9.9531250000000018 0.10711669921875001 56.500000000000007 4.2578125000000009 340.00000000000006 50.500000000000007 1.5000000000000002 1.0000000180025095e-35 91.500000000000014 226.00000000000003 35.500000000000007 41.500000000000007 5.6914062500000009 3.6279296875000004 2.5000000000000004 353.00000000000006 2.0058593750000004 1.5000000000000002 353.00000000000006 310.00000000000006 1.0000000180025095e-35 5.5000000000000009 3.3564453125000004 13.785156250000002 1.2651367187500002 91.500000000000014 228.00000000000003 1.0712890625000002 0.37280273437500006 64.500000000000014 0.39221191406250006 240.00000000000003 91.500000000000014 119.50000000000001
decision_type=2 2 2 2 2 2 2 2 2 2 2 2 2 2 2 2 2 2 2 2 2 2 2 2 2 2 2 2 2 2 2 2 2 2 2 2 2 2 2 2 2 2 2 2 2 2 2 2 2 2 2 2 2 2 2 2 2 2 2 2 2 2 2 2 2 2 2 2 2 2 2 2 2 2 2 2 2 2 2 2 2 2 2 2 2 2 2 2 2 2 2 2 2 2 2 2 2 2 2 2 2 2 2 2 2 2 2 2 2 2 2 2 2 2 2 2 2 2 2 2 2 2 2 2 2 2 2
left_child=2 4 6 7 9 8 19 25 13 14 15 16 41 42 18 37 65 22 57 74 52 32 46 24 56 47 108 36 -23 115 43 -13 33 45 68 -33 -10 -6 60 76 66 -5 100 101 85 103 -8 -3 79 99 -14 71 113 62 116 -56 73 59 -37 117 -21 -26 93 -28 -19 94 -22 -17 -25 -20 -71 -30 75 -12 -1 -31 -15 -76 82 -24 -45 -48 -51 -62 106 -34 -85 92 96 -35 98 -29 -41 -54 95 -7 -49 -92 -68 -39 -4 -27 -103 -11 -105 -47 -61 -58 -16 -110 -70 -38 -90 -9 -67 -18 -55 -2 -36 -120 -59 -113 123 -94 125 -46 -60
right_child=1 3 5 12 10 11 17 20 27 21 23 31 50 39 26 67 29 64 69 38 40 28 48 34 61 30 63 91 51 72 -32 35 44 89 118 58 111 49 -40 87 -42 -43 -44 80 124 105 81 88 -50 78 -52 -53 53 54 55 -57 107 120 126 84 83 -63 -64 -65 -66 114 90 -69 110 70 -72 -73 -74 -75 77 -77 -78 -79 -80 -81 -82 -83 -84 86 -86 -87 -88 -89 112 -91 97 -93 122 -95 -96 -97 -98 -99 -100 -101 -102 102 -104 104 -106 -107 -108 -109 109 -111 -112 121 -114 -115 -116 -117 -118 -119 119 -121 -122 -123 -124 -125 -126 -127 -128
leaf_value=0.84203184507716344 1.0562889086678258 1.0555840466683271 0.89608683846392356 1.5160183478791889 0.99759572595685331 0.93529579490664072 0.88588964756959809 1.3484436009123906 0.97298306364480081 1.0343771812196261 1.0997632084431386 0.99152265039409526 1.4213297664941527 0.90368803238752526 1.0692422401303379 1.1655874168286846 0.94230259082971013 0.92590102587962686 0.97253183444930413 0.8729773306380223 1.2315014145624865 1.4852602773567245 0.89217682619324379 1.4881366968987901 1.2268293370786818 1.1074572153585931 1.0522327883787337 0.95853028277024821 1.0532220183431464 0.98019754348474597 1.2976843188424827 1.2389057407339381 0.97033521235961828 1.2372314878808575 1.0897813524805313 1.0090673596949917 0.98142302611109633 1.0607003309405347 0.87864376137043054 1.1661811439520691 1.4793846872846996 1.7265859377430597 0.90136871410135 1.2655107743481115 0.97436050302570076 1.0052164534984116 0.8645369537602775 1.1116800217095786 0.89307705557398964 1.0587989895594005 1.5625066214261873 1.0294936275208539 1.2405667161783656 1.1739558632283822 1.3628872258584133 1.1754786047030821 1.1563998949078627 0.89424221393909731 1.1235613249260878 0.94392471908786602 0.85268698129557685 1.0703080117571118 1.3369316272147054 0.95264620403816025 0.89867926805810283 0.97728107747816295 1.3056233305816225 1.0512179792879475 1.28711353116823 1.4490595111027136 0.99437637005885771 1.1227495555008526 0.96952808499261889 1.0591087951326132 0.87443245755275056 1.0301273728717657 0.91730916060793066 0.84894858673057694 1.0470750296165305 0.87707089946990924 1.1850019581695519 0.87220260624263013 1.1408091117230881 0.86578255373888413 0.99547540940720181 0.90574004244641959 0.85654564979402703 0.93370635711562622 1.0968219039553078 1.0975731430904896 1.2890296930895282 0.92343043430626048 0.88473146472385034 1.3678229367616574 0.92791501969149792 0.97462180221181116 1.2135458566676909 1.3951876983277001 1.3989851526486596 1.021044027767432 0.88679642000212433 1.1875753278207715 1.1298269253270918 1.222104723779275 1.0823123321381367 1.0403484889237544 0.9603922899332773 1.0969572244109049 1.2357522076081124 1.1392458112846995 1.1832910315922398 1.125835354977736 1.1767804994931323 1.1699498972647884 0.91502378573348842 0.95736904635263353 1.232684244045678 0.97983062177731073 1.1748757287554259 1.1193563139079143 0.93878398862975698 1.0429609704288847 0.90012016690305985 0.92506494704351427 0.98249017046429887 1.0624055289755674 1.057020206544659
leaf_weight=147792.6295311451 682.36701202392578 2335.6852128505707 70494.445421934128 258.27049016952515 10096.898187160492 9154.7944810390472 30383.021901369095 126.52267789840698 7516.8121268749237 1644.4722166061401 4912.904025554657 6950.2059650421143 2611.1997797489166 56518.689460515976 479.16289067268372 3862.4787678718567 37836.012978553772 15623.774409532547 20253.257872104645 29072.307754278183 851.53398776054382 114.08941054344177 26271.909349441528 87.534647941589355 1681.1936452388763 1804.9200603961945 2156.6611375808716 7819.1745712757111 2193.7109513282776 5622.6206214427948 1049.9662477970123 384.59917950630188 4317.2733616828918 353.07111024856567 1698.8465070724487 2937.9029400348663 798.01037192344666 2955.5240073204041 28421.610517024994 70.506772041320801 417.81919479370117 1763.3182742595673 120113.8296995163 1173.9239346981049 2315.0047965049744 17264.929696559906 232520.92360448837 639.10707902908325 50804.644710063934 1705.6703562736511 487.79056930541992 3371.2091784477234 2678.5185995101929 2444.644562959671 813.1410174369812 347.75270080566406 1246.342832326889 2805.3884375095367 1123.9987769126892 35696.750879764557 195019.83101773262 363.22293591499329 1503.1358346939087 1022.9377286434174 20627.479656934738 974.75113797187805 749.74164032936096 548.45525455474854 532.42909169197083 54.947000741958618 27806.640338420868 2815.7378778457642 18935.999722480774 13324.116421937943 8779.4629006385803 3776.9589202404022 64354.720315217972 302989.64703011513 9141.2623157501221 214112.93349003792 2727.9121763706207 144064.06528496742 1368.8380000591278 81003.128336906433 2520.7832472324371 1585.143278837204 183448.55258369446 42603.900331735611 3430.3347623348236 748.37429881095886 2961.5100898742676 6927.5836174488068 2670.5626027584076 283.43922758102417 33546.678601503372 4609.4504249095917 1012.7504234313965 410.36297535896301 1213.4827566146851 18420.654278755188 135112.06447863579 4067.2087967395782 3837.561901807785 255.56186556816101 1424.7531967163086 3871.6513204574585 24078.407174825668 9449.7172179222107 609.720534324646 1315.7545869350433 1098.5987143516541 633.38385915756226 727.8654637336731 1935.1008751392365 38402.578150987625 27898.661554336548 1817.3607294559479 5881.8443720340729 2447.7524166107178 3670.7360484600067 4989.3468205928802 2692.1925196647644 8175.6576497554779 41552.277486085892 3791.2893841266632 2784.3422985076904 2574.439332485199
leaf_count=69553 256 877 31478 44 4052 3928 13705 31 3099 633 1748 2808 555 25046 177 1261 16116 6769 8354 13281 253 21 11777 16 503 636 813 3274 826 2300 281 113 1785 104 612 1164 326 1103 12912 23 78 135 53352 331 953 6870 107096 224 22754 638 73 1305 785 789 194 112 412 1255 388 15179 90853 134 376 431 9187 400 198 207 145 11 11199 973 7836 4982 4005 1461 28128 141657 3467 97422 867 65862 462 37264 1014 701 85147 18310 1225 267 804 3009 1206 67 14504 1897 309 92 270 7200 60891 1288 1314 77 518 1480 10062 3374 180 445 350 218 234 628 16824 11696 539 2407 789 1274 2133 1026 3636 18018 1547 1037 965
internal_value=0.898446 1.04603 0.879671 1.24122 1.01215 0.917178 0.862949 1.20365 0.906417 0.983865 1.06935 0.948571 1.54467 0.903477 0.969983 1.0402 0.942686 0.875806 0.965239 0.853281 1.26739 1.02091 0.874009 1.10395 1.09025 1.15181 1.07599 0.966755 1.07265 0.958042 1.17624 1.02471 1.01001 1.02479 1.14846 1.05757 0.998063 1.02898 0.858676 0.917499 1.32234 1.69968 0.894181 1.16688 0.984488 1.01949 0.868845 1.10782 0.881226 1.03841 1.44355 1.06704 1.23702 1.24872 1.22206 1.30675 1.08256 0.952395 1.04706 0.955751 0.857515 1.19902 1.28109 1.02019 0.910411 0.926022 1.31173 1.15137 1.23098 0.9857 0.995273 1.0923 0.979723 1.07006 0.847211 1.00026 0.91094 0.849666 1.05922 0.878722 1.20922 0.867469 1.09531 0.856536 0.952376 0.952988 0.859375 0.925838 1.12882 1.14234 1.32454 0.942041 0.919449 1.25274 0.933894 0.948466 1.17413 1.30195 1.36333 1.02653 0.889982 1.14986 1.15954 1.06935 1.10357 1.01165 0.950558 1.10388 1.14977 1.16981 1.21718 1.04378 1.11082 1.1809 0.916565 0.948697 1.199 0.987779 1.13031 1.14157 0.922753 1.05875 0.919117 0.922629 1.0054 1.02243 1.07724
internal_weight=0 314300 2.47372e+06 46481.9 267818 762783 1.71094e+06 41361.3 568054 179205 88613.2 194730 5120.58 541667 130354 48099.8 180759 734409 124770 976527 18554.1 48850.6 698157 40513.4 30977.5 22807.2 5584.24 26387.2 8494.75 94070.3 14661.5 13971.1 40355.9 25562.8 9535.9 7020.94 11640.4 43688.8 516965 215946 6604.45 2021.59 325720 13611.5 14793.1 24461.4 406968 8145.74 291189 33591.9 3098.99 8380.66 11949.6 9887.99 5422.9 1160.89 28933.1 76654.9 6636.34 68860.2 488544 2044.42 4465.09 3179.6 36251.3 86688.3 6186.63 4410.93 1718.56 48114.8 27861.6 5009.45 28335.6 18237 459562 9399.58 120873 311769 12215.8 240385 3901.84 376585 3074.51 459472 62295.9 5902.42 264452 95072.9 5810.06 1101.45 5335.1 14746.8 52469 2961.96 47310.9 13764.2 1651.86 3371.87 1963.22 21376.2 205607 9709.69 7904.77 3324.79 1680.32 21136.6 59775.2 10696.1 2404.64 1925.48 1631.03 4123.59 4158.2 2061.62 39377.3 65734.7 4262.01 6564.21 7817.33 6118.49 7794.74 3325.58 52398.5 44222.8 8890.64 5099.35 3698.44
internal_count=1242035 119351 1122684 13609 105742 333440 789244 12802 251040 73013 32729 82400 807 240088 53916 18390 76962 334572 51870 454672 5216 19097 318616 14339 11153 7586 2046 10952 3125 39409 4717 5438 15972 9949 3186 2630 4669 16922 239457 94367 1695 179 145721 4436 6023 9578 186663 2869 131953 12870 628 3104 3521 2862 1634 306 10516 32306 2517 28918 226545 637 1228 1244 15956 37553 1617 1468 511 19564 11210 1799 11597 6730 215215 3761 53174 145662 4567 109199 1198 172958 1100 213264 26255 2486 122411 41193 1992 371 1364 6283 22883 852 20329 5825 533 896 468 8303 92369 3238 2602 1228 595 8350 25241 3786 802 625 495 1570 1459 659 17224 27812 1328 2663 2675 2063 3388 1244 22860 19224 3537 1990 1353
is_linear=0
shrinkage=1


Tree=1
num_leaves=128
num_cat=0
split_feature=1 8 1 8 8 8 1 1 1 0 3 1 0 0 1 0 0 1 8 1 1 0 1 1 3 8 1 20 3 18 0 3 8 0 0 3 7 23 1 3 1 8 0 0 2 0 0 10 20 2 8 22 8 3 0 8 0 3 2 2 3 22 16 25 3 8 0 0 3 29 0 2 1 8 11 20 19 0 8 0 22 1 23 18 8 2 20 10 20 2 10 1 2 6 17 0 10 0 18 1 0 0 0 18 3 22 8 17 0 17 5 0 1 2 19 8 15 2 0 0 0 0 0 1 2 18 0
split_gain=576364 146924 103312 40580.2 29597.3 15268.4 14449.1 12173 8194.49 7238.21 6426.97 6389.25 5212.62 4923.43 4784.47 4179.89 3368.74 2763.82 2586.78 2559.91 2166.26 2042.65 2016.55 1952.99 1792.89 1711.9 1697.15 1418.49 1397.54 1393.38 1259.48 1061.27 1048.1 1026.64 1008.64 1006.94 946.636 929.044 927.357 826.812 819.83 800.568 798.23 791.042 786.71 781.232 845.264 778.029 822.437 759.07 731.017 696.821 691.727 667.194 632.667 617.731 614.133 607.673 591.391 586.932 570.786 564.298 564.224 559.19 556.078 548.669 520.028 864.279 898.874 571.753 521.279 518.947 566.381 515.171 506.789 492.912 478.093 477.519 450.245 435.172 434.322 431.577 428.141 426.587 501.75 764.877 417.17 414.205 414.014 409.062 408.852 408.004 512.099 407.799 403.095 398.957 486.352 393.969 385.47 381.208 376.727 402.784 371.591 369.006 364.283 359.221 358.775 354.188 340.169 340.098 330.461 316.2 312.294 393.843 309.286 308.318 307.607 306.17 301.776 300.22 300.203 299.236 561.337 297.495 296.935 295.317 292.681
threshold=2.7412109375000004 8.9296875000000018 1.2729492187500002 25.500000000000004 4.2148437500000009 2.3564453125000004 0.73315429687500011 7.7089843750000009 4.3964843750000009 345.00000000000006 8.5000000000000018 4.1386718750000009 345.00000000000006 345.00000000000006 1.8588867187500002 350.50000000000006 350.50000000000006 5.8046875000000009 19.210937500000004 2.0458984375000004 6.0566406250000009 345.00000000000006 0.44348144531250006 1.0122070312500002 10.500000000000002 2.5000000000000004 6.1855468750000009 1.5000000000000002 26.500000000000004 130.50000000000003 91.500000000000014 30.500000000000004 3.9287109375000004 345.00000000000006 353.00000000000006 67.500000000000014 9.3906250000000018 1.0000000180025095e-35 1.7270507812500002 56.500000000000007 1.9946289062500002 13.359375000000002 353.00000000000006 350.50000000000006 0.27941894531250006 347.00000000000006 202.00000000000003 1.5000000000000002 1.0000000180025095e-35 0.37365722656250006 12.640625000000002 0.33911132812500006 6.0722656250000009 51.500000000000007 338.00000000000006 1.0712890625000002 27.000000000000004 51.500000000000007 0.11331176757812501 0.43054199218750006 21.500000000000004 0.34277343750000006 50.500000000000007 1.2651367187500002 65.500000000000014 0.92846679687500011 226.00000000000003 112.50000000000001 56.500000000000007 1.8251953125000002 219.00000000000003 0.23815917968750003 1.0034179687500002 1.0712890625000002 0.40075683593750006 1.5000000000000002 1.0000000180025095e-35 30.000000000000004 6.3574218750000009 331.00000000000006 0.39526367187500006 0.86840820312500011 6.5000000000000009 1.0000000180025095e-35 0.92846679687500011 1.3183593750000002 1.0000000180025095e-35 1.5000000000000002 1.5000000000000002 0.66284179687500011 2.5000000000000004 0.61157226562500011 0.21893310546875003 324.50000000000006 2.5957031250000004 189.50000000000003 3.5000000000000004 280.50000000000006 2.5000000000000004 4.1386718750000009 42.500000000000007 233.00000000000003 5.5000000000000009 1.0000000180025095e-35 25.500000000000004 0.39941406250000006 2.2138671875000004 1.2631835937500002 233.00000000000003 1.1622905731201174e-06 2017.5000000000002 41.000000000000007 0.26843261718750006 0.054412841796875007 64.000000000000014 1.9287109375000002 2.0034179687500004 1.1430664062500002 343.50000000000006 119.50000000000001 107.00000000000001 119.50000000000001 224.50000000000003 1.7329101562500002 9.6250000000000018 5.5000000000000009 5.5000000000000009
decision_type=2 2 2 2 2 2 2 2 2 2 2 2 2 2 2 2 2 2 2 2 2 2 2 2 2 2 2 2 2 2 2 2 2 2 2 2 2 2 2 2 2 2 2 2 2 2 2 2 2 2 2 2 2 2 2 2 2 2 2 2 2 2 2 2 2 2 2 2 2 2 2 2 2 2 2 2 2 2 2 2 2 2 2 2 2 2 2 2 2 2 2 2 2 2 2 2 2 2 2 2 2 2 2 2 2 2 2 2 2 2 2 2 2 2 2 2 2 2 2 2 2 2 2 2 2 2 2
left_child=2 4 6 7 11 9 22 17 15 14 29 13 19 25 47 31 23 30 36 75 21 66 112 44 -22 64 35 86 42 114 -3 79 117 50 -29 54 41 94 59 56 -14 98 -15 58 -8 46 95 -4 -49 -25 -19 -42 61 -23 83 87 124 -56 -24 -36 93 76 -12 -20 77 -50 67 69 70 -10 -69 -18 -73 -51 -30 108 -33 -2 -39 102 90 -46 -43 84 110 -86 123 -16 103 -40 -79 -60 -93 -17 -26 -32 -97 -31 -9 -48 -65 -102 -6 -27 -53 -58 -85 -71 119 -57 -13 -100 -1 -114 -5 -37 -76 -21 -84 -7 -104 -34 -123 -11 -28 -54 -77
right_child=1 3 5 10 8 12 16 18 20 27 62 26 40 28 55 60 71 33 63 32 24 53 43 49 37 88 39 34 74 97 45 52 121 -35 38 115 -38 78 89 -41 51 82 -44 -45 81 -47 99 48 65 73 -52 104 125 -55 57 109 105 -59 91 -61 -62 -63 -64 100 -66 -67 -68 68 -70 107 -72 72 -74 -75 116 126 -78 80 -80 -81 -82 -83 118 106 85 -87 -88 -89 -90 -91 -92 92 -94 -95 -96 96 -98 -99 111 -101 101 -103 120 -105 -106 -107 -108 -109 -110 -111 -112 -113 113 -115 -116 -117 -118 -119 -120 -121 -122 122 -124 -125 -126 -127 -128
leaf_value=-0.054889787875404855 0.061238871823140653 0.12306465687531337 0.01276614663462327 0.51445114098053091 0.16882596946772255 0.014370267371726681 -0.019023372888511074 0.29142844439842069 0.40760282210518384 0.010450123630299934 0.38909078968367927 0.11604939178277032 0.062920379532832763 0.10568433945375599 0.029825915288294164 0.25321850913316868 0.043540810833499775 0.19171276293510203 0.52102084117056746 0.053798108333259133 0.58357444453345264 0.23157787088285176 -0.021676939975863618 -0.0014825329519625231 0.287453286141853 0.082868668904975684 0.19688718806866745 0.032065182480734131 0.026241959627748269 0.68442998466319271 0.18630518569476079 0.44264417238748471 0.041495156106884694 0.29956413887416189 0.14048800645126835 0.0046824199161156384 0.55765166534537169 0.13925708195471612 0.17282221385242691 0.09388460116137004 0.21656076020732531 0.34483104105495777 0.18823715821372544 -0.024926674528267512 -0.035918312105395284 0.24769753025026164 0.1130216171644727 -0.0020385440802395348 -0.017690765614133387 -0.024510342234272852 0.23306423228035864 0.11988738712612559 0.12997286274552686 0.12296969844197646 0.15926775641893037 0.057245549601362411 0.33685586997432243 0.062406439863691425 -0.044325829072058662 0.047077248742135022 0.15202787029170214 0.086905648483442927 0.49371594604198743 0.25320978374532127 0.013187871140513877 -0.0078891602802504349 0.1125262433641035 0.13013959888730434 0.19723459347534533 0.23149328418661527 0.21606263652735203 -0.010902924974976327 0.012569763053756178 -0.015284792625041808 0.1134709277555486 0.059662089881707375 0.13570970573398886 0.13012564501257534 0.17351210862611288 0.11718674550330588 0.037202277147416939 -0.028968938248184296 0.26659988792730482 0.045643084808565514 0.48429075757778306 0.099762815269333921 -0.023259181929162483 0.0028368560597249056 0.047629360158169771 0.093613196194427983 -0.016764258826384885 -0.027991857838928765 -0.040719649186496315 0.16824354584651843 0.20031152256341361 0.35493559253823692 0.21564466804737742 0.81529291211395416 0.10448004507483317 0.16304809195541603 0.36862807467298436 0.31052875439168015 0.048038401833792793 0.058574208857972411 0.079808060952194476 0.12979262506731479 0.077395588046054287 0.1074304505687142 0.010249207504878153 0.015161830402129914 0.058125109963708635 0.2293959692368559 -0.029357103569718643 -0.048981702762136266 0.61808450478624521 0.06004135016003706 0.051981194104258083 0.030955334539903269 0.34467849273197532 0.036195944763937879 0.073796031195749234 0.080591206347001537 0.046666637615395877 0.03978289705989075 0.35058528762579094 0.10288400038246977 0.0065491019432775384
leaf_weight=94745.46103811264 8160.3339872360229 5550.1036579608917 17360.715846538544 454.42763137817383 353.21636724472046 9052.1827688217163 50862.805601358414 1022.6336846351624 65.275036334991455 7202.2907586097717 1921.6081416606903 1192.9059884548187 8445.0899105072021 1972.7841210365295 6120.1786136627197 1332.3406064510345 2832.9095504283905 9695.5035037994385 165.38457536697388 6584.4190216064453 105.50764799118042 2582.0230710506439 15440.559378623962 20720.080698728561 643.21684503555298 7962.9679253101349 941.78203940391541 10612.360428094864 1285.6164076328278 524.60736703872681 4278.2726142406464 80.116427898406982 8856.4915058612823 1379.9977462291718 724.13362121582031 2074.6248624324799 106.75736045837402 6392.7595732212067 749.51196026802063 4966.0934903621674 534.6710832118988 887.75556302070618 2882.989602804184 33136.543539524078 172319.8259241581 1471.7210619449615 1928.0381236076355 115361.6557033062 105502.17062687874 176532.88333034515 7646.8709053993225 4369.9262008666992 6789.5600905418396 724.28665471076965 2024.2888107299805 1952.2012166976929 85.392855167388916 952.43480730056763 245425.15015530586 9462.6280283927917 3208.2249584197998 27677.035683870316 704.37964200973511 517.27611780166626 9896.7682793140411 124510.59095668793 16615.388287782669 8791.2559814453125 3350.2834613323212 236.15322923660278 767.73607397079468 23615.291170597076 18203.968281745911 92113.29993891716 3196.9099576473236 1067.3783550262451 138.44160914421082 206.19445967674255 9598.0163853168488 1893.7316007614136 69100.600070953369 185634.75323081017 7594.5119562149048 4604.8839173316956 51.917989492416382 14224.449199438095 2103.9144909381866 80236.757550954819 27676.55495595932 5010.8368496894836 2338.7215223312378 39153.138689756393 164119.11498308182 980.29060482978821 3038.0255908966064 324.75263643264771 1098.8821730613708 409.73062419891357 209.56258082389832 7254.6045303344727 2704.5218367576599 2135.3909990787506 6720.3486542701721 29097.255838871002 4714.1718664169312 4444.2036509513855 15659.948635101318 9004.4214811325073 13134.999680757523 117617.12247562408 5648.8503949642181 6135.0850553512573 10754.933844566345 208081.97362089157 786.22349786758423 1953.2627112865448 1091.2724750041962 53902.384461402893 529.53274464607239 20746.912623643875 13850.300755500793 9772.4338347911835 9737.5162131786346 6650.0615830421448 145.05706214904785 9881.7893879413605 37080.578990697861
leaf_count=46843 3214 1865 7689 52 121 3879 23592 239 15 3119 323 429 3319 722 2628 353 1210 2796 22 2688 13 684 7297 9382 159 3069 287 4520 523 35 1251 17 3583 305 264 911 14 2092 243 1770 154 181 850 15541 82219 376 654 51710 48453 82371 1985 1533 2328 248 652 807 17 369 119016 3841 1018 10289 93 122 4283 56211 5757 2981 1025 70 235 10667 7955 42340 1150 423 48 77 2920 671 28512 87484 1796 1817 11 5206 945 35439 11097 1843 1038 18533 78951 293 863 75 313 16 66 2227 502 445 2627 11502 1774 1486 5878 3129 5666 50770 2177 1603 5142 101735 64 760 428 22454 105 8656 5256 3747 3916 2758 35 3496 16222
internal_value=0 0.106842 -0.0195551 0.242261 0.0813794 0.0096621 -0.0345835 0.220785 0.118394 0.00199609 0.522453 0.059085 0.034584 0.0489808 -0.000979551 0.0956747 -0.0245081 0.188339 0.280682 0.0291551 0.145147 0.132332 -0.0438138 -0.0262111 0.17245 0.0444901 0.0873345 0.0417962 0.115479 0.649585 0.164227 0.088821 0.0408796 0.216552 0.0559539 0.0794009 0.260839 0.170245 0.0718512 0.12361 0.0856564 0.258905 0.154698 -0.0398536 -0.0306608 0.178195 0.171322 -0.00789071 -0.00892906 -0.0199247 0.209946 0.105618 0.0978007 0.207786 0.0837478 0.0111943 0.149894 0.128276 -0.0409193 0.0537174 0.179327 0.0881695 0.417155 0.339916 0.035546 -0.012385 0.125907 0.135916 0.152662 0.112684 0.137041 0.00212064 -0.000685239 -0.0213471 0.0813124 0.0163068 0.248222 0.0383187 0.159818 0.071282 0.0357081 -0.0323144 0.278894 0.0805448 0.0904905 0.101161 0.0182303 0.00474959 0.0568834 0.10392 -0.00486293 -0.0415815 -0.0382681 0.217199 0.215538 0.201564 0.247419 0.741817 0.234453 0.152544 0.334325 0.342994 0.0671274 0.0637943 0.0990883 0.133696 0.0701803 0.110601 0.0236563 0.0158489 0.0682246 0.22527 -0.0500937 -0.0480172 0.580126 0.0315279 0.0978228 0.0334419 0.271689 0.0295659 0.0653811 0.0567393 0.0636593 0.0245318 0.217401 0.113916 0.0080352
internal_weight=0 426097 2.35287e+06 67438.1 358659 799176 1.55369e+06 62637.2 134820 611177 4800.98 223839 187999 164869 568661 72905.4 742836 40628.7 22008.4 169935 61914.3 42136.8 810857 698184 19777.5 154439 58970.1 42515.7 10429.6 2174.99 21906.4 67384.5 88853.2 18722.4 26559.5 48387.6 16485.8 19672 15947.1 10582.5 18063.9 16379.1 4855.77 497275 408817 16356.3 14884.6 362735 345374 289366 17342.4 9618.77 44566.9 3306.31 44359.7 205926 5616.44 2976.72 464138 10186.8 5520.86 27895.6 2625.99 5522.57 89702.6 230013 38830.5 22215.1 12909.3 9305.85 9558.99 44652.2 41819.3 268646 5573.8 81082.1 218.558 79805.9 15990.8 22817.6 71645.5 357955 9011.8 41383 21118.1 14276.4 15956.3 86356.9 64736.8 5760.35 2544.92 448697 203272 2312.63 3681.24 5701.91 1423.63 934.338 7367.28 9182.64 5357.19 4839.91 20923.9 37060.2 9084.1 4529.6 20264.8 9240.57 42934.1 119569 6841.76 6344.65 313582 218837 1240.65 4027.89 4288.18 60486.8 8124.04 29799.1 20570.6 28366.4 19510 13852.4 1086.84 16671.3 38148
internal_count=1242035 152503 1089532 17525 134978 349254 740278 16942 46708 271240 583 88270 78014 66465 253707 26517 347220 11847 5095 71234 20191 14144 393058 327388 6047 62792 21805 17533 3673 167 6761 24853 36388 5086 10711 18210 4004 6034 6191 3595 6780 3990 1572 239338 193295 4896 4520 164063 156374 134093 4781 3461 16178 932 16539 89644 1825 1021 223797 4105 1664 10354 416 1091 37124 104664 13212 7455 4241 3214 3216 19832 18622 124711 2101 34846 65 32841 5012 8675 29627 169703 2082 15518 7823 5217 6822 38067 25668 2086 1115 216500 97484 646 1022 1639 388 51 1908 2881 1069 947 8004 14571 3307 1503 7695 3199 18201 51577 2606 1669 153720 106877 116 1671 1578 25142 1901 12535 7883 11246 7663 5877 322 5824 16645
is_linear=0
shrinkage=0.1


Tree=2
num_leaves=128
num_cat=0
split_feature=1 8 1 8 8 8 1 19 1 1 0 1 0 1 0 0 0 1 8 18 1 8 1 0 0 8 23 7 8 8 3 19 28 3 3 8 0 0 3 2 1 18 0 0 0 2 1 2 2 10 0 1 8 3 20 2 1 16 0 7 3 0 3 2 2 1 0 27 3 0 8 18 27 3 14 2 0 22 17 1 7 27 2 0 1 28 14 13 0 0 3 20 8 20 1 8 10 1 2 23 17 20 8 11 0 0 3 2 1 0 8 17 13 2 14 3 1 1 3 2 2 20 2 20 0 1 0
split_gain=438379 99979.8 77929.4 26344.3 19696 11883.1 9892.47 8718.55 6017.12 5584.82 4915.03 4880.68 3997.41 3988.12 3856.6 3265.61 2442.07 2110.77 1541.66 1511.95 1453.43 1401.97 1313.56 1228.51 1222.94 1205.74 1147.7 1140.09 1133.36 1117.96 1003.78 956.245 909.462 894.801 871.775 821.225 779.146 909.364 766.186 742.322 727.656 726.922 726.146 698.374 1099.83 689.866 682.631 680.637 659.197 641.596 628.841 620.352 615.24 559.165 550.547 531.627 514.65 505.977 500.843 475.266 453.638 444.305 444.194 443.329 422.83 429.524 415.3 414.48 423.409 412.432 405.535 404.089 401.551 395.809 392.531 386.466 385.666 384.369 379.263 378.523 371.92 370.529 370.303 368.712 363.793 361.197 350.001 348.195 335.602 561.904 505.976 333.738 333.332 330.866 324.102 316.994 314.417 309.817 502.815 307.734 297.316 297.106 293.595 290.488 288.75 686.068 464.598 288.694 282.582 278.871 276.478 276.403 494.77 275.537 271.938 268.158 264.6 263.415 310.274 263.375 258.768 254.178 252.986 248.528 247.629 247.436 244.039
threshold=2.5869140625000004 8.2148437500000018 1.1713867187500002 20.789062500000004 3.9287109375000004 2.0712890625000004 0.67309570312500011 74.500000000000014 6.1855468750000009 4.2578125000000009 345.00000000000006 4.1386718750000009 345.00000000000006 1.6391601562500002 349.00000000000006 345.00000000000006 345.00000000000006 1.7719726562500002 13.785156250000002 1.0000000180025095e-35 0.91821289062500011 1.6425781250000002 0.39196777343750006 89.000000000000014 347.00000000000006 28.789062500000004 1.0000000180025095e-35 9.3906250000000018 3.3564453125000004 1.6425781250000002 26.500000000000004 1.0000000180025095e-35 2.3593750000000004 23.500000000000004 24.500000000000004 6.2148437500000009 349.00000000000006 224.50000000000003 51.500000000000007 0.23480224609375003 1.6762695312500002 2.5000000000000004 280.50000000000006 231.50000000000003 112.50000000000001 0.37609863281250006 1.9946289062500002 0.093078613281250014 0.72241210937500011 1.5000000000000002 353.00000000000006 3.4521484375000004 12.640625000000002 65.500000000000014 1.0000000180025095e-35 1.2172851562500002 6.8964843750000009 54.000000000000007 350.50000000000006 5.6640625000000009 56.500000000000007 338.00000000000006 56.500000000000007 7.3105468750000009 0.21319580078125003 0.92993164062500011 91.500000000000014 1.8930664062500002 63.500000000000007 39.000000000000007 2.5000000000000004 1.0000000180025095e-35 0.67871093750000011 51.500000000000007 1.1284179687500002 1.0551757812500002 353.00000000000006 0.39526367187500006 0.72290039062500011 1.6469726562500002 2.5410156250000004 0.53564453125000011 0.98168945312500011 5.5000000000000009 3.4052734375000004 2.3593750000000004 8.6796875000000018 1.1918945312500002 238.50000000000003 343.50000000000006 56.500000000000007 1.0000000180025095e-35 0.78564453125000011 1.5000000000000002 3.9580078125000004 1.0712890625000002 1.5000000000000002 0.52709960937500011 0.18511962890625003 1.0000000180025095e-35 0.55590820312500011 1.5000000000000002 1.2143554687500002 0.40075683593750006 91.500000000000014 226.00000000000003 56.500000000000007 1.3999023437500002 3.1376953125000004 110.00000000000001 0.78564453125000011 2.4443359375000004 1.0551757812500002 0.87182617187500011 1.1840820312500002 56.500000000000007 5.3339843750000009 3.7148437500000004 56.500000000000007 0.43054199218750006 0.64379882812500011 1.5000000000000002 0.47277832031250006 1.0000000180025095e-35 329.50000000000006 8.1328125000000018 231.50000000000003
decision_type=2 2 2 2 2 2 2 2 2 2 2 2 2 2 2 2 2 2 2 2 2 2 2 2 2 2 2 2 2 2 2 2 2 2 2 2 2 2 2 2 2 2 2 2 2 2 2 2 2 2 2 2 2 2 2 2 2 2 2 2 2 2 2 2 2 2 2 2 2 2 2 2 2 2 2 2 2 2 2 2 2 2 2 2 2 2 2 2 2 2 2 2 2 2 2 2 2 2 2 2 2 2 2 2 2 2 2 2 2 2 2 2 2 2 2 2 2 2 2 2 2 2 2 2 2 2 2
left_child=2 4 6 8 11 10 22 25 23 15 13 14 17 49 21 33 20 93 41 32 39 53 -1 94 35 59 29 -9 -19 56 76 78 63 83 50 116 37 52 -26 -8 -14 85 -29 44 71 -22 123 -24 -42 -4 -12 82 117 77 -51 -17 60 61 97 -5 69 67 75 111 -18 -66 -43 68 -20 -13 -28 74 -64 84 -35 -46 -16 114 -31 119 -39 109 -23 -6 -57 -10 -27 -58 90 -90 -68 120 -56 126 -3 -47 -93 -49 -99 108 -53 -50 -36 -32 -37 106 -106 -78 -79 -30 -41 112 -11 -98 -2 -91 -21 -25 -119 -52 -48 -84 -104 -15 -85 -69 -7
right_child=1 3 5 7 9 12 16 27 18 19 34 26 40 46 30 55 64 28 57 24 45 51 47 36 38 86 70 42 81 31 103 -33 -34 43 102 104 -38 80 -40 110 48 66 -44 -45 62 95 91 58 101 54 79 100 -54 -55 92 73 87 -59 -60 -61 -62 -63 72 -65 65 -67 88 125 -70 -71 -72 -73 -74 -75 -76 -77 107 99 -80 -81 -82 -83 121 124 -86 -87 -88 -89 89 115 -92 96 -94 -95 -96 -97 113 98 -100 -101 -102 -103 122 -105 105 -107 -108 -109 -110 -111 -112 -113 -114 -115 -116 -117 -118 118 -120 -121 -122 -123 -124 -125 -126 -127 -128
leaf_value=-0.048463198936648952 0.065043441426724011 0.06483532536047211 0.0073875247984969 0.24088466933413027 0.14146810722647105 0.018462995692731413 -0.017961653107903403 0.38274858923071697 0.21056495538443043 0.36211162730645424 0.02237757348671001 0.1050955476450318 0.037060242424926379 0.0050610524651867441 0.085304199413538812 0.27634393764146281 0.026486233340723558 0.020374216234063987 0.21123894793464326 0.083109677621251571 -0.010177345895262873 0.11891647060023386 -0.017453367168089817 0.1090740687816449 0.18362458042563512 0.33971517269492302 0.04056837308988781 0.49978378951510155 0.031340731574339059 0.16483248370130724 0.025297411071479037 0.075371353973512301 0.36414062376880901 0.289367193108301 0.0068310561372878905 0.092827031896025702 0.19242249015246918 0.092498772980498745 0.085751758120052576 -0.034697133511784599 0.15965286252894248 0.13234520980439754 0.64181046073496339 0.060212998932988052 0.29756238621615388 -0.026206818464160175 0.079023469803158511 -0.043921677700364752 0.053179577786577281 -0.0068063436525696566 0.097743409950890453 0.11429147570935563 0.19328579171339366 0.00026078175589566119 -0.020299305102864405 0.1169177491230077 0.23443265971023278 0.41125845702636954 -0.027195360411237841 0.29173226117198503 0.033254832526606264 0.26452435374163469 0.13740635880906482 0.19111500609221327 -0.016031164620248433 0.0014098581038760941 0.16950417102590892 0.17771892900754022 0.28772438402982331 0.059154122834583878 0.066054327952535366 0.05285408575115165 0.094799098798436718 0.080889537912736564 0.091672437155174466 0.084020944380707216 0.19857550272178323 0.026355339927711875 0.11528200686189782 0.079422971256153871 0.12884222629560554 0.034143334216793907 0.04251800178330839 0.046586111958733634 0.16255982828699655 0.38051928563605952 0.46355758374420297 0.098420835345750746 0.14487665590390239 0.228957626955236 0.22667809010371279 0.032596917844926958 -0.012454304915012123 -0.0002483862338652405 0.10941180725530064 -0.018428903430157646 -0.022551027227129816 -0.029278847582185949 -0.040752247623796783 0.017907407088254775 0.052741828355592379 0.082120195200907228 0.11525305394164334 0.079399334113378295 0.12702585363772365 0.10371003296141093 0.17753763867935538 0.13047475689308916 0.042762019358968562 0.062998638015595909 -0.028172409845757931 0.12726883829274444 0.15634968488837961 0.0054255501824882792 -0.020267564176428842 0.14484970470370986 0.10209557067450468 0.13148671965533967 0.16670070638872336 0.038117017501684058 0.015454175855188821 0.031518579744582248 0.026230044551548204 -0.003539844435926442 0.088517804484126217 0.20676443455059418 0.00094073261784894118
leaf_weight=227572.67450428009 438.72376942634583 2193.1023697853088 16036.997322797775 3936.8603291511536 444.32656645774841 25644.13397526741 36757.087749242783 551.779620885849 2559.5736925601959 130.23927712440491 8160.8904023170471 2715.7126898765564 7020.4694631099701 54400.132286787033 1553.1497187614441 250.02097678184509 3686.4620623588562 84111.643198490143 2428.9596769809723 17743.507476329803 42036.557406663895 558.41106700897217 14029.127753257751 1986.5120983123779 3078.3392610549927 1229.8680200576782 9830.6766705513 1023.6476144790649 3930.9584124088287 2061.1014227867126 1302.5358929634094 6069.3345391750336 188.11158990859985 106.41914868354797 13891.314486026764 4488.8133456707001 2679.1684913635254 4436.5969059467316 1080.6367678642273 241496.29261851311 884.17225360870361 3523.3220207691193 555.24848747253418 20878.583290815353 85.255779027938843 184205.60743927956 648.83685374259949 174648.4525103569 5832.8175101280212 96274.412129878998 826.46681213378906 806.04038453102112 2953.7761569023132 8528.3757319450378 95959.435908555984 3740.4402523040771 205.94819808006287 123.59647417068481 29242.064303636551 3448.3132393360138 4380.0204172134399 1292.516327381134 3964.0727827548981 1594.7960851192474 32486.206711530685 24976.355049133301 5504.8555564880371 4992.7399561405182 1030.9806072711945 6967.6431651115417 17110.181771755219 11279.426615953445 5004.3684599399567 1453.350132226944 1785.9861135482788 14323.672512292862 782.18747782707214 22879.007156610489 6165.3601548671722 4987.1313078403473 7707.4269602298737 33984.102511405945 43563.665814638138 20544.970988988876 3275.6306202411652 131.47187685966492 280.20056819915771 2186.7262375354767 7409.7297956943512 1378.0334448814392 2153.350549697876 4027.3952443599701 124343.98897457123 37884.198737859726 6364.4279592037201 73230.172451257706 3739.0698637962341 48404.629754304886 181119.88789451122 16867.123479366302 29803.738896846771 9052.9016678333282 329.67950630187988 4168.6228356361389 6468.2237091064453 10606.089792966843 2534.4037265777588 3048.9511940479279 19399.042966604233 9524.2150540351868 88832.688639640808 8088.4229555130005 1137.7555365562439 60194.004536867142 2518.8964278697968 522.90870189666748 12520.119983673096 5048.7758793830872 4960.636004447937 7146.3181269168854 48937.280997276306 40577.063504695892 10062.423663139343 87849.816188335419 1512.020081281662 7109.1952784061432 11518.554584741592
leaf_count=116659 171 740 7124 664 139 10858 17497 50 554 26 3442 878 2769 24043 530 53 1605 35129 484 5876 19622 202 6846 598 720 140 3652 61 1576 600 518 2083 27 24 5965 1395 593 1337 341 118744 263 921 21 7408 22 88499 259 88416 2160 43814 293 284 689 3731 45068 1089 44 16 14163 495 1712 216 1243 384 15182 11161 1299 1096 176 2490 5986 4035 1691 473 605 4938 196 9410 1974 1703 2149 13578 17047 7660 862 19 20 681 1875 264 457 1679 57279 16759 1912 34495 1690 23772 90727 6929 11284 3135 123 1445 1889 3233 662 842 7550 3597 43168 2390 311 26081 1130 124 3849 1386 1272 2835 20956 16202 4177 39621 521 1396 5042
internal_value=0 0.0842501 -0.0189896 0.180054 0.0634744 0.00457555 -0.0335582 0.324795 0.159722 0.0911696 -0.00244453 0.0462463 0.024095 -0.00487479 0.0387481 0.0745198 -0.0254702 0.0197105 0.186771 0.112358 -0.0272248 0.0353656 -0.0422777 0.131381 0.10593 0.281275 0.0718235 0.506487 0.0273449 0.085025 0.0966852 0.105482 0.146126 0.0681806 0.0292642 0.101932 0.140979 0.135892 0.158194 -0.0314424 0.0638408 0.170004 0.54973 0.0748035 0.0831383 -0.0220548 0.00440904 -0.0391317 0.0757629 -0.0121261 0.044122 0.0421616 0.152404 0.0242709 -0.0131146 0.13263 0.0672538 0.209665 -0.0398334 0.264627 0.0599594 0.208187 0.0961595 0.142381 -0.00634414 -0.00845035 0.163587 0.203508 0.23403 0.0720385 0.0567545 0.0600284 0.113632 0.128388 0.10279 0.0852844 0.127338 0.0275681 0.127697 0.0578145 0.115565 0.0397043 0.0377522 0.0512774 0.138227 0.218868 0.362695 0.110128 0.170074 0.15732 0.18558 0.010048 -0.0158714 0.00632796 0.0979879 -0.0239943 0.00549652 -0.0407477 -0.0383326 0.0293274 0.0543626 0.0707801 0.0163415 0.0665191 0.115706 0.120943 0.141246 0.144379 0.0338835 0.0537497 -0.0329425 0.134074 0.177484 0.00378936 -0.00761281 0.205821 0.0909642 0.142337 0.148939 0.0442979 0.016286 0.0372135 0.0290542 -0.000250635 0.0494606 0.194782 0.013032
internal_weight=0 502314 2.26993e+06 89517.6 412796 867204 1.40272e+06 11025.9 78491.7 158308 637816 254488 229388 592411 196796 88648.5 727707 206598 40161.2 69659.5 666558 185940 675017 38330.4 58520.1 8895.24 57692.7 2130.68 131551 30751.8 10855.4 14295.8 11139.3 79929.1 45404.2 54361.2 29772.9 27093.7 4158.98 367086 22790.4 23183.2 1578.9 57427.8 36549.2 299472 259797 447444 15769.9 332615 21120.8 115309 14949.7 70631.2 316578 8719.44 16456.1 16978 433415 7385.17 14063.4 16854.4 23377.4 10951.2 61149 57462.6 20492.2 15561.9 3459.94 9683.36 26940.9 13171.8 8968.44 8469.42 1892.41 14408.9 5384.29 62102.8 8226.46 12959.9 12144 47439.3 84699.1 22501.3 7016.07 2691.05 1510.07 2392.67 16968.9 9310.67 7658.21 117547 220303 75046.9 8557.53 257436 67960.5 404173 229525 59145.2 30609.8 14885.7 24283.4 5471.16 24097.5 19608.7 9002.63 3831.14 42278.1 13455.2 330329 9356.42 1267.99 63933.1 2957.62 1900.94 30263.6 11995.9 10009.4 7972.78 49586.1 84140.7 10392.1 142250 22057 12101.9 37162.7
internal_count=1242035 170461 1071574 21024 149437 381018 690556 1451 19573 51866 286152 97571 94866 267614 77471 30763 349973 86539 8897 21103 322025 73940 340583 10676 17965 1319 20100 132 53880 10462 3531 4657 3138 28286 18538 16904 8024 7431 1061 179409 8327 5513 82 19966 12558 142616 114329 223924 5558 153285 8273 45019 3945 28921 146161 2477 5805 3384 217078 1159 5080 3368 7894 3111 27948 26343 4940 3152 660 3368 9638 4664 2934 2424 629 4960 1568 25190 2574 4831 3486 18751 33451 8320 1951 573 160 725 4019 2263 1756 50665 102347 32659 2652 122994 29450 202915 114499 23889 11568 5295 10265 1963 7179 5784 2551 1038 16960 5173 161912 2727 337 27771 1301 388 9725 3256 2658 3128 21215 33249 4300 63664 8181 2492 15900
is_linear=0
shrinkage=0.1


Tree=3
num_leaves=128
num_cat=0
split_feature=1 8 1 8 1 8 1 23 1 8 8 1 1 18 1 8 1 1 16 1 8 2 19 8 19 3 2 2 3 2 2 10 2 1 8 2 19 11 17 8 2 8 8 27 17 1 2 8 8 1 19 1 2 2 23 18 2 17 13 5 1 2 1 1 2 3 2 1 14 17 20 17 8 10 2 8 17 1 13 8 17 8 2 23 13 17 18 2 22 18 3 1 1 2 27 23 2 2 8 27 17 1 19 1 2 5 2 2 17 1 24 24 2 2 28 27 29 17 1 8 1 15 24 5 1 2 20
split_gain=339501 74728 55656.1 18692.2 11614.3 8103.39 7514.28 5636.19 5495.26 3794.23 3376.29 2399.06 2388.01 1561.61 1305.11 1285.52 1219.66 1131.53 1077.43 1044.85 1003.89 991.43 899.335 794.039 747.754 669.395 665.557 655.966 650.372 629.881 622.906 615.655 590.588 646.183 589.025 825.621 584.186 581.379 570.884 531.594 515.529 506.494 505.016 478.876 474.57 458.19 445.492 413.072 399.109 398.181 377.735 355.402 352.85 347.167 344.208 329.377 326.515 316.94 305.111 456.319 302.861 299.429 297.219 294.596 532.151 288.633 287.421 281.46 278.965 275.936 273.28 273.007 272.726 303.635 271.976 261.992 364.056 261.464 260.563 256.036 479.062 255.31 249.042 246.356 293.553 245.637 243.049 242.905 299.743 235.826 235.623 233.653 232.396 265.29 222.272 212.493 211.63 211.588 209.217 204.708 201.116 198.145 196.124 192.301 324.798 185.978 185.975 183.75 181.259 179.746 179.297 179.235 179.14 177.814 176.461 175.973 240.257 174.91 174.146 170.537 167.164 162.634 161.077 160.996 160.359 159.839 158.862
threshold=2.3837890625000004 6.7851562500000009 1.1186523437500002 19.648437500000004 3.4873046875000004 1.6425781250000002 0.64965820312500011 90.000000000000014 5.8046875000000009 3.2138671875000004 2.7861328125000004 1.5708007812500002 1.6547851562500002 1.0000000180025095e-35 8.1328125000000018 0.78564453125000011 3.6279296875000004 5.4589843750000009 49.000000000000007 0.39196777343750006 3.3564453125000004 0.96850585937500011 178.50000000000003 4.9277343750000009 1.0000000180025095e-35 56.500000000000007 0.59350585937500011 0.44763183593750006 56.500000000000007 0.43566894531250006 0.10018920898437501 1.5000000000000002 0.17791748046875003 0.85131835937500011 1.0712890625000002 0.74829101562500011 1.0000000180025095e-35 0.35900878906250006 0.51135253906250011 4.5000000000000009 0.21319580078125003 10.640625000000002 10.929687500000002 0.39282226562500006 1.9638671875000002 0.88256835937500011 0.33703613281250006 0.78564453125000011 12.359375000000002 9.2539062500000018 1.0000000180025095e-35 1.2875976562500002 0.52758789062500011 0.32800292968750006 42.500000000000007 5.5000000000000009 0.31799316406250006 4.8164062500000009 0.47888183593750006 2017.5000000000002 7.7089843750000009 0.89965820312500011 5.4589843750000009 0.50366210937500011 0.16937255859375003 64.500000000000014 0.60034179687500011 1.9506835937500002 8.6796875000000018 14.390625000000002 2.5000000000000004 6.5468750000000009 0.78564453125000011 1.5000000000000002 0.38293457031250006 4.7851562500000009 2.0986328125000004 4.8457031250000009 2.0175781250000004 0.64282226562500011 0.43298339843750006 1.7856445312500002 0.27355957031250006 1.5000000000000002 0.89038085937500011 1.1026859283447268e-06 21.500000000000004 0.41247558593750006 0.45617675781250006 3.5000000000000004 65.500000000000014 0.76489257812500011 1.3608398437500002 0.68237304687500011 0.46423339843750006 1.0000000180025095e-35 0.063690185546875014 0.15899658203125003 4.2148437500000009 0.53564453125000011 4.1718750000000009 2.0966796875000004 1.0000000180025095e-35 0.23382568359375003 0.039627075195312507 2017.5000000000002 0.086883544921875014 0.47473144531250006 4.8847656250000009 5.6914062500000009 2.5000000000000004 5.5000000000000009 0.66284179687500011 1.3896484375000002 2.0449218750000004 9.8945312500000018 7.5097656250000009 3.5849609375000004 1.2465820312500002 2.0712890625000004 0.49035644531250006 1.4790039062500002 5.5000000000000009 2018.5000000000002 10.355468750000002 0.28698730468750006 1.5000000000000002
decision_type=2 2 2 2 2 2 2 2 2 2 2 2 2 2 2 2 2 2 2 2 2 2 2 2 2 2 2 2 2 2 2 2 2 2 2 2 2 2 2 2 2 2 2 2 2 2 2 2 2 2 2 2 2 2 2 2 2 2 2 2 2 2 2 2 2 2 2 2 2 2 2 2 2 2 2 2 2 2 2 2 2 2 2 2 2 2 2 2 2 2 2 2 2 2 2 2 2 2 2 2 2 2 2 2 2 2 2 2 2 2 2 2 2 2 2 2 2 2 2 2 2 2 2 2 2 2 2
left_child=2 4 6 8 10 11 19 18 16 17 34 27 29 24 42 32 57 25 49 103 26 44 -9 102 37 50 74 72 43 118 96 56 106 82 65 -36 114 98 -37 110 91 55 89 60 105 -42 -47 90 111 -5 79 -29 -49 -35 115 71 -13 -3 59 -27 -19 101 117 -32 -65 87 -53 -63 -56 -50 -20 83 73 -4 -14 -26 -77 -39 -30 123 -81 -60 -34 84 -18 -54 94 -2 -89 -10 -33 -17 -31 -94 -43 -40 -21 -75 -11 -22 -41 -28 -15 -1 -105 121 -8 -48 -57 -78 113 -38 -90 -23 -16 116 -51 -25 -7 -97 -98 -12 -104 -6 -117 -74 -59
right_child=1 3 5 7 9 12 15 22 14 13 21 31 20 23 36 40 41 28 70 30 99 39 -24 62 75 58 61 51 78 92 63 47 33 53 35 38 48 77 95 100 45 86 -44 -45 -46 46 107 52 69 54 -52 66 85 -55 68 108 -58 126 81 -61 -62 67 -64 64 -66 -67 -68 -69 -70 -71 -72 -73 125 97 -76 76 109 -79 -80 80 -82 -83 -84 -85 -86 -87 -88 88 112 -91 -92 -93 93 -95 -96 119 120 -99 -100 -101 -102 -103 122 104 -106 -107 -108 -109 -110 -111 -112 -113 -114 -115 -116 124 -118 -119 -120 -121 -122 -123 -124 -125 -126 -127 -128
leaf_value=-0.050378940567459708 0.19122276298887156 0.083169075907348178 0.022221401860456902 0.17467573698444316 0.067742144600725446 0.019774720637771429 0.077007880390191685 0.34633150855852346 0.14051403551891684 0.15996310193922036 0.35692796802039051 0.20776249908775624 0.21818133350989083 0.079411889226491006 0.2058427909801982 -0.0068603773829898872 0.33338648091207257 0.10654283877014881 0.25710761638585655 0.013655505674770972 0.045781867733956538 0.067785492859002483 0.49347070008388 0.08393072422931977 0.079221643092554056 0.3340130882037311 0.026487822946879624 -0.016820978287210294 0.018009599422627434 -0.0042991195065797926 -0.041432255291171616 -0.0023117125762070144 -0.026492902937053517 -0.013400279105636799 0.15227904734324016 0.065046302739006565 0.15896165876663915 0.097558922214144431 0.032655979359330713 0.059448229761261275 -0.025142117603233351 0.15333081765561984 0.14072123060631334 0.073495328636172516 0.083149820334688596 0.0030119032593718367 -0.012525998373870327 0.061329021231333575 0.16542804186992016 0.18482390793500122 0.041142192693355062 0.00021965622052858648 0.031724800965145308 -0.025791451186988074 0.23944052234345722 0.099250506361049928 0.021314224062702933 0.063466027175670278 0.013824872479087447 0.0015443842030230168 0.18008638777054312 0.0093497836906341648 0.095161763202084707 -0.025574140798464363 -0.037922680995694881 -0.0026257813847010572 -0.011608664889737318 0.01907055227739397 0.36549306969217232 0.29995968161405745 0.34511811514623414 0.081512079464464399 0.069427857464860951 0.18406577080014824 0.07176443108846399 0.24166819189278696 0.089969279419637005 0.14214021813868008 0.062544678470275658 0.097357984750688992 0.056748240518473415 0.038898597566367377 -0.033759044436993423 0.1138233570630993 0.14837755446416834 0.0029136106631180558 0.080715198689938941 -0.0062434242159888345 0.2073038924468214 0.11224479782514506 -0.015303998027939547 0.027053240243222504 0.018198193136136943 0.0022254313408986539 0.11942313834234307 0.018036125836924384 -0.027374894845517334 -0.010542236043528976 0.33002793947792519 0.030428778596556932 0.042791005095079722 0.069866396424014751 0.063945452480363804 -0.016625683668156956 -0.044473093081088988 0.14256480025194995 -0.0062594912399752574 -0.020658414853030091 0.081823233357211408 0.128027354053382 0.0361777308414492 0.12551982490129135 0.020751998566895274 0.043604983593762879 0.29456795190748175 0.15680140277308618 0.26272697926900884 0.069298184399399373 0.056042669702737725 0.028072324294896846 -0.0025268099732717831 0.19714048019655739 0.049024090259943143 0.035539192406715013 0.20350297303372203 0.015638662335067676 0.026485062195076806
leaf_weight=59614.920063495636 81.256512403488159 7907.8667943477631 3782.3864853382111 4428.9278249740601 2064.4377434253693 2822.6168842315674 275.67156803607941 1657.43820977211 3646.5041415691376 115.49716019630432 98.947900533676147 94.610157012939453 141.76222443580627 6119.9601809978485 975.55496406555176 5880.5089929103851 94.468880891799927 2670.5108902454376 1677.8875269889832 1730.9644169807434 12200.452670097351 3352.2513473033905 554.32728958129883 16694.71563243866 8275.6153070926666 79.744048833847046 14323.474148988724 134759.71157801151 1720.7973704338074 42359.363719701767 141293.50994205475 76535.900108575821 64052.575305104256 25766.793872594833 535.23796081542969 3956.0463058948517 2463.0593683719635 2089.9661421775818 35040.88991856575 28241.528757572174 88422.311099648476 2543.308117389679 18793.166674375534 5138.3256838321686 1076.9427671432495 11461.500533699989 44255.25577878952 1069.0832409858704 11906.327971935272 689.18458080291748 25686.701506137848 23908.856996536255 3034.4761548042297 184595.05660319328 1038.6714749336243 14761.927870035172 12991.720177173615 3630.7444114685059 8821.5689978599548 85.59326696395874 708.5207257270813 52151.086191892624 12017.789675951004 42823.84065759182 188564.06837463379 7611.7260937690735 145942.81776022911 69456.382888793945 211.28218269348145 154.43897867202759 446.74540090560913 2405.6368222236633 601.60630369186401 56.0963454246521 1207.4131808280945 193.65446186065674 3848.8874349594116 3550.3396434783936 5553.6391491889954 3604.5600230693817 14965.658443689346 7525.1646664142609 178962.97102856636 9484.7887437343597 930.67171216011047 119252.28312253952 1236.9635367393494 4508.0478157997131 51.543230056762695 15471.0529692173 17072.413743495941 3103.7983822822571 12631.079715251923 58822.636477947235 8059.6350088119507 33800.02706694603 15096.197860598564 13771.578566789627 193.5831196308136 30134.947439193726 9751.0644748210907 1136.5656530857086 28226.201934576035 4305.0298943519592 154550.03616714478 324.21317553520203 9934.2854731082916 74647.700165867805 10018.627385616302 1831.5045342445374 40845.160173416138 4587.9647467136383 38727.325347900391 32766.693016529083 291.02997922897339 1041.0736117362976 930.22357511520386 15996.657357931137 2493.5205821990967 33923.622087478638 3299.1164644956589 178.80407476425171 9728.0171887874603 6260.1323158740997 2502.8221702575684 6761.4120764732361 1708.1093924045563
leaf_count=32209 22 2410 1648 682 711 1246 119 86 821 32 16 31 41 1954 173 2818 18 760 159 813 4569 1201 18 5042 2573 18 5947 64086 639 19135 74163 34177 31754 12264 157 1478 508 633 13748 9445 43880 552 3796 1569 346 5320 21162 419 2080 92 9220 10864 1275 90987 120 4013 5486 1116 3518 34 157 22223 3255 21582 97607 3339 67441 28391 14 17 33 663 245 20 456 37 1106 854 1799 1151 5228 2724 90940 2512 235 52397 320 1953 16 3732 7848 1386 5350 25615 1982 13660 7677 6355 31 11750 3356 422 9251 2225 82225 85 4703 35958 2790 448 15135 1002 15658 12009 39 156 108 4949 1005 13197 1586 41 3237 2274 325 2990 587
internal_value=0 0.0658691 -0.0188824 0.131055 0.0469172 0.000868996 -0.0319149 0.235664 0.11794 0.0656672 0.0336995 -0.00623869 0.0141333 0.0780226 0.140051 -0.0247732 0.0974125 0.0498188 0.210497 -0.0399922 0.0213778 0.0466085 0.383209 0.0723245 0.103193 0.0442992 0.0172563 -0.0117088 0.073969 0.0031413 -0.0369089 0.00159812 -0.0277958 -0.0283314 0.0241843 0.0283907 0.16046 0.132939 0.0277693 0.0454943 -0.0186214 0.10462 0.12908 0.0927238 0.122899 -0.0195855 -0.0158166 0.000327628 0.156101 0.197736 0.0498149 -0.0129862 0.00412861 -0.0242737 0.213662 0.0989531 0.0226622 0.0704596 0.0267346 0.161898 0.121964 0.0165683 0.0817142 -0.0378343 -0.0356373 0.0153347 -0.00994367 0.0149018 0.260747 0.167151 0.275614 0.111901 0.00387216 -0.00288516 0.0871489 0.0906857 0.106837 0.125621 0.0520097 0.0580981 0.0646308 0.0253675 -0.0318439 0.118857 0.165427 0.00362854 0.122663 0.018487 0.0181627 0.117637 -0.00468126 0.00485572 0.00156977 0.00504898 0.127557 0.0263343 -0.0197729 -0.00975275 0.266478 0.0348533 0.055173 0.0296769 0.0627996 -0.0455359 -0.0437184 0.194012 -0.00401125 -0.0176316 0.0922048 0.10224 0.0407165 0.137202 0.021 0.0458492 0.22623 0.202263 0.229573 0.0767707 0.0367861 0.0230634 -0.0229185 0.254064 0.060121 0.0435253 0.189784 0.0200336 0.0516344
internal_weight=0 604890 2.16215e+06 136250 468639 859516 1.30264e+06 15178.6 121072 193768 274871 559635 299881 108882 58289.1 691358 62782.7 84885.4 12966.8 611278 180752 116636 2211.77 88783.3 20099 69093.6 138417 329584 15791.8 119129 392808 230050 463587 453377 158236 107256 20378.4 5949.39 106721 114957 227771 49536 37910.7 8517.36 1678.91 218787 130364 216964 19111.8 10842.2 52581.5 304611 123356 210362 6413.26 37696.1 13086.3 13246.7 16512.1 165.337 3379.03 137068 44709.2 372681 231388 50979.9 169852 121607 1249.95 12060.8 2124.63 12915.6 24973.1 17610.1 1349.18 14149.7 5874.05 5640.31 7274.44 26894.8 18570.2 16346.7 243016 10509.9 1025.14 122287 11839.9 43368.2 43286.9 19117.6 93608.3 8984.31 113813 71453.7 10602.9 102765 20126.3 13827.7 309.08 42335.4 37992.6 15460 44074.2 218470 158855 601.965 10210 118903 24780.6 5680.39 76964.1 7051.02 38778.9 36118.9 1266.58 5163.3 1619.41 32691.4 5316.14 67723.6 18395.3 277.752 37954.2 8324.57 3543.9 7363.02 5338.85
internal_count=1242035 199225 1042810 31159 168066 381432 661378 1793 29366 63204 104862 255282 126150 33402 12168 341291 17198 29802 1689 320087 73799 41634 104 27688 5714 24878 57480 153649 4924 52351 203428 101633 230767 225945 63228 42240 3819 1550 42083 41146 110524 13085 8349 2486 488 106320 62440 96116 3607 1497 18584 142391 54091 103251 815 10231 5517 4113 6294 52 917 56983 13246 193352 119189 20988 78305 50614 134 2097 192 3428 11258 8023 497 4164 1591 1487 2438 9364 6379 6242 122694 2765 253 53672 2854 17649 17627 4553 42025 4204 50100 30965 2534 40605 10076 6375 63 16319 12801 6369 14442 116659 84450 142 4822 57120 6803 1554 28345 1510 15674 13210 212 681 200 9991 2251 26857 9263 57 12488 2985 481 3235 1703
is_linear=0
shrinkage=0.1


Tree=4
num_leaves=128
num_cat=0
split_feature=1 1 1 1 1 0 1 1 0 0 1 16 16 0 16 16 16 3 20 1 3 20 20 23 0 3 17 1 16 0 3 2 0 5 3 17 20 2 0 3 20 1 1 2 3 0 6 6 17 0 0 3 0 3 14 5 5 3 17 0 0 20 0 0 0 0 0 0 10 0 2 0 0 0 0 3 3 6 2 5 7 0 0 16 5 1 0 0 3 3 0 14 0 3 2 4 2 3 2 2 3 2 1 2 3 1 26 5 10 2 0 16 17 2 2 20 27 2 17 2 2 0 1 2 0 29 13
split_gain=265528 55340 39239.5 11982.1 9096.21 6034.42 5383.19 4768.01 4737.47 3974.51 3850.19 3267.87 1813.22 1646.45 1370.53 1275.1 1199.6 1102.76 865.646 848.314 830.144 789.214 766.837 743.082 741.877 825.832 728.934 705.446 652.831 609.172 588.824 579.043 567.022 521.695 505.823 503.933 494.134 539.688 479.199 508.038 458.811 451.734 447.293 424.418 423.67 397.472 394.373 383.135 377.207 392.887 372.75 750.52 709.2 431.93 422.397 401.495 428.192 369.478 357.018 355.948 351.732 350.054 398.116 482.582 375.764 344.319 375.763 390.522 338.087 324.768 324.153 323.404 443.826 308.824 821.505 531.314 359.271 302.256 301.909 297.065 294.493 292.014 588.625 288.085 287.09 272.192 261.844 305.639 403.483 259.387 326.415 452.611 252.96 239.53 237.69 576.459 233.523 232.427 232.057 231.068 228.588 228.013 227.25 365.553 225.947 225.912 224.107 217.891 217.403 232.554 215.675 215.059 214.992 212.251 210.348 210.252 209.798 245.767 216.262 209.424 209.364 207.202 205.511 205.039 202.856 202.751 202.123
threshold=2.1630859375000004 5.0019531250000009 1.0463867187500002 10.355468750000002 3.1894531250000004 353.00000000000006 0.62768554687500011 1.5708007812500002 350.50000000000006 345.00000000000006 6.8964843750000009 85.500000000000014 5.5000000000000009 345.00000000000006 3.5000000000000004 15.500000000000002 10.500000000000002 55.500000000000007 1.5000000000000002 0.36047363281250006 24.500000000000004 1.5000000000000002 1.5000000000000002 36.500000000000007 342.00000000000006 56.500000000000007 1.2631835937500002 4.0703125000000009 194.50000000000003 110.00000000000001 28.500000000000004 0.089233398437500014 338.00000000000006 2020.5000000000002 56.500000000000007 14.390625000000002 1.0000000180025095e-35 0.39855957031250006 353.00000000000006 21.500000000000004 1.0000000180025095e-35 0.82885742187500011 1.5571289062500002 0.37365722656250006 56.500000000000007 4.0000000000000009 344.50000000000006 344.50000000000006 1.3178710937500002 119.50000000000001 238.50000000000003 56.500000000000007 345.00000000000006 56.500000000000007 2.2285156250000004 2019.5000000000002 2020.5000000000002 22.500000000000004 2.5957031250000004 9.0000000000000018 349.00000000000006 1.5000000000000002 233.00000000000003 119.50000000000001 329.50000000000006 121.00000000000001 231.50000000000003 326.00000000000006 1.5000000000000002 5.5000000000000009 0.20941162109375003 231.50000000000003 112.50000000000001 233.00000000000003 110.00000000000001 56.500000000000007 56.500000000000007 290.50000000000006 0.18292236328125003 2020.5000000000002 1.7338867187500002 228.00000000000003 135.00000000000003 1.5000000000000002 2020.5000000000002 0.82543945312500011 331.00000000000006 233.00000000000003 54.500000000000007 51.500000000000007 51.000000000000007 2.4453125000000004 360.00000000000006 56.500000000000007 1.2358398437500002 22.500000000000004 0.43566894531250006 56.500000000000007 0.90649414062500011 0.67456054687500011 56.500000000000007 0.28918457031250006 0.46350097656250006 0.16290283203125003 56.500000000000007 1.2465820312500002 8.5000000000000018 2017.5000000000002 1.5000000000000002 0.38293457031250006 5.5000000000000009 34.500000000000007 2.5126953125000004 1.2875976562500002 0.23260498046875003 1.0000000180025095e-35 1.0000000180025095e-35 1.3764648437500002 2.2197265625000004 0.42199707031250006 0.48852539062500006 83.000000000000014 0.85131835937500011 0.32019042968750006 282.00000000000006 2.4023437500000004 0.35046386718750006
decision_type=2 2 2 2 2 2 2 2 2 2 2 2 2 2 2 2 2 2 2 2 2 2 2 2 2 2 2 2 2 2 2 2 2 2 2 2 2 2 2 2 2 2 2 2 2 2 2 2 2 2 2 2 2 2 2 2 2 2 2 2 2 2 2 2 2 2 2 2 2 2 2 2 2 2 2 2 2 2 2 2 2 2 2 2 2 2 2 2 2 2 2 2 2 2 2 2 2 2 2 2 2 2 2 2 2 2 2 2 2 2 2 2 2 2 2 2 2 2 2 2 2 2 2 2 2 2 2
left_child=2 4 6 10 8 7 19 22 14 12 16 23 27 21 36 29 24 38 44 -1 42 78 43 -5 58 -26 84 40 -13 34 -14 -21 33 68 -12 65 37 -2 -11 47 116 114 96 -4 -10 -38 106 -40 98 -50 53 52 -52 54 -31 -55 -57 69 89 119 102 62 63 -28 79 -17 100 -68 -24 -16 -15 72 -32 74 -60 -76 -75 -22 -8 -63 -29 82 126 -45 108 -80 87 88 110 90 91 -3 -41 -74 95 -82 -7 -65 -47 -44 -67 -43 -33 -104 -84 -70 -20 -106 109 -9 -18 -69 -39 -42 -23 120 117 -6 -118 -35 -110 -36 -72 -87 -73 -88 -59
right_child=1 3 5 11 9 20 13 26 18 17 15 28 30 70 57 35 86 -19 46 31 77 41 32 -25 25 -27 61 80 -30 50 71 60 -34 59 121 -37 45 112 39 92 113 101 99 83 -46 48 -48 -49 49 -51 51 -53 -54 55 -56 56 -58 81 73 -61 -62 64 -64 97 -66 66 67 111 105 -71 122 124 93 76 75 -77 -78 -79 85 -81 94 -83 104 -85 -86 123 125 -89 -90 -91 -92 -93 -94 -95 -96 -97 -98 -99 -100 -101 -102 -103 103 -105 107 -107 -108 -109 115 -111 -112 -113 -114 -115 -116 -117 118 -119 -120 -121 -122 -123 -124 -125 -126 -127 -128
leaf_value=-0.043533452039533377 0.27245076859781409 0.26504420106412435 0.0149943595625961 0.15294926171816478 0.13173531847092837 0.068283056189642893 -0.0011427952779307418 0.16229301568083176 0.060424976244293452 0.08315197085897251 0.10108651285155512 0.26432323162031096 0.047435765461986114 0.017573508892836844 0.10565186427619433 0.10597371370937879 0.20945208402221752 0.035018770546643131 0.088934008922878394 -0.017991920469708888 0.03030977794938788 -0.023154772845043942 0.0015085144827768808 0.21233701112592165 0.13171793831748643 0.045231848648134509 0.0068324426292416286 0.031232316971634699 0.38709800322510984 0.30914247526485061 0.057887386137047983 -0.040673472817420869 0.0026093012955893989 0.12807048813220523 0.043799066279124853 0.28116034643569499 0.10312376061420814 0.020662197950395977 0.17269424396766336 0.12175981571822897 -0.023297102315566628 -0.011031465784710251 0.10268865845552828 -0.009488219542174629 0.0018375200213461137 -0.017933747857060828 0.065874559154973047 0.11200362490082648 0.0063085167356483609 0.02286697682975165 0.10607049527862705 0.072959478963017341 0.17880968268779315 0.17340756441464422 0.10801872699280701 0.050343516049417975 0.14757349341012951 0.10042048795815446 0.063634306654234307 -0.0088862093885897879 -0.02526476779748324 -0.0012156874888441056 0.0046475395277596841 0.020027928383005711 0.023505014952384592 0.1346723408166276 0.10929301499186139 0.15393446076727493 -0.021971060260719131 0.022036991167911957 -0.015700402536443274 0.044770540890796934 0.072465565943026736 0.075962276173600476 0.085953034584863391 0.12513895945098613 0.044239244096968861 0.0073778490640054725 -0.025277950399311973 0.011743330620038317 -0.0063033786843281377 0.028451213430125435 0.0450093961467204 -0.00039432931613585167 0.0076439690101358197 -0.0068176505325895868 0.22238472667969994 0.078964421151851691 0.12498016122924227 0.046338142061940944 0.061272871395925632 0.090241088194501218 0.079241214721754133 0.094828026534748103 0.053552602617098849 0.29763117918712156 0.029002954544093358 0.037507024361699504 0.008767503338653471 0.057385394185524331 0.16889157732368293 -0.025526010788029602 -0.028109565806214279 -0.037390514156184163 0.081962299478513023 -0.015300333962864976 0.12408790023738886 0.051262942551978941 0.063411002507052727 0.013418106334577115 0.090044659430388529 0.28078185505397657 0.031320777455878156 0.03009200965923739 -0.032522774328884459 -0.0072704276982317505 0.031280817195270878 0.051059328985436962 0.046068644731129024 0.022000952546511684 0.001086231838746807 0.09770930726781861 -0.0027177055805927366 -0.019401151736976218 0.068119141553850571 0.12219644354809167 0.027378990457656117
leaf_weight=173532.83076310158 87.162039995193481 157.05426907539368 9444.7925517559052 9068.8322646617889 387.77949643135071 1769.3028652667999 8154.4679490327835 106.99337458610535 6428.9319562911987 5212.6712756156921 6456.5287258625031 2110.4237995147705 19006.381832122803 4692.4813228845596 473.04308557510376 3489.5900552272797 153.74354267120361 2425.8323295116425 3724.9055564403534 18799.295715212822 12861.962468147278 27512.169764041901 8953.5841315984726 2744.5062885284424 4294.7344670295715 1486.1248023509979 22947.701608657837 6423.1045289039612 544.92130279541016 105.75966453552246 10399.826930761337 107798.69913601875 19437.033076286316 205.09511375427246 3138.9424619674683 236.46280193328857 499.55591440200806 70930.749705076218 2430.48206782341 2846.6693034172058 758.17611074447632 11526.803626537323 1308.0180420875549 117613.23758816719 1527.572683095932 3518.8049855232239 3683.4682993888855 1818.4135391712189 19790.925248622894 51925.497367858887 7647.0771932601929 5800.8946096897125 1625.2726905345917 2721.8709321022034 8259.1311631202698 685.7745726108551 1334.036105632782 387.89448666572571 11913.403136014938 68696.196317076683 28215.648203372955 62268.176306724548 34866.033032298088 24637.748374462128 9407.0552188158035 3238.9980602264404 5003.3197991847992 1538.7650063037872 93370.28457736969 25788.190424442291 27431.784142613411 7442.0354769229889 9666.3366694450378 11872.307984352112 10977.231504201889 5052.8095207214355 5105.1701126098633 10391.327602624893 73695.328056931496 24708.290596961975 120.31984853744507 21292.499182224274 11652.030544281006 49495.13743853569 32397.516912221909 16213.7788823843 220.53464937210083 6489.7684800624847 6054.3726477622986 7522.5527913570404 9830.3081457614899 2605.1150307655334 2751.9116666316986 9494.566059589386 46116.554002046585 129.64141917228699 10468.625374555588 11006.035050630569 43391.281427383423 8083.9182598590851 4913.5471930503845 185665.57246434689 56316.595996499062 172222.01541149616 4427.5956344604492 111268.93745100498 3533.9620306491852 4838.4634835720062 546.91111159324646 5428.7116267681122 9379.892263174057 146.37151527404785 25810.91061425209 41693.346425533295 186097.10574185848 69958.561760783195 18416.153885126114 14387.654900550842 21359.386029720306 2014.3556234836578 37212.331413984299 922.44840002059937 21948.501113653183 64306.186759471893 7442.2203710079193 2402.0592746734619 16263.757722139359
leaf_count=96488 19 29 4196 1310 114 644 3928 36 2105 1391 1340 90 6066 2096 147 607 29 796 1021 9728 5109 13878 4032 214 865 448 9693 2196 14 10 3091 58917 8810 80 852 20 171 28145 467 678 324 5492 384 55177 578 1592 1068 394 7904 20186 1572 1284 252 428 1669 191 259 120 3238 32503 14610 27155 14772 10131 3858 510 810 227 45711 9732 13500 2209 2758 3115 2782 1111 1419 4307 37949 10532 36 7776 4110 22438 14275 7812 36 1518 1184 2449 2843 675 664 2347 14479 25 4169 4294 18030 2717 611 93744 29596 92648 1358 52544 892 1641 219 2288 2118 13 9564 15082 97443 31651 6657 4889 7111 896 16319 215 10171 32147 2210 464 5984
internal_value=0 0.0519223 -0.0187657 0.102301 0.0366222 -0.00251981 -0.0305767 -0.00448339 0.0257088 0.0517571 0.0940641 0.189278 0.0479987 -0.0242236 0.0226603 0.114566 0.0817725 0.0975906 0.0742752 -0.0377324 0.0331786 -0.0257972 -0.0108707 0.166746 0.075154 0.109484 0.00466471 0.0419972 0.289519 0.10423 0.0621668 -0.0351065 -0.0139154 -0.0150444 0.0836936 0.136109 0.0184243 0.02373 0.107669 0.120648 0.0369346 -0.0281301 0.0472796 -0.00562912 0.0491767 0.0141117 0.092525 0.14672 0.0137369 0.0182975 0.111896 0.101171 0.11882 0.124229 0.110562 0.148341 0.114562 0.0334066 0.0721025 -0.00761277 -0.035989 0.00874758 0.0131084 0.0181432 0.00451915 0.134238 0.140884 0.123316 -0.0175118 0.0235431 -0.0075431 0.0684664 0.0745193 0.0770605 0.0835234 0.0983048 0.0664231 0.0200621 -0.019895 0.00246571 0.0512998 0.0378072 0.0431097 -0.00679474 -0.000656874 -0.0208865 0.100748 0.0971995 0.104791 0.0610303 0.0698072 0.10018 0.10086 0.0835466 0.0540797 0.151331 0.0346819 0.0254251 0.0067646 0.0636948 0.155296 -0.0246787 -0.0368887 -0.0351035 0.0542775 -0.018344 0.106049 0.065932 -0.00303143 0.0162955 0.0919703 0.164952 0.0235059 0.0291385 -0.0313162 -0.00402466 0.0430016 0.0531767 0.0392219 0.0318026 0.00198895 0.0560435 -0.00992987 -0.0168673 0.056445 0.130621 0.0290805
internal_weight=0 717957 2.045e+06 167251 550707 860874 1.18413e+06 815991 319977 230729 152782 14468.7 213243 627244 301078 57264.8 95517.2 17486 18898.8 556885 44883.2 573171 480499 11813.3 70816.8 5780.86 335492 149792 2655.35 38697.7 63451.4 383352 303945 284508 10517.9 18567.1 215955 96828.8 15060.1 9847.48 97002.5 410802 21629.9 176553 7956.5 119126 10942.3 4248.9 118627 71716.4 28179.8 15073.2 9272.35 13106.6 8364.89 4741.68 2019.81 85123.5 65036 70915.6 364553 189841 93457.5 58591.5 96383.5 18330.6 14841 6688.46 213593 26261.2 54072.8 44445 29560.7 44920.9 27943.4 16030 16977.5 23253.3 162370 86976.5 52789.6 58862.2 37569.7 167108 145651 154215 24700.4 22077.8 15588 20115 12592.5 2762.17 5598.58 19160.9 46366.5 249.961 12237.9 35643.8 46910.1 9391.94 8152.55 197192 336337 228539 20918.1 204639 7258.87 9266.06 113254 5535.71 9533.64 1685.14 96741.7 42451.5 213609 107718 54551 14775.4 39775.5 2219.45 37759.2 4061.39 49380.3 80520 14884.3 2622.59 16651.7
internal_count=1242035 232948 1009087 36821 196127 388940 620147 371610 122143 73984 35193 1628 69594 318160 116479 10870 24323 4390 5664 301987 17330 292393 226387 1524 18974 1313 145223 50913 104 8072 18681 205499 144576 135766 2407 2798 85611 37728 3594 2203 34177 210557 7914 81811 2683 47883 2981 861 47712 28090 5665 3108 1824 2557 1679 878 450 30868 17661 33479 195771 80435 38890 24118 41545 2778 2171 1050 102287 9879 25767 12615 8196 11665 7131 3893 4534 9416 81836 37687 16736 20989 13213 77615 64788 77908 5349 4849 3331 5996 3547 704 1342 5105 14540 61 4813 14425 19622 3101 1121 99236 181161 122244 7109 98255 1913 2999 50513 2324 2147 240 37709 15406 111321 48189 18771 5003 13768 976 16538 1067 23671 39959 4419 500 6104
is_linear=0
shrinkage=0.1


Tree=5
num_leaves=128
num_cat=0
split_feature=1 8 1 8 8 8 1 3 0 0 0 1 0 1 1 1 0 1 0 11 23 8 1 2 1 24 23 0 23 2 2 8 10 8 17 3 3 3 8 0 0 0 13 3 8 0 0 0 23 0 22 2 2 5 1 17 3 1 0 3 2 0 0 22 0 2 5 3 2 17 0 0 0 0 0 0 22 10 3 0 0 5 2 16 1 29 2 13 5 1 0 5 1 11 2 8 16 2 29 9 2 0 0 3 2 25 24 1 1 3 2 24 6 0 0 24 1 7 3 29 11 3 2 0 0 3 0
split_gain=209266 42019.8 33272.7 8817.85 6404.33 5137.06 4319.34 3661.33 2285.7 2234.13 2214.9 2341.45 2099.35 2217.88 1748.51 1747.5 1407.79 884.79 808.531 753.677 749.1 748.014 640.926 651.647 631.376 609.33 606.782 577.847 574.707 570.47 552.086 530.084 486.281 482.297 665.479 481.082 478.006 436.661 428.82 410.471 737.972 410.361 383.026 370.802 366.431 357.659 354.091 341.118 336.488 332.122 329.891 328.563 323.837 320.769 306.495 297.46 287.606 287.513 278.853 277.817 275.517 270.304 375.976 289.856 267.285 267.188 262.822 258.525 253.548 249.565 246.412 401.279 246.385 293.698 246.025 243.485 251.878 242.29 253.394 240.984 425.408 240.422 238.116 234.991 234.741 230.329 229.935 225.485 224.447 221.893 221.325 219.088 213.802 211.889 207.275 206.705 202.354 201.511 201.976 201.427 200.418 197.335 448.798 255.268 196.728 196.241 195.631 195.195 193.629 189.455 187.386 186.681 186.508 179.946 444.601 179.218 178.459 177.727 172.989 172.667 172.587 171.028 169.367 168.905 307.674 378.107 300.528
threshold=2.1630859375000004 5.9277343750000009 1.0161132812500002 12.640625000000002 3.0712890625000004 1.6425781250000002 0.59252929687500011 6.5000000000000009 345.00000000000006 343.50000000000006 345.00000000000006 3.4873046875000004 342.00000000000006 3.9580078125000004 4.2578125000000009 1.4448242187500002 353.00000000000006 1.6069335937500002 338.00000000000006 0.37817382812500006 1.0000000180025095e-35 19.648437500000004 0.76489257812500011 0.31262207031250006 0.34436035156250006 190.00000000000003 1.0000000180025095e-35 84.500000000000014 1.0000000180025095e-35 0.073699951171875014 0.20709228515625003 1.5000000000000002 1.5000000000000002 0.92846679687500011 0.43298339843750006 51.500000000000007 24.500000000000004 27.500000000000004 8.7851562500000018 231.50000000000003 112.50000000000001 83.000000000000014 0.55957031250000011 51.500000000000007 3.0712890625000004 5.5000000000000009 349.00000000000006 224.50000000000003 1.0000000180025095e-35 30.000000000000004 0.44274902343750006 0.38781738281250006 0.18511962890625003 2017.5000000000002 1.6606445312500002 2.7558593750000004 51.500000000000007 5.3339843750000009 14.500000000000002 65.500000000000014 0.43566894531250006 353.00000000000006 360.00000000000006 0.39440917968750006 349.00000000000006 0.53344726562500011 2017.5000000000002 56.500000000000007 0.51977539062500011 0.80151367187500011 356.00000000000006 360.00000000000006 105.50000000000001 226.00000000000003 105.50000000000001 353.00000000000006 0.39221191406250006 1.5000000000000002 65.500000000000014 338.00000000000006 233.00000000000003 2020.5000000000002 0.79614257812500011 49.000000000000007 4.6933593750000009 0.99560546875000011 0.85034179687500011 1.3964843750000002 2020.5000000000002 1.2348632812500002 200.00000000000003 2019.5000000000002 3.8554687500000004 0.41809082031250006 0.72583007812500011 1.2143554687500002 1.0000000180025095e-35 0.21710205078125003 1.5712890625000002 0.83422851562500011 0.60717773437500011 226.00000000000003 91.500000000000014 56.500000000000007 0.72241210937500011 1.4658203125000002 1.0000000180025095e-35 7.7089843750000009 8.1328125000000018 56.500000000000007 0.17584228515625003 10.500000000000002 280.50000000000006 353.00000000000006 360.00000000000006 5.5000000000000009 1.2631835937500002 9.3906250000000018 63.500000000000007 6.5136718750000009 0.42895507812500006 21.500000000000004 0.65551757812500011 91.500000000000014 226.00000000000003 56.500000000000007 219.00000000000003
decision_type=2 2 2 2 2 2 2 2 2 2 2 2 2 2 2 2 2 2 2 2 2 2 2 2 2 2 2 2 2 2 2 2 2 2 2 2 2 2 2 2 2 2 2 2 2 2 2 2 2 2 2 2 2 2 2 2 2 2 2 2 2 2 2 2 2 2 2 2 2 2 2 2 2 2 2 2 2 2 2 2 2 2 2 2 2 2 2 2 2 2 2 2 2 2 2 2 2 2 2 2 2 2 2 2 2 2 2 2 2 2 2 2 2 2 2 2 2 2 2 2 2 2 2 2 2 2 2
left_child=2 4 6 14 10 8 24 25 15 17 11 31 13 36 27 51 22 68 28 104 42 41 30 110 -1 66 33 -3 55 -26 -8 49 -17 53 -35 61 45 75 101 40 106 -9 -15 113 86 -6 47 -29 69 109 -51 -4 -18 58 60 120 70 -36 87 88 -11 -14 92 -64 -31 -56 117 82 116 122 -21 -72 -40 107 -50 -10 85 -52 -79 80 84 97 -42 108 -43 -77 -19 -13 -55 -53 -69 -47 -63 -82 -73 -25 -44 -34 -99 -75 -91 102 -30 -104 -12 -58 -38 -74 -23 -2 -24 -85 -54 -20 -115 -96 -7 -5 -86 -81 -16 -94 -33 -22 125 126 -125
right_child=1 3 5 7 12 9 16 21 37 54 19 26 35 20 18 32 52 44 43 56 123 83 23 95 29 -27 -28 46 38 64 -32 48 81 34 57 -37 39 -39 72 -41 67 79 96 -45 -46 91 -48 -49 74 50 77 89 112 59 65 -57 105 -59 -60 -61 -62 62 63 -65 -66 -67 -68 90 -70 -71 71 94 73 99 -76 76 -78 78 -80 119 93 -83 -84 111 118 -87 -88 -89 -90 100 -92 -93 121 -95 115 -97 -98 98 -100 -101 -102 -103 103 -105 -106 -107 -108 -109 -110 -111 -112 -113 -114 114 -116 -117 -118 -119 -120 -121 -122 -123 -124 124 -126 -127 -128
leaf_value=-0.041203288673325428 0.030873635746316269 0.035876488467161724 -0.0024141255089418648 0.1590253879859074 0.098496109327239928 0.0032848921459768306 -0.017402881645635547 0.07871632690587313 0.010245045302975757 0.070684192042850466 0.13659151956019219 0.23002067930318676 0.065432940675070855 0.22542230484170817 0.26585912562903879 0.015201823281857747 0.030431921434114956 0.020466924563851352 0.099287474648699997 0.054329819123523707 0.038723710907447917 0.097632223292455453 0.011941294191112941 -0.024631676995902914 -0.0087162375284956482 0.29602486014967438 0.023997122645208979 0.067951895235301998 0.053157384110135597 -0.03491818506289858 -0.030134645305840035 0.20267825549412855 0.12522820164882195 0.082921933146166624 0.036804555137230931 0.045815363595240438 0.045929185623524695 0.0042340499785798813 0.066026093159101407 0.028258456494222407 0.18497594092962313 0.062964388772608793 0.09404328733830393 0.069177281126578907 0.019545031172751595 0.017009788958820271 0.091431801380201114 0.046324172335699944 0.0056707949198781943 -0.011041904931343299 0.028748507918700567 -0.017342368812314143 0.0012132274719284569 0.01974266387162367 0.13037492890167152 0.09740106050322106 0.074696150096525457 0.063354518827502745 0.042150114592592006 -0.016059889291002129 0.020926186093269971 0.097719306277248841 0.15047783760067313 0.065867276867502114 -0.024304832855709432 0.042867916601623431 0.16094362735262591 0.071370553595751215 -0.003552032379855144 0.024364761446801081 0.10078022337436768 0.14116196230102304 0.090195354744900369 0.048833161007600483 0.018442688412962146 0.031255462119135186 0.023461610435413973 0.0098493209659117151 -0.007939281352297883 0.1496980948188002 0.02835266715961008 0.0017263615916577402 0.0442599091155653 0.2408979025504786 0.11013135908457997 0.080588835673787121 0.0058799936527296265 0.085346988196288054 0.046092898468992283 -0.004746255496878269 0.041316749323069668 0.031893441604695386 0.18727695982534179 0.091791396848927551 0.041125576508904763 -0.016712623436590742 0.06689382869282412 -0.0094375398032697008 -0.0027674006064470451 0.080696546881887432 -0.014051972299111457 0.058192539463956819 0.073826296972812191 0.10149024410957733 0.0022963270286225136 0.01970812127969921 0.022403456169346886 0.1203686095729001 0.13009595418500239 0.0012231805976125191 -0.013264521599915506 0.14961097068740511 -0.013842272662932937 0.16082691231321755 0.097134828019809619 0.17687793491817619 0.025668239187477779 0.22517253951438945 0.13289914001698086 0.093239538214673456 0.14155891981535043 0.11572947576290445 0.048947590708163957 0.051000439457830588 0.044730475730588269 0.087868205177271869 0.10730385718586842
leaf_weight=149617.6989043951 9987.0688586235046 11561.331429958344 22009.01854634285 521.34801197052002 638.92246603965759 12608.799072504044 40355.025754451752 5930.3670799732208 8460.671014547348 1206.330472946167 113.22083878517151 128.93969702720642 6959.6615605354309 170.03698635101318 141.77776980400085 13651.931977510452 2549.3047443628311 12374.483035087585 3745.0332345962524 8067.6876146793365 10405.265447854996 2219.7414212226868 3115.8566536903381 239865.61053025723 9113.8861366510391 595.66215896606445 33579.691028594971 16222.151193857193 8137.3083786964417 300982.91660225391 218298.04586780071 73.148755311965942 117.05085754394531 5022.2094631195068 18076.574078798294 5085.527364730835 4525.9412307739258 24264.445101857185 8247.3066906929016 31905.773261547089 120.91051125526428 838.53628468513489 3795.895046710968 2208.4555146694183 35888.431027650833 24187.846700906754 3604.8594388961792 13248.37969827652 19149.55145072937 8910.5997531414032 5896.3745522499084 179805.20420527458 15931.880645394325 10360.574529647827 357.86304759979248 5684.8767375946045 877.82784509658813 5267.2784285545349 2995.6029722690582 1584.2419486045837 14355.045800924301 3696.7273585796356 440.14988660812378 5053.7359526157379 25759.201725125313 13969.682248592377 1949.0625250339508 8897.9729809761047 87707.640378594398 33131.525777578354 4018.3664762973785 247.13433027267456 12169.415428638458 2374.8833410739899 71011.417626619339 2086.2506055831909 10044.768474578857 66259.068184614182 9108.6179120540619 2114.6387765407562 558.00003933906555 52817.140688657761 22161.982588768005 257.04146528244019 10617.300815343857 1732.1243271827698 85272.194459438324 654.93646836280823 4698.5130553245544 29919.460963010788 3381.6143980026245 16731.293379545212 546.4351544380188 9326.9091420173645 2827.6103909015656 38212.302605032921 9918.9457252025604 88670.274513959885 93023.461307048798 12052.682158708572 102200.0854279995 16875.810913801193 11299.441830873489 4732.6114184856415 2982.4668433666229 2489.8688931465149 16139.164700269699 2602.5019183158875 10663.126695632935 2747.9273068904877 55215.289000988007 1743.6854152679443 17016.769539833069 2202.6991930007935 2181.2984094619751 100.71298789978027 4964.3728382587433 1838.9486522674561 4866.9027893543243 728.23408937454224 526.58695220947266 859.80569839477539 3533.1641206741333 14668.97382068634 21779.529598236084 4380.9739620685577 1013.5157246589661
leaf_count=86409 3864 3582 10214 35 185 5842 20803 1120 3651 437 32 29 1920 22 16 5755 1124 5092 706 2522 3016 307 1438 124851 4770 14 11484 4333 2062 167542 117630 20 45 1363 6007 1529 1483 10450 1834 10874 32 172 877 475 14042 8616 756 3877 7480 3919 2299 89459 7513 3383 89 1124 280 1429 969 660 5690 871 74 1220 13720 4826 109 2733 39630 12587 1022 48 2371 544 27312 798 3801 26787 3976 271 112 23690 7242 21 1623 553 36021 183 1534 14053 1096 5861 91 1552 802 19317 2583 40920 41938 2494 49068 4209 2650 962 1117 858 5550 398 1143 1150 27617 132 8224 335 358 24 2065 59 701 97 85 171 1279 4162 6307 1112 263
internal_value=0 0.0448228 -0.0171823 0.0847742 0.0307231 -0.0028478 -0.0287101 0.118787 -0.0077934 0.0087255 0.0220255 0.0198769 0.0440777 0.0407282 0.071451 -0.0094989 -0.0232514 0.00549969 0.079109 0.0528992 0.0556119 0.110677 -0.0244054 -0.0215277 -0.0358001 0.201224 0.0343428 0.0551211 0.0758919 -0.0333931 -0.0281482 0.014692 -0.0031452 0.0414633 0.0498997 0.0728987 0.0330796 0.0135201 0.0735504 0.0372886 0.0425054 0.102688 0.0762574 0.105513 0.0109043 0.0242547 0.0618479 0.0582292 0.0190171 0.0093588 0.0072239 -0.0142229 -0.00390562 0.0297457 0.0345002 0.10482 0.0604919 0.0427953 0.0560449 0.0237735 0.0247835 0.0807439 0.0907996 0.072646 -0.0340815 0.0450536 0.18812 0.0514437 -0.00135538 0.027084 0.0663286 0.0797849 0.0812888 0.0855997 0.01573 0.0236135 0.0317722 0.00922675 0.00769947 0.107582 0.104582 -0.00421272 0.0450235 0.129454 0.114497 0.0536345 0.00772855 0.109144 0.0279641 -0.0150561 0.0630942 0.0230955 0.110344 0.0882103 0.0532166 -0.0235435 0.0744081 -0.00593807 -0.00602257 0.0754516 -0.0119446 0.0664905 0.0722844 0.0819926 0.007208 0.0340414 0.0275559 0.0955112 0.124502 0.0244757 -0.0119181 0.161339 -0.00656239 0.115385 0.129136 0.0457945 0.00960813 0.210562 0.117288 0.135236 0.167926 0.143531 0.0520658 0.0501254 0.0529607 0.0618949 0.0546392
internal_weight=0 745957 2.01354e+06 194589 551369 897507 1.11603e+06 54769.5 628802 268705 333902 312177 217467 194825 139819 582214 630560 238816 95182.7 21724.9 66133.1 49864.5 595062 336409 485474 4905.02 82368.6 44636.7 84845.2 335856 258653 229808 248280 48788.9 28366.1 22642 128691 46588.3 78492 87133.4 55227.6 34980.9 13884.9 10337.5 133535 41558.1 33075.4 29470.5 126899 102910 90174.7 333934 35498 20422.8 29888.9 6353.24 18629.2 23343.9 3779.48 16643.3 15561.4 17556.5 10596.9 5493.89 326742 14327.5 4309.36 34562.5 105281 36737.8 15261.5 7193.82 37446.8 29199.5 90161 22323.8 13863.1 81264.1 75367.7 29050.5 26207.6 234628 22282.9 14883.6 16322.7 3818.37 97646.7 783.876 15059.1 311925 12279.6 40919.1 5102.97 9884.91 3175.46 278078 13714.8 181811 181694 14427.6 132120 41045.2 24169.4 16032.1 3095.69 3367.7 20665.1 14771.9 12882.9 12735 58331.1 2000.73 32948.7 8129.03 4384 2928.32 17573.2 2360.3 15484.2 2842.87 668.365 1406.24 3606.31 52248.3 41843 20063.5 15682.5
internal_count=1242035 232948 1009087 40639 192309 408129 600958 7468 294395 113734 124419 117714 67890 62014 33171 275142 328517 102692 20623 6705 18342 7251 311656 173223 272441 217 27041 12548 18749 186032 138433 90673 112348 15557 8799 5876 43672 19253 17524 29010 18136 5648 3482 1874 55155 14662 8966 8210 48678 41995 36981 162794 16861 6758 11042 1225 5556 7436 1181 5577 6127 4347 2427 1294 181262 4915 203 11103 47537 13886 4418 1896 7641 5807 34792 8803 5152 33062 30763 4528 4160 106593 7274 1603 2496 1351 41113 212 4917 152580 3829 14477 1133 1664 874 144168 3460 82903 82858 3038 63121 9883 5674 3612 1149 1138 7033 2769 1450 5014 29055 153 15737 1399 693 826 7907 94 2324 368 101 262 1299 14860 11844 5537 4425
is_linear=0
shrinkage=0.1


Tree=6
num_leaves=128
num_cat=0
split_feature=1 1 1 1 0 1 1 1 0 3 0 16 0 16 11 0 16 20 20 0 3 27 1 17 1 2 2 20 17 0 0 5 2 20 2 22 14 20 0 0 3 27 3 13 11 2 0 0 1 0 10 10 0 3 0 0 2 5 23 1 0 6 13 0 0 0 20 10 2 20 5 6 2 24 0 3 0 3 5 0 20 10 5 20 20 22 0 17 6 0 0 2 0 0 0 0 3 6 0 14 20 1 2 3 3 0 2 10 0 0 3 0 0 6 5 0 11 5 0 5 3 3 11 2 27 9 11
split_gain=166289 31325 25050 6826.8 4699.07 4250.33 4091.11 2986.9 2477.7 2336.07 1597.46 1282.15 1026.37 961.416 777.645 689.534 673.645 658.986 613.394 599.228 597.141 580.723 552.899 510.614 483.862 483.192 473.91 434.03 409.38 386.469 386.828 382.258 380.398 372.223 478.027 370.557 351.162 346.166 336.811 454.823 559.356 600.674 524.74 548.628 337.124 334.42 318.882 352.949 309.694 306.643 301.886 298.931 296.464 287.927 293.315 411.115 279.222 275.654 274.284 270.334 269.497 307.829 262.827 256.983 255.841 280.191 285.396 251.733 320.389 251.648 249.71 244.467 239.84 236.186 233.704 258.688 233.407 262.402 227.968 225.732 222.702 220.213 219.539 215.96 210.605 210.407 208.021 204.611 204.358 204.262 372.517 202.082 199.663 194.636 231.635 192.839 191.475 191.018 190.734 190.198 184.152 183.88 403.507 181.695 179.2 312.715 177.945 177.744 176.375 339.412 193.35 171.768 217.137 293.229 170.849 169.217 168.341 168.32 333.221 226.146 254.952 180.251 167.867 165.443 165.184 164.307 162.871
threshold=2.0380859375000004 4.5273437500000009 0.94604492187500011 8.1328125000000018 345.00000000000006 2.9580078125000004 1.4252929687500002 0.55834960937500011 345.00000000000006 8.5000000000000018 353.00000000000006 10.500000000000002 345.00000000000006 3.5000000000000004 0.37817382812500006 110.00000000000001 3.5000000000000004 1.5000000000000002 1.5000000000000002 342.00000000000006 51.500000000000007 0.10711669921875001 3.2451171875000004 1.2343750000000002 0.29040527343750006 4.8828125000000009 0.062057495117187507 1.5000000000000002 2.8828125000000004 324.00000000000006 4.0000000000000009 2017.5000000000002 0.30090332031250006 1.0000000180025095e-35 0.39855957031250006 0.39111328125000006 7.4726562500000009 1.5000000000000002 233.00000000000003 110.00000000000001 56.500000000000007 0.10711669921875001 56.500000000000007 1.0551757812500002 0.40075683593750006 0.28479003906250006 233.00000000000003 133.50000000000003 10.355468750000002 356.00000000000006 1.5000000000000002 1.5000000000000002 4.0000000000000009 29.500000000000004 226.00000000000003 112.50000000000001 0.14129638671875003 2020.5000000000002 167.00000000000003 0.71166992187500011 353.00000000000006 280.50000000000006 0.36560058593750006 5.5000000000000009 110.00000000000001 231.50000000000003 1.5000000000000002 1.5000000000000002 0.90649414062500011 1.5000000000000002 2019.5000000000002 154.50000000000003 0.18511962890625003 81.500000000000014 329.50000000000006 29.500000000000004 23.000000000000004 53.500000000000007 2020.5000000000002 356.00000000000006 1.5000000000000002 1.5000000000000002 2020.5000000000002 1.0000000180025095e-35 1.5000000000000002 0.60131835937500011 219.00000000000003 11.289062500000002 259.50000000000006 233.00000000000003 119.50000000000001 0.87182617187500011 364.50000000000006 233.00000000000003 135.00000000000003 4.0000000000000009 25.500000000000004 200.00000000000003 233.00000000000003 7.0996093750000009 1.0000000180025095e-35 0.41613769531250006 0.13287353515625003 56.500000000000007 44.500000000000007 37.000000000000007 0.15899658203125003 1.5000000000000002 353.00000000000006 360.00000000000006 20.500000000000004 353.00000000000006 363.00000000000006 119.50000000000001 2020.5000000000002 363.00000000000006 0.60815429687500011 2020.5000000000002 114.00000000000001 2019.5000000000002 20.500000000000004 51.500000000000007 0.36621093750000006 0.41247558593750006 1.0356445312500002 0.60620117187500011 0.40075683593750006
decision_type=2 2 2 2 2 2 2 2 2 2 2 2 2 2 2 2 2 2 2 2 2 2 2 2 2 2 2 2 2 2 2 2 2 2 2 2 2 2 2 2 2 2 2 2 2 2 2 2 2 2 2 2 2 2 2 2 2 2 2 2 2 2 2 2 2 2 2 2 2 2 2 2 2 2 2 2 2 2 2 2 2 2 2 2 2 2 2 2 2 2 2 2 2 2 2 2 2 2 2 2 2 2 2 2 2 2 2 2 2 2 2 2 2 2 2 2 2 2 2 2 2 2 2 2 2 2 2
left_child=2 4 7 11 5 16 10 24 23 31 17 19 18 28 85 99 33 45 56 25 108 36 35 81 -1 38 -26 100 76 30 123 58 -12 34 -2 49 -17 46 39 42 86 -42 43 -3 -40 -4 47 -25 62 -16 106 -32 91 63 55 104 -9 -53 73 -52 -29 71 -23 97 -30 66 -66 -54 122 -34 107 -62 -14 -5 75 -13 77 -7 -70 101 93 -8 83 -83 -37 -6 -41 -50 -71 90 -47 -35 -73 94 -18 -61 -24 -15 -77 -11 -10 -28 -103 -57 105 -55 -20 -39 -21 110 -110 -86 -113 -114 -82 -63 -56 119 -119 120 -78 -121 -69 -19 -46 -94 -67
right_child=1 3 6 9 14 13 8 12 27 15 32 74 72 53 22 21 80 29 50 20 -22 48 96 37 26 -27 79 60 64 -31 51 -33 69 52 -36 84 -38 70 44 40 41 -43 -44 -45 124 89 -48 -49 87 -51 59 57 67 54 116 103 -58 -59 -60 95 61 115 -64 -65 65 126 -68 68 78 88 -72 92 -74 -75 -76 98 117 -79 -80 -81 114 82 -84 -85 111 -87 -88 -89 -90 -91 -92 -93 125 -95 -96 -97 -98 -99 -100 -101 -102 102 -104 -105 -106 -107 -108 -109 109 -111 -112 112 113 -115 -116 -117 -118 118 -120 121 -122 -123 -124 -125 -126 -127 -128
leaf_value=-0.040232735791903187 0.2145717182033986 0.12061341109315114 0.021442867580368983 0.20798203183723546 0.044155238873958981 0.048701038046856271 0.012085664277982145 0.0074843983963298185 0.017032173965269345 0.078946599732647699 0.062967998537319575 0.053271323171693009 0.011495638508108251 0.15898107062436825 0.040420875468418924 0.11009430271508736 0.020846749080089651 0.092584153950140469 0.017588786578261351 0.073510635375259314 0.036529742119913125 0.1914380263169902 0.08763668451614394 0.003537917882389021 -0.011884718946991195 0.060398204732518335 -0.036593568252010426 0.021087561293282348 0.022922906673634055 -0.0050974263872369937 0.00016362196994675732 0.13109094573006536 -0.0071811433123114901 0.22711677601510583 0.015898296653394546 0.03744927993188555 0.16410143357180967 0.018707200895287848 0.01252824946693085 0.045642644678170197 0.12072300246948083 0.064940574320599354 0.019951627162508534 0.046727463695836045 0.024301124826649784 -0.012061011921319947 0.00036077166982758106 0.018745678013502007 0.10526161451869556 0.11246301135042924 -0.030071991939126047 -0.018883827713217505 0.02593702458758429 0.10858708633586214 0.023907673737055643 0.048318128896869268 -0.01939190303093645 -0.011417413966698483 0.23404050765637741 0.0090363900577688627 0.046362610599019798 0.03894380390793839 0.086391620679616477 0.031034020940214527 0.061011321375968687 0.0062089139170367876 0.029676471399059108 0.026406937041090789 0.0052938020308923826 0.025305554040698442 0.0055436582192594551 0.070484289947972845 -0.011653837439921341 0.14233200963426107 0.091834510822140641 0.078015199472312724 0.011297214851045166 0.0043718328542305352 0.016121886490847927 -0.02158513508571952 0.011394484334431659 -0.00058207967874669686 0.0022701950617875495 -0.0092711453432400819 0.040327645708262416 0.0029455607286520743 0.075207414496513358 0.161579925967586 0.0051317692970850185 -0.012479971058192261 1.5813634123790982e-05 0.055529187737139732 0.1832911737503175 0.01726202866254618 0.038090010036126554 -0.024839241841888942 0.064134405401535075 0.025597208076202162 0.061713803952845508 0.050615202030828657 -0.02232249940728244 -0.023018593834913399 -0.034102620933890833 0.064759410452004257 0.030825225431136173 0.034922706968562527 -0.016297932560404269 -0.0054170751169534577 0.17640067800941894 0.071387074992167524 0.11142328336075923 0.073212351052902025 0.079154656350304678 0.019835774914206464 0.027137890666409134 0.0050870079990941895 0.041102700392104397 -0.00023724350550569331 0.035530249256451436 0.015858684011861714 0.027801535429295161 -0.005563553528948089 -0.028145834248677372 0.014002932319611076 0.046621695307889482 0.038381060715807755 0.035145113384134376
leaf_weight=94520.919890880585 121.25205755233765 1078.0070118904114 4043.5160689353943 851.24974346160889 1977.2347047328949 6285.5820038318634 8475.1498017311096 3973.8860205411911 10667.245546102524 7390.1181166172028 1417.0106828212738 7640.1273899078369 4946.999464392662 275.48634171485901 908.91912007331848 3383.7890727519989 13159.813116312027 308.00131094455719 1758.8626154661179 3868.3486576080322 2902.893670797348 240.68049716949463 6643.5254580974579 26472.372123360634 11192.393858790398 40782.427341938019 115091.89314293861 7897.9038019180298 12715.008126497269 36637.231236338615 10516.368621945381 2657.2641768455505 6576.8618013858795 79.018299579620361 101945.2941391468 11490.670298576355 1868.8817632198334 3216.3776755332947 4328.2850527763367 16613.905746221542 2554.9474630355835 7896.8035643100739 7713.5249536037445 14833.741516590118 3984.4031589031219 44000.44965493679 34794.163028478622 36034.0954631567 7452.1872482299805 1688.2246189117432 152123.02799880505 198915.20521044731 7140.9651079177856 866.7958664894104 9155.435599565506 14678.933885574341 141789.78889918327 65804.937260985374 779.21041488647461 1693.6288715600967 6344.3253161907196 4454.4281044006348 22936.273988962173 33123.195464849472 8872.7643513679504 2248.7814059257507 4322.7388460636139 664.5962872505188 90522.930233955383 10180.558467149734 44771.974966287613 1813.6956257820129 46954.893240571022 1538.3321933746338 5513.2501356601715 26093.474327325821 13297.452508091927 1695.5304460525513 24761.964012145996 16905.786467552185 23555.939486265182 42737.9351811409 37758.85128557682 86492.966255307198 5102.1208848953247 3318.2726111412048 2777.8059988021851 706.24133539199829 9908.3748664855957 57186.817990660667 60881.034078478813 522.41668796539307 313.73579478263855 14984.527889728546 19094.073708534241 215534.2626594305 7248.9050011634827 175.93373465538025 9901.0818917751312 3487.9388296604156 1338.1606748104095 42984.202431917191 139225.16947627068 12399.271718740463 13197.994510650635 1719.4187521934509 13026.433658123016 60540.054568171501 599.67345523834229 1961.1333107948303 1937.7418396472931 6789.7536706924438 1352.8717184066772 2170.0179316997528 9744.6764287948608 2207.9612579345703 15057.567001819611 3115.3872181177139 15889.147629380226 14743.037127614021 31607.234818220139 5354.2320919036865 3729.0672892332077 2059.0586041212082 19751.463563203812 104.24398064613342 14408.150087833405
leaf_count=56845 23 220 1805 36 607 1975 3558 1980 4119 1160 522 1602 2294 61 276 420 4750 123 859 746 790 15 1306 11296 6190 9038 67462 3083 4151 17596 4922 134 2866 21 39403 3622 167 1339 1276 4347 482 1831 2346 3881 1160 21417 15010 14574 821 317 84907 100090 2729 232 2798 4149 75397 32563 15 871 2079 1508 3397 10591 2582 747 1431 277 36451 4039 19466 529 23465 46 874 4597 4810 626 9792 9292 8813 19085 16968 40455 1632 1192 681 69 4168 27739 29022 172 76 5424 6234 115569 1702 47 1951 708 577 24050 79785 3033 3986 507 6891 27099 81 321 301 1662 306 582 3492 771 4428 1142 5520 5207 10856 2043 1729 952 5173 32 4608
internal_value=0 0.0369915 -0.0165504 0.0678096 0.0247443 0.0220862 -0.00468334 -0.027507 0.00266559 0.099302 -0.0107025 0.0586251 -0.0228679 0.0322229 0.0545096 0.0919669 0.0143959 -0.0120578 -0.0241824 0.0535443 0.0756091 0.0985388 0.0589243 0.000323885 -0.0339345 0.0515113 -0.032105 0.0280735 0.0266934 -0.0147508 -0.0160248 0.159063 0.0124798 0.0116344 0.0161343 0.0511786 0.12931 0.00370265 0.0470661 0.0517226 0.0599286 0.0785767 0.0413567 0.0517332 0.0381946 -0.00696346 0.0080338 0.012305 0.0933807 0.0872505 -0.0262782 -0.0163709 0.00802995 0.0396152 0.0433992 0.0483694 -0.0186592 -0.0170278 0.182519 -0.0268391 0.036079 0.0438489 0.0874825 0.0320554 0.0348019 0.0398614 0.0507463 0.00769777 0.00660947 0.00979692 -0.000180414 0.0563762 -0.00944736 0.165719 0.0724349 0.0699838 0.0229412 0.0392836 0.00761956 -0.0328252 0.0222644 -0.00363958 -0.00443767 -0.00639759 0.0476966 0.0183324 0.0498777 0.110137 0.0153553 -0.00767218 -0.00505072 0.0780729 0.0848435 0.0266795 0.0310546 -0.0245751 0.0753735 0.106997 0.0735311 0.0698624 0.0126456 -0.0334644 -0.0314878 0.0558467 0.0355419 0.0596121 -0.0122668 -0.00420006 0.0891677 0.102631 0.12678 0.0553353 0.0627602 0.0426156 0.0160014 0.0277234 0.0346009 0.0213885 0.0296669 0.0189682 0.0229142 0.0101515 -0.019894 0.0242279 0.0428749 0.147151 0.0312386
internal_weight=0 829947 1.92659e+06 236025 593922 545232 924871 1.00172e+06 416436 53292.2 508435 182733 581802 235205 48690.5 47466.1 310027 480353 529900 133585 11269.8 36588.1 43395 381294 419920 122315 325399 35141.7 134555 314241 277604 5826.06 28082.8 229488 102067 29502.6 5252.67 205829 81532.9 53468.7 29843.5 10451.8 23625.3 15911.7 28064.2 166112 97300.6 62506.5 31335.4 2597.14 384136 275237 127421 100650 67075.4 42862.4 145764 264720 3168.79 369351 23136.3 15238.4 23177 33574.6 42567.4 29852.4 13195.5 126820 119679 26665.8 108528 8576 51901.9 2389.58 49147.9 43634.7 91987.6 7981.11 115285 314207 80539 175465 166990 129231 26905.4 5295.51 19391.7 8158.43 20088.9 162068 104881 601.435 2231.68 47238.4 32253.9 217228 13892.4 451.42 35994.6 10878.1 12005.4 297301 182209 27078.2 15784.2 2586.21 14785.3 63756.4 8366.9 4498.55 2537.42 15414.8 10312.6 3522.89 33300.6 6662.39 24213 84006.5 19004.5 65002 44904.7 20097.3 4393.66 2367.06 23735.9 417.98 16656.9
internal_count=1242035 256730 985305 48686 208044 194840 429448 555857 181624 6988 247824 41698 312233 75530 13204 6757 119310 236229 286474 32674 2239 4889 11405 168850 243624 30435 186779 12774 45698 156246 138650 231 11595 90597 39426 8397 587 88784 21397 13788 7341 2313 6447 4101 7609 79983 40880 25870 4302 593 209097 137575 51171 29832 19133 11907 77377 132653 97 201347 8078 4995 3412 10699 13519 9368 4013 50978 48249 11073 47904 2716 25759 82 9024 8150 32179 2601 46243 180589 28713 80066 76508 59540 7804 1799 5028 890 8207 78178 50439 193 637 16408 10984 116440 3008 108 6548 1868 4696 171297 103835 7182 4725 739 7750 28438 1449 703 382 4182 2550 888 12305 2279 7226 29578 6662 22916 15666 7250 2006 1075 6333 108 5355
is_linear=0
shrinkage=0.1


Tree=7
num_leaves=128
num_cat=0
split_feature=1 8 1 8 1 8 1 0 0 28 8 1 0 8 23 0 1 0 19 0 20 20 18 0 3 0 0 0 3 0 18 0 1 2 0 0 0 3 0 20 0 3 0 0 2 10 8 17 20 16 3 0 3 4 0 3 1 9 1 17 1 8 5 5 0 1 27 0 0 11 0 2 20 2 10 0 20 11 16 17 2 26 3 5 1 0 27 2 2 1 8 5 4 0 0 4 4 2 1 11 28 3 2 0 3 20 5 5 2 6 1 8 29 0 2 3 3 2 5 1 0 29 20 0 6 2 27
split_gain=132903 27927.4 18671.2 5022.68 4104.73 3033.04 2551.25 2033.17 1612.16 1537.98 1198.65 1181.2 1091.31 956.033 902.312 900.167 886.652 639.372 626.413 622.678 615.882 565.955 550.589 507.785 508.895 586.432 440.82 421.817 420.69 408.451 383.184 382.257 373.753 424.361 357.942 361.717 399.528 460.911 351.981 343.544 340.373 335.498 333.847 324.728 320.453 311.009 309.654 359.584 304.536 302.883 293.942 293.867 340.704 330.883 291.863 290.285 279.375 263.007 261.231 260.644 258.136 256.108 246.712 319.917 257.66 316.635 245.807 236.57 472.127 231.331 247.164 220.891 219.207 217.751 217.655 213.484 213.377 209.718 206.141 213.448 203.253 201.61 200.454 199.118 198.724 198.543 245.712 196.057 194.182 194.051 191.289 190.395 189.314 188.177 323.168 186.363 231.998 181.873 180.637 180.25 178.033 188.986 177.229 176.882 171.654 171.512 182.02 171.402 170.65 169.098 168.067 167.843 165.733 163.757 162.158 160.638 160.414 160.344 159.269 159.143 158.96 158.304 157.696 194.3 156.776 155.887 155.705
