tree
version=v3
num_class=1
num_tree_per_iteration=1
label_index=0
max_feature_idx=29
objective=tweedie
feature_names=day_of_year enc_S100_I100_C100_C101_std_clipped enc_S100_I100_C100_C101_mean_clipped I100 day year C101 enc_I100_S100_std_clipped rolling_mean_tmp_I100_1_7_I100_C100_C101 enc_I100_S100_mean_clipped S102 enc_I100_mean_clipped S100 enc_I100_C100_C101_mean_clipped enc_I100_C100_C101_std_clipped enc_S100_C100_std_clipped QTT_lag_3 rolling_std_I100_7_C101 QTT_lag_6 QTT_lag_4 I101 enc_S100_mean_clipped enc_I100_C101_mean_clipped QTT_lag_5 QTT_lag_7 enc_I100_std_clipped S103 rolling_mean_tmp_14_14_clipped enc_S100_std_clipped enc_I100_C101_std_clipped
feature_infos=[3:365] [0:14.546875] [0.003875732421875:19.84375] [0:95] [1:31] [2017:2021] [0:354] [0.06561279296875:13.4375] [0:30] [0.00431060791015625:18.234375] [0:19] [0.0736083984375:4.7578125] [0:30] [0.0038909912109375:6.08203125] [0.0623779296875:10.6015625] [0.10260009765625:3.736328125] [0:691] [0:16.03125] [0:352] [0:691] [0:5] [0.147216796875:0.78759765625] [0.0038909912109375:6.08203125] [0:511] [0:334] [0.396728515625:6.25390625] [0:10] [0:30] [0.7919921875:2.396484375] [0.0623779296875:8.296875]
tree_sizes=13316 13715 13773 13821 13744 13815 13854 13894 13895 13935 13950 13958 13937 13963 13992 13961 14010 14002 13926 13989 14030 14013 14042 14048 14029 14095 14023 14037 14017 14005 14065 14080 14151 14094 14078 14083 14112 14084 14108 14082 14062 14040 14123 14098 14125 14117 14080 14099 14109 14049 14131 14119 14062 14151 14084 14079 14147 14100 14082 14073 13860 14124 14025 13907 14124 14095 13996 14078 14130 14130 13910 14073 14078 13937 13795 13974 14027 13778 13949 13959 14057 13990 14114 14016 14034 14081 13952 11136 14016 14065 13802 14051 13923 12615 14180 13948 13944 13948 13859 13905 13707 3184 12873 10357 14005 14000 14068 13974 13922 14104 13962 13995 14010 13839 13987 14015 14043 13827 13939 13800 14005 13896 14030 13962 13992 13967 14021 13940 14036 13860 13883 13995 13955 14095 13847 13768 14141 13927 14063 13753 13939 13834 13784 13832 13916 12826 13975 13914 13767 13881 13996 13807 13950 14017 13881 14008 14027 13914 13828 14024 13938 13876 13983 13727 13815 13832 14005 13774 14059 13896 13984 13986 13799 13793 13888 14067 13791 13839 13730 14012 13929 13774 14099 13849 13956 13789 13914 13849 14108 13815 13861 13835 13811 13899 13970 13853 14050 13858 14006

Tree=0
num_leaves=128
num_cat=0
split_feature=1 8 1 8 8 8 1 1 0 1 1 0 16 0 0 1 0 1 8 8 1 3 1 3 1 3 1 0 8 8 22 1 3 0 1 2 1 1 1 17 17 8 3 0 16 3 0 8 2 1 3 0 3 8 8 0 2 0 0 14 1 27 2 23 27 0 3 18 1 8 3 0 0 3 1 8 8 2 6 2 8 18 11 1 0 27 2 0 3 1 2 3 2 1 8 24 0 0 0 3 0 20 2 8 4 0 3 0 0 16 22 7 13 2 0 0 3 3 0 17 0 2 1 8 20 0 23
split_gain=774342 211918 148181 55147.1 41879 24599.2 21156.3 13891.6 10498.7 9842.14 9254.91 8375.55 7887.83 7673.92 7351.56 6459.69 4500.13 4310.51 3791.83 3297.78 3213.18 3013.86 2976.91 2627.32 2371.4 2170.68 2039.97 1932.21 1855.77 1821.58 1738.73 1645.11 1615.63 1596.08 1385.31 1670.33 1321.87 1319.76 1277.22 1271.55 1217.5 1171.76 1158.73 1144.94 1031.22 1029.48 1016.28 1010.16 931.031 927.713 925.193 917.911 879.629 873.352 828.865 811.595 776.227 740.938 935.248 781.185 708.172 692.792 677.179 654.036 644.538 632.048 626.818 606.606 600.603 599.886 587.15 583.124 780.707 578.836 578.612 576.136 551.268 506.443 502.103 495.563 495.195 536.999 818.879 490.067 479.26 478.099 468.758 461.785 453.102 438.641 548.641 438.46 434.471 430.283 426.264 422.964 427.6 445.324 493.545 484.913 421.329 478.245 463.305 418.888 417.64 403.844 399.403 394.461 606.636 380.649 380.484 379.894 371.924 370.816 370.062 526.437 367.404 365.291 362.795 359.976 359.184 358.984 354.614 353.292 351.981 351.936 343.434
threshold=2.9990234375000004 9.6406250000000018 1.3793945312500002 23.500000000000004 4.9277343750000009 2.5000000000000004 0.81030273437500011 7.2480468750000009 350.50000000000006 5.2207031250000009 5.0292968750000009 353.00000000000006 79.000000000000014 349.00000000000006 345.00000000000006 2.0400390625000004 353.00000000000006 2.2587890625000004 2.6435546875000004 14.785156250000002 0.52319335937500011 10.500000000000002 5.3554687500000009 21.500000000000004 1.1000976562500002 22.500000000000004 6.9277343750000009 345.00000000000006 28.500000000000004 4.5000000000000009 0.30175781250000006 4.2578125000000009 51.500000000000007 347.00000000000006 2.2060546875000004 0.89965820312500011 6.9277343750000009 2.1826171875000004 3.7412109375000004 1.3178710937500002 12.578125000000002 1.5000000000000002 55.500000000000007 353.00000000000006 41.500000000000007 66.500000000000014 353.00000000000006 13.785156250000002 0.29846191406250006 4.1894531250000009 51.500000000000007 98.500000000000014 34.500000000000007 1.6425781250000002 1.5000000000000002 91.500000000000014 0.12585449218750003 350.50000000000006 231.50000000000003 7.4726562500000009 1.7622070312500002 0.75000000000000011 5.7460937500000009 1.0000000180025095e-35 1.6782226562500002 30.000000000000004 24.500000000000004 1.0000000180025095e-35 0.31896972656250006 2.0712890625000004 24.500000000000004 235.00000000000003 112.50000000000001 19.500000000000004 1.6098632812500002 6.6425781250000009 7.3574218750000009 0.44384765625000006 289.50000000000006 0.071746826171875014 8.0703125000000018 1.0000000180025095e-35 0.28625488281250006 0.93627929687500011 37.000000000000007 1.0000000180025095e-35 1.1948242187500002 338.00000000000006 56.500000000000007 0.66723632812500011 0.26379394531250006 65.500000000000014 1.2407226562500002 2.3720703125000004 6.9277343750000009 2.5000000000000004 107.00000000000001 226.00000000000003 328.00000000000006 56.500000000000007 345.00000000000006 1.5000000000000002 0.79101562500000011 3.5000000000000004 22.500000000000004 353.00000000000006 64.500000000000014 198.00000000000003 345.00000000000006 39.500000000000007 0.37280273437500006 9.3906250000000018 0.60131835937500011 0.45715332031250006 126.50000000000001 226.00000000000003 29.500000000000004 62.500000000000007 329.50000000000006 1.9819335937500002 353.00000000000006 0.51977539062500011 2.5263671875000004 3.9287109375000004 1.5000000000000002 353.00000000000006 1.0000000180025095e-35
decision_type=2 2 2 2 2 2 2 2 2 2 2 2 2 2 2 2 2 2 2 2 2 2 2 2 2 2 2 2 2 2 2 2 2 2 2 2 2 2 2 2 2 2 2 2 2 2 2 2 2 2 2 2 2 2 2 2 2 2 2 2 2 2 2 2 2 2 2 2 2 2 2 2 2 2 2 2 2 2 2 2 2 2 2 2 2 2 2 2 2 2 2 2 2 2 2 2 2 2 2 2 2 2 2 2 2 2 2 2 2 2 2 2 2 2 2 2 2 2 2 2 2 2 2 2 2 2 2
left_child=2 4 6 7 10 8 20 22 15 14 13 17 28 18 31 41 24 60 45 44 68 -12 55 46 48 37 33 47 -5 100 -25 52 36 80 -13 -36 65 105 -20 76 51 74 103 56 95 49 -15 -24 -8 84 -35 -21 -6 91 77 -3 -22 58 59 -53 -7 88 69 -41 -49 -23 -37 112 -1 -34 -18 72 126 125 -4 -33 -28 -26 -27 -70 81 82 -11 -50 -2 -38 104 -67 -31 -58 -91 93 -48 -17 -65 -9 -97 99 -99 -98 101 102 119 -32 -51 -10 -74 -57 -109 -42 -107 -14 -40 -56 -62 123 -77 -29 -117 -19 -39 -122 -55 -116 -43 -16 -54
right_child=1 3 5 12 9 11 16 19 25 26 21 34 111 23 73 53 70 29 38 40 43 32 27 30 54 78 39 117 -30 61 42 75 62 50 35 66 85 120 67 63 109 124 -44 -45 -46 -47 92 64 83 86 -52 57 71 122 113 107 89 -59 -60 -61 114 -63 -64 94 -66 87 -68 -69 79 -71 -72 -73 106 -75 -76 116 -78 -79 -80 -81 -82 -83 -84 -85 -86 -87 -88 -89 -90 90 -92 -93 -94 -95 -96 96 97 98 -100 -101 -102 -103 -104 -105 -106 110 -108 108 -110 -111 -112 -113 -114 -115 115 118 -118 -119 -120 -121 121 -123 -124 -125 -126 -127 -128
leaf_value=0.84213500815613296 0.97350975075437685 1.0587777087262731 0.88618475009884601 1.410517911563151 0.99383425013678972 0.91493076597689371 0.88477277971470802 1.2692232213585817 0.93243840367037356 1.4886392485125528 1.4552394249237315 0.99520921245877081 1.6341283566910185 1.0560014607315331 1.1103843948323844 0.90868777467951722 0.92525561564646908 1.2402517974088823 0.97170933791887792 1.2185649919360018 0.88710593245644842 1.0932676192788688 1.1479405998211551 1.5988484096632591 0.89258841275944534 0.95911552961320701 1.2560175627838237 1.3230367773025802 1.5580788416778422 0.98666045591092866 1.0231731320477797 1.0348124759521258 0.96148367425684289 1.237007023826779 1.2670846722310691 1.0823198419752669 1.1578614615934879 0.9856904560088755 1.2176186874146819 1.2063842585836084 1.3894963330943884 0.91002146503130243 0.94924311823401608 0.87813724465705278 1.5382092691610385 0.91422238902563357 1.3197692039089388 1.2633569933529212 0.86362331417495897 0.99474294381646433 1.0479582534304313 1.3049274558933339 1.0906469033835571 0.92176698570795335 0.9140607335336296 1.1542452918413408 0.85400622200687071 1.4189499302614346 1.260528681786498 1.4059411268849851 0.92055084290392775 0.9711681524181428 1.0488638875262342 1.0985614749638106 1.1810176469385141 1.0233767522396395 1.0146410213872477 0.9911789258811341 0.86709867723715195 1.0104518988967506 0.8993865040127923 1.0043891085811192 1.0415260575045522 1.1296158446776976 0.89582598280876402 1.0363391552639096 1.5537402711093731 0.87669266311422955 0.92227412857934044 0.84888031807139708 1.1100753378808146 1.0690862563828059 1.1140315694871463 0.87096647393724169 0.94606944378423696 1.07806129542999 0.97758430357085269 1.103860195680872 1.0399222328675271 0.86826441591553905 0.85732441933046044 0.89832970089751452 1.1705081419041121 0.92200927725454085 1.1494208819906593 1.1550453140899166 1.2232462119874943 1.1712960374216999 1.2484940161689981 1.3228628648203704 0.99343323590363386 0.93800867984556213 0.95472818423004679 1.0925832268459632 1.34710904765898 1.0358503198903779 1.0847101915240911 1.0908511812497164 1.201337307983257 1.5708185901959983 0.9793704793672483 1.7552137732341895 1.0222819939721766 0.88874774298054338 0.94274623607230468 0.92194962057461693 1.0780447738284926 1.0945337678352876 0.95335075841521788 0.99236115796262281 1.2820873608485044 1.0708815101890679 0.93697114038559692 0.97448385397041404 0.89872104846217871 1.2251368550319688 0.99797571833733811
leaf_weight=152430.93971395493 7275.9080154895782 2734.8466320037842 117927.97985315323 2553.1977939605713 11863.788280248642 32884.50555229187 34986.536980867386 1230.7546775341034 1443.0433673858643 60.2494056224823 167.12858939170837 6049.0307199954987 331.16909217834473 844.66231822967529 338.96141982078552 46541.271150112152 15345.752802371979 98.901353597640991 40872.303683280945 1370.1700773239136 8760.7078168392181 1708.9620032310486 9977.7905220985413 52.442118644714355 22272.205149888992 7733.1746401786804 171.20988512039185 971.35120892524719 1279.3310697078705 3690.4215607643127 2120.93883061409 11088.10014462471 4012.9185240268707 1136.8769640922546 376.86416006088257 2816.4824016094208 1182.09330534935 509.07637047767639 98.910779476165771 1378.4909510612488 330.77713751792908 48225.591192245483 1596.2932257652283 28744.00412273407 99.692897319793701 6858.1719660758972 221.10203790664673 1321.88645195961 163620.00454950333 69.550318241119385 335.19773054122925 2806.2377889156342 439.05390548706055 40554.436050653458 6471.6647520065308 2563.839147567749 237642.34923005104 552.38707327842712 3395.6287930011749 1052.8079104423523 15896.300676822662 16461.388206243515 2607.8173887729645 2570.5854625701904 3385.39705991745 11517.812752246857 2661.7739317417145 23259.792625427246 15738.49121761322 6643.2671971321106 20486.948262691498 7306.2483642101288 6939.1663789749146 3953.2208309173584 131837.03172850609 2858.9527988433838 97.672521114349365 200277.66075539589 7091.8024370670319 290904.47585916519 6170.0963499546051 12972.666885852814 1854.3546016216278 204446.40153717995 50835.74548125267 2057.6182401180267 12280.923536539078 759.93277025222778 2815.9764504432678 60887.607176303864 185499.85878324509 17255.673929929733 1652.8437061309814 50615.390542984009 4591.1818065643311 1352.7481641769409 1828.47687292099 2630.1279847621918 1208.7727425098419 666.87098622322083 2085.9705393314362 27754.46066236496 33552.859979391098 1473.5288302898407 65.141095399856567 1470.3032641410828 3097.851799249649 3880.2169511318207 569.94482684135437 178.12284827232361 6318.4777369499207 1190.7425427436829 6707.3405601978302 54721.733069658279 12448.656546831131 17721.315792322159 8088.0279655456543 75.390934228897095 4643.4314200878143 143.68983125686646 83.762667894363403 2050.6176083087921 24673.064625263214 4883.2530152797699 64332.184987306595 1263.524573802948 4484.6498672962189
leaf_count=71729 2998 1023 53179 555 4781 14408 15799 345 621 11 33 2434 39 317 119 20521 6653 29 16874 415 3947 613 3336 7 9980 3236 49 249 194 1499 827 4266 1675 335 106 1024 390 207 30 425 75 21235 675 13065 16 3007 57 374 75428 28 127 742 158 17645 2838 850 110570 118 965 231 6925 6800 987 916 1082 4490 1048 9401 7231 2628 9118 2910 2649 1354 58885 1098 15 91161 3084 136016 2167 4793 648 93580 21568 752 5038 269 1077 27943 86035 7688 536 22017 1532 448 550 852 350 171 841 11875 14106 529 16 565 1123 1396 177 26 2587 76 2618 24614 5300 7709 2956 27 1955 58 23 756 10568 2010 28651 379 1799
internal_value=0.898494 1.04252 0.879285 1.23317 1.00879 0.916141 0.862934 1.19644 0.905795 1.06361 0.981507 0.947605 1.53626 0.971652 1.04043 0.902779 0.875917 0.942087 0.966518 1.26189 0.853366 1.03174 1.1484 1.06729 0.874114 0.967011 1.10925 1.17531 1.45978 0.957946 1.02593 1.02958 1.02942 1.09329 1.02877 1.06344 1.04962 0.998869 0.983218 1.15005 1.30241 0.895091 1.02014 0.858737 1.21837 0.95121 1.14707 1.16596 0.869184 0.954806 1.19396 1.29406 1.01583 0.918284 0.881118 1.10498 0.857605 1.30731 1.29881 1.33249 0.926563 0.982087 1.00319 1.14331 1.20414 1.03629 1.04944 0.998863 0.847265 0.992011 0.910465 1.02755 1.03885 1.15017 0.891274 1.05088 1.36417 0.878283 0.941492 0.849815 1.08626 1.07638 1.12582 0.867702 0.949505 1.10718 0.979619 1.02836 1.00971 0.857071 0.860028 0.913019 1.18812 0.915628 1.13117 1.2148 1.20608 1.21698 1.1956 1.24987 0.949234 0.947736 0.955724 1.05163 1.16516 0.98103 1.05485 1.123 1.105 1.45296 0.990032 1.72887 1.02512 0.891425 0.933444 0.938607 1.06715 1.30658 0.928469 1.09342 1.06117 1.07917 0.927518 0.951688 0.903563 1.20086 1.00624
internal_weight=0 329542 2.45889e+06 49538.7 280003 755648 1.70324e+06 44184.2 568663 93060.1 186943 186985 5354.44 156286 61721.5 541963 722629 175081 148324 18703.6 980608 30657.6 25480.7 7961.81 686796 26700.3 31338.6 15731.8 3832.53 86603.7 5243.2 56165.8 30490.4 22529.4 11904.2 5855.12 17226.4 11875.3 70938.3 8809.14 9686.13 362323 5190.76 521535 9017.44 77385.4 2718.61 14685.1 403053 70527.3 1472.07 9177.23 34130.8 179640 283743 9748.85 492791 7807.06 7254.67 3859.05 88477.5 22967.8 13264 8540.26 4707.28 13986.7 5478.26 30066 459074 10656.2 35832.7 22267 14960.7 5555.71 249765 22035.1 268.882 222550 14825 306643 21057.4 14887.3 1914.6 368066 58111.7 3239.71 12415.6 12277.7 6506.4 484030 246387 114412 1873.95 97156.7 7161.77 8917.75 7687 6334.25 3838.9 2495.35 63635.9 61549.9 33795.5 3594.47 134.691 9231.82 10037 7014 4450.16 508.9 7788.78 1521.91 6806.25 61193.4 55593 39696.7 10947 1046.74 22364.7 242.591 2643.46 2134.38 65227.5 17331.9 112558 1602.49 4923.7
internal_count=1242034 125655 1116379 14682 110973 330672 785707 13818 251468 34610 76363 79204 864 64526 23592 240389 329171 74592 61578 5304 456536 11837 8514 2948 313400 11079 11018 5068 749 36285 2038 21740 11804 8081 4612 2178 6514 4759 28923 2937 2572 161950 2031 241560 2732 32655 910 4792 184807 29648 462 2471 13420 78439 128593 3446 228495 2056 1938 973 38307 9376 5290 2873 1456 5372 2072 12049 214976 4303 15771 8639 5729 1852 112064 8320 64 101141 6320 143247 7619 5452 659 169008 24566 1142 5082 4759 2576 224548 113978 50226 593 42538 2448 2716 2371 1923 1202 721 26909 26068 14193 1356 44 3773 3772 2423 1573 101 3152 115 2648 27452 23899 16974 4054 276 9664 87 986 779 28213 7310 49886 498 1957
is_linear=0
shrinkage=1


Tree=1
num_leaves=128
num_cat=0
split_feature=1 8 1 8 8 1 8 3 1 0 1 1 0 0 0 1 0 1 1 8 17 0 1 8 8 19 0 20 3 1 1 1 3 22 3 3 8 0 0 3 8 0 1 2 2 3 0 23 3 2 1 2 3 19 20 3 18 10 1 2 1 22 22 0 8 3 1 18 0 0 3 2 8 20 0 2 3 8 18 23 8 2 1 0 0 6 1 0 19 2 1 0 0 8 17 20 0 0 0 0 3 20 23 2 18 2 3 6 5 0 0 2 6 0 8 20 0 0 1 3 8 7 8 10 0 1 2
split_gain=577337 146367 103504 43612.8 26036.7 15356.9 15355.7 12695.2 9531.19 7511.13 7429.11 5785.46 5409.43 5104.83 4583.02 4421.08 3412.25 2458.57 2375.36 2374.76 1813.91 1771.01 1717.09 1689.94 1596.38 1588.58 1514.17 1435.92 1433.59 1402.05 1366.76 1298.79 1269.45 1244.87 1217.25 1088.07 1067.13 1059.21 1011.87 1002.41 969.554 932.143 872.522 866.009 848.099 829.023 1346.44 814.06 808.865 796.746 785.858 769.321 749.645 734.694 732.236 703.755 691.288 646.075 645.105 643.406 634.586 629.1 617.3 604.308 589.069 574.591 574.231 561.372 560.914 830.533 599.511 557.966 555.302 542.801 538.781 519.688 533.74 504.555 496.223 495.776 639.193 485.368 482.677 479.787 757.721 476.547 470.07 468.134 465.898 465.062 452.541 449.092 445.546 422.633 412.488 411.769 409.15 403.786 398.788 683.351 615.449 398.726 396.96 393.18 390.442 390.202 372.641 371.282 361.366 463.384 358.019 357.791 351.525 350.696 342.463 340.841 339.617 412.208 339.344 326.261 322.915 314.873 312.61 306.629 306.506 302.604 422.235
threshold=2.7451171875000004 8.3593750000000018 1.2905273437500002 20.789062500000004 3.9287109375000004 0.76586914062500011 2.3564453125000004 8.5000000000000018 6.1855468750000009 345.00000000000006 4.6386718750000009 4.5371093750000009 345.00000000000006 345.00000000000006 349.00000000000006 1.7993164062500002 350.50000000000006 2.0400390625000004 0.43737792968750006 12.640625000000002 1.1440429687500002 345.00000000000006 1.0122070312500002 1.6425781250000002 29.500000000000004 60.000000000000007 350.50000000000006 1.5000000000000002 22.500000000000004 6.9277343750000009 6.0312500000000009 4.0957031250000009 23.500000000000004 0.68579101562500011 51.500000000000007 10.500000000000002 3.7861328125000004 353.00000000000006 338.00000000000006 67.500000000000014 6.3574218750000009 350.50000000000006 1.7104492187500002 1.1948242187500002 1.2729492187500002 56.500000000000007 233.00000000000003 1.0000000180025095e-35 65.500000000000014 0.29577636718750006 2.0927734375000004 0.38977050781250006 8.5000000000000018 1.0000000180025095e-35 1.0000000180025095e-35 56.500000000000007 1.0000000180025095e-35 1.5000000000000002 7.8183593750000009 0.11245727539062501 2.2451171875000004 0.38574218750000006 0.39526367187500006 353.00000000000006 1.0712890625000002 51.500000000000007 0.59545898437500011 1.0000000180025095e-35 76.000000000000014 226.00000000000003 56.500000000000007 0.22967529296875003 1.0712890625000002 1.5000000000000002 91.500000000000014 0.96508789062500011 56.500000000000007 6.2148437500000009 1.0000000180025095e-35 1.0000000180025095e-35 0.92846679687500011 0.49902343750000006 1.0375976562500002 226.00000000000003 105.50000000000001 199.50000000000003 3.4033203125000004 5.5000000000000009 1.0000000180025095e-35 0.24285888671875003 9.2812500000000018 105.50000000000001 5.5000000000000009 5.9277343750000009 10.894531250000002 1.0000000180025095e-35 37.000000000000007 340.00000000000006 226.00000000000003 326.00000000000006 56.500000000000007 1.5000000000000002 183.00000000000003 0.34802246093750006 1.0000000180025095e-35 0.45837402343750006 16.500000000000004 156.00000000000003 2017.5000000000002 203.50000000000003 5.5000000000000009 0.49902343750000006 324.50000000000006 231.50000000000003 1.6425781250000002 1.0000000180025095e-35 228.00000000000003 126.50000000000001 3.4521484375000004 56.500000000000007 1.9287109375000002 5.7695312500000009 0.78564453125000011 1.5000000000000002 119.50000000000001 0.27355957031250006 0.052413940429687507
decision_type=2 2 2 2 2 2 2 2 2 2 2 2 2 2 2 2 2 2 2 2 2 2 2 2 2 2 2 2 2 2 2 2 2 2 2 2 2 2 2 2 2 2 2 2 2 2 2 2 2 2 2 2 2 2 2 2 2 2 2 2 2 2 2 2 2 2 2 2 2 2 2 2 2 2 2 2 2 2 2 2 2 2 2 2 2 2 2 2 2 2 2 2 2 2 2 2 2 2 2 2 2 2 2 2 2 2 2 2 2 2 2 2 2 2 2 2 2 2 2 2 2 2 2 2 2 2 2
left_child=2 4 5 8 11 18 9 25 21 15 12 14 32 17 23 54 22 73 125 35 33 31 49 48 58 -5 30 95 63 39 77 -3 87 -12 -28 -10 -19 -29 52 43 83 59 81 -13 -14 -33 108 56 62 -7 111 -24 -21 -32 105 -40 115 -56 -9 -20 114 -52 -2 -16 -53 86 -61 -37 -54 70 -70 -68 -59 113 -69 -30 -77 -22 106 80 -45 -39 89 84 104 107 -46 -6 -82 -18 -35 -49 -75 -55 97 -11 -64 -60 100 -100 -76 116 -27 -84 -34 -4 -31 -44 109 -47 -103 -15 -65 124 123 -25 117 -38 -89 -86 -41 -96 -51 -17 -8 -1 -127
right_child=1 3 6 7 10 16 13 24 19 27 20 29 44 50 28 60 82 36 41 38 26 -23 51 47 -26 102 34 37 75 78 53 45 40 90 -36 67 101 42 55 120 -42 -43 85 79 65 46 -48 91 -50 122 61 64 68 93 57 -57 -58 72 94 66 -62 -63 96 112 -66 -67 71 74 69 -71 -72 -73 -74 92 98 76 -78 -79 -80 -81 88 -83 103 -85 119 -87 -88 118 -90 -91 -92 -93 -94 -95 121 -97 -98 -99 99 -101 -102 110 -104 -105 -106 -107 -108 -109 -110 -111 -112 -113 -114 -115 -116 -117 -118 -119 -120 -121 -122 -123 -124 -125 -126 126 -128
leaf_value=-0.05478323779292639 -0.011455433828930751 0.11920944160849836 0.031546254292206165 0.49894175276363972 0.18029150279089387 -0.017603711010611582 0.015364837861140589 0.25639916470969615 0.59167309647823962 0.025716776927394953 0.6124977150508637 0.36977074000447496 0.35091742383166397 0.15216407586321384 0.10596299766899611 0.024978648966513348 0.040643779264104035 0.033019166196411195 -0.020931548542267874 0.50377800767031056 0.11266234944597156 0.24987643813120211 -0.0031106814400528372 0.097085504443046589 0.50180952392189349 0.66830484405045465 0.25828664071357815 0.033231438257629996 0.29370049748206445 0.36071761070472391 0.20813420560826171 0.15597691925032617 0.12007132579385922 0.20686620071937734 0.10742534917228197 0.2727311066156245 0.047941366130527352 0.11757422310179506 0.37072543175533812 -0.0032071429838065276 0.11708597176598945 -0.024052234411731464 0.11001500883947478 0.072916825326707582 0.14621191081498516 0.26604016447087697 0.12276120520984968 0.033333143247816242 0.0014023640777886669 -0.033908698464654982 0.20719720528427016 -0.02443557069738626 0.21294273822564042 0.12951979772108865 0.013892010686176898 0.19835633008194056 0.051993422996351714 -0.017703588558367185 0.3457103050433139 -0.044772353974635665 0.016753843778497982 0.10060298568799107 0.059076767452404345 0.21771490538516189 -0.014822034858501539 0.10812894368719841 -0.03007061420356948 0.16365115907843888 0.26274709554109549 0.23760559079194496 0.31957089502842539 -0.040509102955327489 -0.0072410364934748853 0.073869196257147843 0.21364694103576243 0.10129641401961742 0.029047264714287625 0.13861567011502243 0.090488562508347137 0.074350015236860356 0.13134788595415853 0.047293928787778425 0.072928874380016315 0.075044541926601538 0.099594794350643168 0.072813037182228466 0.19914136345461389 0.052525029358830994 0.08794640955758054 -0.0085257072296978497 0.39708576067731949 0.052061097910094722 0.0064457992576332154 0.16451914117017372 0.38160121799645119 -0.023752502174648592 0.034902498962771887 0.45543505395421491 0.17771447888080177 0.24321017217235452 0.28941649813156284 0.13771742031274636 0.78453460096473537 0.013140891097200513 0.065365018583523532 -0.0026625988898124121 0.15150147763648314 0.18625540390597625 0.19283852399636414 0.18703889186121297 0.037478106849977676 0.061964892407875366 0.13905841248040016 0.011689885358152505 0.013566139238372877 0.064963848299163018 0.045439730921221257 0.084610658664630425 0.077363900164282337 0.12947496441128331 0.067400755856813932 0.51757637824039493 -0.027175283827090436 0.001460512194045699 0.038108233435995321 -0.024812000877197555 -0.048955415858719896
leaf_weight=99809.217203140259 2548.7663898468018 6397.9530169963837 3442.3402769565582 549.24110507965088 360.98936557769775 46585.113966941833 8500.7096347808838 616.38893365859985 75.717421293258667 13614.55724811554 100.50975441932678 109.93747019767761 253.87454581260681 461.95843362808228 1155.2818393707275 5878.441712141037 2096.296448469162 58280.283758401871 16447.553688049316 123.73416996002197 17237.308574199677 2319.962461233139 25959.748980998993 8106.4393479824066 821.615966796875 1262.9710440635681 1857.733918428421 10250.251825094223 115.98006558418274 86.936217308044434 2611.744610786438 15262.04480266571 1552.4218165874481 706.57514381408691 751.07332611083984 1379.8732714653015 4520.556271314621 1115.4086768627167 1361.4743680953979 1580.3761110305786 15168.931299448013 37379.648545503616 2496.1184310913086 5532.3235094547272 2850.2683203220367 2227.6640009880066 1989.867240190506 16406.072306871414 7489.4626953601837 204181.97210121155 595.99663925170898 183818.09713387489 2483.9612145423889 5762.6607418060303 9469.6101934909821 286.75501275062561 13322.163362026215 108856.78657150269 4533.3744151592255 226675.72660398483 85317.115992307663 7796.4586308002472 8431.9208393096924 1791.1695408821106 97570.377266168594 1449.0756659507751 67350.667437791824 2494.1276865005493 4396.0936317443848 6275.2942736148834 3214.1808664798737 213640.32721447945 95000.008628129959 1007.0845432281494 3681.2882635593414 3390.3670778274536 1464.0429201126099 13247.643433332443 1607.3884682655334 13357.527861118317 6530.5608599185944 8256.7883901596069 1182.6845247745514 17712.504833936691 11388.04590177536 2653.9253833293915 4079.3472843170166 10541.311329603195 3981.0919060707092 23352.977262973785 151.96780848503113 58322.915816545486 36580.943517923355 8597.8792321681976 431.70084619522095 1919.8812007904053 41263.453606843948 362.17793869972229 4820.9323077201843 2379.1747283935547 1512.4585740566254 368.17680191993713 382.93323421478271 15718.814751386642 8172.9247226715088 106300.84489703178 4105.2140197753906 858.42500352859497 3239.8086318969727 1113.6197032928467 11056.532614946365 9155.1219635009766 832.15003514289856 13678.191279411316 41379.714892864227 5575.2705454826355 6695.4680624008179 9524.5503482818604 11501.16050028801 5380.913982629776 1097.5283725261688 281.25056648254395 104104.23689293861 97385.995815515518 19560.542503833771 7518.2883017063141 198292.68962812424
leaf_count=49337 1109 2186 1492 73 122 21532 3673 146 9 5766 12 24 56 163 411 2550 896 24200 7741 17 6017 589 11738 3072 100 92 477 4379 30 15 763 4762 552 205 257 339 1821 407 260 681 5300 17516 900 2082 905 576 639 6681 3279 96959 173 85657 664 1914 4191 72 5342 49884 865 110026 36672 2807 3346 500 44828 498 31998 740 1051 1590 681 102758 42838 410 1009 1221 605 4360 565 5002 2274 3321 483 6713 4169 1013 1179 4160 1469 10493 30 23306 15939 2654 76 863 17086 55 1402 603 365 135 17 6862 3134 47738 1330 271 950 330 4515 3589 260 5921 17978 2200 2703 3614 4324 1873 421 38 49072 43246 8183 3583 96919
internal_value=0 0.107055 -0.0194683 0.232562 0.0796737 -0.0342601 0.0102614 0.436214 0.204487 0.00238373 0.112783 0.0571822 0.0955653 0.0351887 0.0493072 -0.000683731 -0.0232942 0.0298186 -0.0431705 0.241121 0.14329 0.165676 -0.0250541 0.0454876 0.370797 0.646205 0.140681 0.0435932 0.119799 0.0924677 0.136603 0.159214 0.0876182 0.279518 0.214854 0.213473 0.0410887 0.0581332 0.266028 0.0843132 0.0952713 -0.0393091 0.0747287 0.089629 0.170851 0.169954 0.194841 0.0533269 0.0321366 -0.029793 0.0858115 -0.0195825 0.258563 0.159347 -0.00822716 0.340737 0.0682078 -0.0116418 0.353505 -0.0403972 0.00991394 0.108173 0.0365425 0.166225 -0.0211021 0.165395 -0.0410278 0.211713 0.256709 0.264538 0.286746 -0.0380071 -0.0128279 0.0169691 0.206058 0.0845048 0.0795068 0.123941 0.137727 0.0885815 0.10043 0.0556582 0.00422452 0.0877859 0.096304 0.104475 0.177371 0.0673352 0.11491 -0.00447554 0.240536 0.0479495 0.00825225 0.150474 0.364177 0.0196029 0.0390042 0.353828 0.214591 0.199357 0.235712 0.0557098 0.695347 0.0173246 0.0740976 -0.00158956 0.15584 0.129525 0.216635 0.23971 0.0407085 0.0662976 0.192764 0.0248189 0.00587948 0.083996 0.0639732 0.0728083 0.0654853 0.109183 0.0257312 0.435242 -0.0316349 0.00279931 0.0312185 -0.0502647 -0.0480735
internal_weight=0 425919 2.35366e+06 76277.6 349641 1.57168e+06 781979 9241.65 67036 594196 141437 208204 90411.8 187783 170215 553031 704570 169773 867114 34485.1 51025.1 32550.9 662220 161466 7046.51 2195.15 50066 41165.4 8748.99 37988.9 47457.2 30231 81779.2 959.053 2608.81 16343.6 90445.6 25630.9 18141.5 32189.3 59375.7 561494 15380.7 29511.4 8632.57 23833 8570.96 101733 59733.6 354871 18009.5 307348 16493.3 16972.3 323070 1648.23 27003.9 213326 6224.89 524114 229961 8392.46 52244.1 3778.6 281388 8378.69 507667 16267.9 16369.5 13885.6 7610.27 280991 203857 79327.5 14888 4970.39 4854.41 30485 5799.54 29401.5 16044 9372.2 42350.8 44206.8 26494.3 6008.47 6929.62 22403.5 10511.7 25449.3 858.543 74729 37588 14360.5 5608.5 15534.4 49695.4 4895.55 12393.9 7200.11 5193.75 32165.3 1645.9 16901.5 9725.35 109743 4192.15 3354.54 6581.09 3341.28 11424.7 9617.08 2623.32 41739.4 144644 13681.7 20740.6 14045.1 22042.5 16769 2677.9 712.951 308286 103264 28061.3 305620 205811
internal_count=1242034 152281 1089753 20296 131985 748398 341355 1462 18834 263509 49674 82311 32985 77846 68448 246589 328520 71114 419878 8802 16689 10032 309786 65421 1280 182 16442 16920 3027 13863 15708 9443 30347 247 734 4467 36988 10291 4335 11953 21741 270039 5912 10851 2638 7257 2495 40601 24820 167563 6732 142223 4003 5331 146143 332 10614 96913 1180 252523 100446 2980 21541 1171 130485 2582 244782 4458 3986 3322 1732 134756 92722 34126 4119 1856 1826 10377 1910 10827 5825 3728 18734 16441 9728 2184 2084 8606 3743 11389 235 29987 16349 4568 1034 6629 20432 920 3379 2005 1374 12788 109 7345 3686 49230 1345 1171 1856 906 4650 3752 760 17777 63774 5272 8138 5435 8484 6042 1102 114 146031 45796 11856 149839 100502
is_linear=0
shrinkage=0.1


Tree=2
num_leaves=128
num_cat=0
split_feature=1 8 1 8 8 8 1 1 1 16 1 0 0 0 1 0 0 1 1 0 8 8 0 1 1 2 1 3 8 8 3 3 3 3 2 20 2 0 2 2 1 2 20 1 10 10 0 0 16 16 18 2 20 0 27 16 2 2 0 2 10 3 1 0 0 3 20 2 0 27 2 1 2 0 0 18 8 0 3 0 0 28 13 8 27 8 20 16 8 27 2 0 0 8 24 0 3 11 3 27 1 2 2 28 8 8 11 3 27 2 3 12 3 1 2 8 20 2 20 0 20 11 22 18 0 0 0
split_gain=439389 101871 75163.2 28064.1 19294 11224.2 10106.5 9209.41 5579.46 4963.72 4830.49 4642.55 4245.89 4185.5 3410.31 2614.05 2548.91 2387.78 2149.98 1669.51 1662.93 1643.14 1494.57 1439.8 1392.91 1352.44 1347.56 1318.54 1176.22 1111.85 1109.72 981.003 975.064 945.716 918.692 806.665 774.128 753.328 728.974 688.631 675.808 682.703 666.379 665.54 664.942 655.942 606.84 661.798 603.318 582.322 576.097 550.841 548.545 547.836 547.46 547.268 527.908 525.214 520.828 553.583 505.52 503.766 499.022 491.229 478.134 669.011 477.14 486.082 461.034 455.883 453.456 490.607 449.518 444.439 551.313 417.565 418.658 415.067 410.946 518.82 925.234 408.193 407.069 396.647 395.121 378.388 373.994 360.888 359.251 358.881 358.037 354.435 658.447 347.488 342.868 341.529 340.903 338.85 336.77 334.211 333.708 471.698 331.716 329.891 323.733 321.552 320.598 320.578 315.423 309.667 304.619 303.491 299.448 294.768 324.785 289.467 284.68 284.185 283.85 282.578 282.539 281.805 279.296 274.737 352.617 273.139 268.382
threshold=2.5458984375000004 7.9277343750000009 1.1713867187500002 25.210937500000004 4.0722656250000009 1.9287109375000002 0.68334960937500011 7.8183593750000009 4.0136718750000009 92.000000000000014 3.9697265625000004 345.00000000000006 345.00000000000006 345.00000000000006 1.6098632812500002 353.00000000000006 345.00000000000006 4.7148437500000009 1.7797851562500002 350.50000000000006 2.0712890625000004 18.500000000000004 347.00000000000006 6.0312500000000009 0.40319824218750006 4.9804687500000009 0.91333007812500011 26.500000000000004 11.785156250000002 3.3564453125000004 10.500000000000002 67.500000000000014 16.500000000000004 51.500000000000007 1.1948242187500002 1.5000000000000002 0.37365722656250006 353.00000000000006 0.24420166015625003 0.10855102539062501 1.7309570312500002 0.71752929687500011 1.0000000180025095e-35 1.5590820312500002 1.0000000180025095e-35 1.5000000000000002 98.500000000000014 226.00000000000003 37.500000000000007 1.0000000180025095e-35 125.00000000000001 9.6367187500000018 1.0000000180025095e-35 84.500000000000014 1.3930664062500002 47.500000000000007 1.2651367187500002 1.5893554687500002 353.00000000000006 1.2954101562500002 1.5000000000000002 56.500000000000007 3.4521484375000004 238.50000000000003 338.00000000000006 55.500000000000007 1.0000000180025095e-35 1.0981445312500002 338.00000000000006 1.4643554687500002 0.21319580078125003 0.93286132812500011 0.94897460937500011 91.500000000000014 226.00000000000003 1.0000000180025095e-35 1.2143554687500002 350.50000000000006 24.500000000000004 233.00000000000003 112.50000000000001 1.6425781250000002 0.85986328125000011 2.3564453125000004 0.17852783203125003 1.9287109375000002 1.5000000000000002 1.5000000000000002 0.78564453125000011 0.67871093750000011 0.40319824218750006 329.50000000000006 209.00000000000003 28.500000000000004 1.5000000000000002 219.00000000000003 25.500000000000004 0.40075683593750006 51.500000000000007 0.17852783203125003 0.53540039062500011 0.19000244140625003 0.53881835937500011 2.3593750000000004 1.0712890625000002 13.640625000000002 0.40075683593750006 51.500000000000007 1.0000000180025095e-35 0.98168945312500011 63.500000000000007 7.5000000000000009 33.500000000000007 1.9311523437500002 0.42028808593750006 0.78564453125000011 1.5000000000000002 2.3759765625000004 1.5000000000000002 231.50000000000003 1.0000000180025095e-35 0.37817382812500006 0.44433593750000006 1.0000000180025095e-35 144.00000000000003 195.00000000000003 329.50000000000006
decision_type=2 2 2 2 2 2 2 2 2 2 2 2 2 2 2 2 2 2 2 2 2 2 2 2 2 2 2 2 2 2 2 2 2 2 2 2 2 2 2 2 2 2 2 2 2 2 2 2 2 2 2 2 2 2 2 2 2 2 2 2 2 2 2 2 2 2 2 2 2 2 2 2 2 2 2 2 2 2 2 2 2 2 2 2 2 2 2 2 2 2 2 2 2 2 2 2 2 2 2 2 2 2 2 2 2 2 2 2 2 2 2 2 2 2 2 2 2 2 2 2 2 2 2 2 2 2 2
left_child=2 4 6 7 8 11 24 17 13 44 15 14 18 20 52 46 26 53 84 23 66 32 28 57 -1 31 38 58 73 116 -25 34 -9 117 63 120 -28 -37 -8 -26 -14 -42 113 90 93 -44 -6 61 87 -32 -11 123 102 103 55 -23 -17 -12 -15 -60 -54 72 109 -10 75 -66 108 -68 -49 110 -18 -72 -48 82 98 76 -36 100 126 80 -80 -50 -19 -77 112 -33 -69 -34 122 121 -39 92 -55 -5 -51 -74 -58 -81 -75 -63 -41 -102 -4 -3 -38 -89 -29 -24 -2 -22 -30 -88 -7 -16 -115 -62 -20 -21 119 -111 -13 -31 -47 124 -27 -126 -59
right_child=1 3 5 9 10 12 16 21 25 50 19 35 40 27 42 56 70 22 29 33 62 54 107 30 39 51 36 106 69 89 49 85 48 -35 64 37 104 43 -40 77 41 -43 45 -45 -46 88 47 68 81 94 -52 -53 60 91 -56 -57 96 78 59 -61 115 99 -64 -65 65 -67 67 86 -70 -71 71 -73 95 74 -76 83 -78 -79 79 97 -82 -83 -84 -85 -86 -87 111 105 -90 -91 -92 -93 -94 -95 -96 -97 -98 -99 -100 -101 101 -103 -104 -105 -106 -107 -108 -109 -110 118 -112 -113 -114 114 -116 -117 -118 -119 -120 -121 -122 -123 -124 -125 125 -127 -128
leaf_value=-0.048198441122075594 0.044438017997680393 0.078197809996764081 0.0061453588466626611 0.3138981652970898 0.050469478993944099 -0.0001571051343889372 -0.01847650664282428 0.40785884337366457 0.11264091331720422 0.46286698286670647 0.30160880630513476 0.015024389289738203 0.040694696136740142 0.087258401736305169 0.0036777282001822079 0.26556468303142794 0.030271532646430205 0.33884039772947472 0.024824568060274138 0.31059911045271205 0.11930751843810672 0.28318160528344261 0.23451275912679004 0.46917297492352344 -0.023239244993310513 0.12834863461462367 -0.0095371925532682367 0.021466338550144112 0.17855705894503016 0.071637532380205191 0.17145758605870642 -0.0031257651777728893 0.25048467192204055 0.084468073880703626 0.059253647954273118 0.018358981135957051 -0.026318784821102215 0.094065680925701764 -0.032898374303976102 -0.044094359959617628 0.16831459341304389 0.069703882105135714 0.026127909422349924 0.076269795879204169 0.3003041507819571 -0.022204214930046252 0.34595495294419076 0.057097581176561912 0.22929194044674622 0.14458065952987992 0.58019798604947781 0.18620178618387631 0.007732293312259237 0.13964651580930956 0.23797238327633027 0.46807933729757284 0.15748787377410234 0.076624443758544311 0.21626696429805037 0.12545348983021432 -0.020835042379665217 0.12976458790809178 0.05609701156849204 0.40800052788598368 0.13033804329996321 0.03349277009699874 -0.02399367622205606 0.00034082028630868112 0.096013819949768375 0.1602997595450262 -0.015693633390941063 0.0030846426088016916 0.06923642337741627 0.14428606887891024 0.1256558091551716 0.035001204790504302 0.086222458365717264 -0.028082095828465204 0.087380645205273028 0.048849152226692449 0.12782559632365573 0.45956682306745633 0.10601102621260727 0.064627934719360888 0.0016493170621777028 0.052303858627052696 0.03930549454212761 0.17564845317979072 0.00090600840491738025 0.032603520629441191 0.029346299118609871 0.16131380689007568 0.090860398264570527 0.41837040561823308 0.11067833522135898 0.12241240256439163 0.10565249850053236 0.093219920269117268 0.18163343443084803 0.088319862638828919 -0.029378736928966705 -0.040503382160416136 -0.009291457768699973 0.25229245438328357 -0.018518173337359868 0.20276467176604063 0.071849326747588996 0.14207153215256446 0.026650101580719222 0.051651661058463895 0.23674704151505238 0.019433741983100928 0.023463733725489249 0.21704615554215897 0.014178450217481448 -0.01324922409221312 0.013696213414777871 0.18706055578543426 0.032529508626751406 0.034477359207209395 -0.026546009121441241 0.041520048003446511 -0.005318539601333095 0.074434808842770595 0.039144157300006463 0.10678915423993106 0.12666419358843573
leaf_weight=243389.82793164253 14890.731588840485 4841.0425510406494 17081.837947368622 476.84573221206665 15991.024370670319 7695.2696239948273 39610.134015917778 214.95138359069824 105.24358534812927 736.05752754211426 125.26296591758728 13048.281617164612 9709.8224794864655 2731.3963830471039 49954.434668302536 314.52400827407837 3364.4983012676239 76.198757648468018 46444.814264535904 197.75653219223022 483.29809284210205 1299.5469341278076 2606.5497879981995 96.199440956115723 26732.276996254921 4019.5967671871185 42199.451839327812 1615.826770067215 2502.4541535377502 4808.5213232040405 2671.0706615447998 2617.7088103294373 977.89371371269226 1020.7695143222809 9756.7706580162048 10991.380034923553 189299.55817985535 945.31143617630005 304335.37343001366 162962.22803294659 738.50573587417603 14232.164148807526 8242.6633441448212 6760.6531598567963 2875.487452507019 12896.271767854691 60.824851036071777 23752.090636014938 173.22214770317078 4220.5371928215027 969.89914798736572 765.88389921188354 8843.3812191486359 5344.6742653846741 5898.0208380222321 182.56900405883789 2586.1314063072205 11788.422543048859 833.76714158058167 3443.6586570739746 92103.543934106827 3287.7869811058044 23830.118854522705 121.10621428489685 2610.6103546619415 981.48001074790955 2568.4742555618286 7632.6469056606293 3491.7024984359741 12389.631994009018 31948.243396043777 24646.141058325768 14757.116846084595 6389.4634430408478 10299.143362283707 6362.9228930473328 14038.47244310379 28256.348786592484 9616.961757183075 1968.3923773765564 13733.46403503418 138.5496621131897 5168.5946609973907 15593.325532674789 66086.437945365906 2325.7553246021271 10291.636876821518 9544.9559788703918 92609.189143180847 30144.53918337822 8926.5212335586548 1883.7250654697418 5735.0231385231018 958.00151777267456 10174.540659666061 1315.4688658714294 2490.6943399906158 13701.482218265533 3880.9274322986603 4766.6659574508667 48149.535258889198 182882.14746463299 75213.97780585289 111.34610676765442 73999.640206813812 8070.9467496871948 5783.4552965164185 438.2180278301239 30159.524245500565 24006.370420694351 1404.5540134906769 30350.595875501633 17738.569265604019 79.039717197418213 50759.544038534164 110837.79290986061 45515.251599550247 3188.3335342407227 35723.007332086563 15942.651630163193 1869.1827013492584 8778.7297484874725 40740.41620016098 3261.0832641124725 973.6737744808197 1542.6312482357025 1179.0212750434875
leaf_count=124705 5878 1580 7687 62 5874 3408 18867 23 28 48 29 5509 3803 957 22166 61 1464 16 19229 39 170 207 508 11 13049 1199 19664 633 561 1774 683 1135 197 322 3558 4704 90837 337 149250 82512 213 5083 3504 2367 381 5890 15 8653 30 1165 45 201 3935 1513 1027 17 674 3956 191 967 43320 1014 8928 20 816 367 1142 3287 1133 2998 14923 10981 5190 1693 2836 2399 4810 13658 3119 671 4211 15 1470 5585 29126 864 4135 2199 41024 12044 3609 477 1794 82 2958 437 740 4397 944 1565 23747 91417 34461 29 34862 1628 2055 109 12238 9222 282 12488 7586 27 21869 51251 19246 736 14154 6225 861 3456 18268 1091 331 483 360
internal_value=0 0.0829087 -0.019265 0.176121 0.0617879 0.0041253 -0.0335117 0.162078 0.0461892 0.385193 0.0911081 -0.00329199 0.0218491 0.0382706 -0.00571399 0.0728416 -0.0251232 0.141294 0.0175701 0.109159 0.0344444 0.211546 0.15355 0.105363 -0.0421065 0.0717773 -0.0269445 0.0902892 0.148658 0.0255589 0.130484 0.0654315 0.196076 0.168841 0.0696679 0.0285541 -0.0221112 0.0386733 -0.0312375 -0.0388041 0.0612418 0.0745684 0.00280789 0.0520978 0.328049 -0.00131895 0.0674837 0.0727737 0.193668 0.128575 0.529574 0.104527 -0.0128683 0.110404 0.251626 0.305958 0.139846 0.0970896 0.121372 0.143155 -0.0156721 0.0848124 0.0434677 0.27067 0.0687458 0.103877 0.0250359 0.0183961 0.0620853 0.169692 -0.00539555 -0.00751593 0.0746155 0.135379 0.142004 0.0659876 0.0751644 -0.0397895 0.0965968 0.101722 0.111168 0.331625 0.109394 0.0560421 0.00572552 0.0229523 0.0206514 0.191355 -0.0028659 0.0386854 0.0355437 0.121212 0.114394 0.383651 0.120618 0.0735886 0.132057 0.0876462 0.158399 0.105237 -0.0406291 -0.0381849 -0.00643446 0.082112 -0.0241264 0.188072 0.0608469 0.221208 0.0325296 0.0395158 0.199476 0.0244658 0.016317 0.00913323 0.0144939 -0.016692 0.0193166 0.194276 0.0390062 0.0447978 0.00981555 0.0521786 -0.00937849 0.0981422 0.109971 0.0806142 0.0811741
internal_weight=0 517448 2.25557e+06 95588.5 421860 853796 1.40178e+06 89572.2 275363 6016.29 146496 601903 251893 210287 559362 72814 709403 63071.5 227212 73682.2 195879 26500.7 45155.7 69275.4 692372 65076.3 649444 14408.1 42111 135692 17162.3 54513.4 19120.5 4406.86 49569.9 42541.3 305499 27623.9 343946 448983 24680.5 14970.7 255282 16632.5 4310.33 154489 67422.7 51431.7 18905.6 17066.1 1705.96 10562.9 304081 17915.8 7380.14 1482.12 5391.35 52113 7008.82 4277.43 211785 24187.9 99985.4 226.35 49343.6 3592.09 95893.6 50843.4 27243.8 16296.6 59958.9 56594.4 16133.4 25814.3 20569.5 45751.5 23795.2 422250 51987.7 39020.3 23350.4 311.772 5244.79 21956.2 91520.3 4943.46 48274.9 18593.8 146246 43731.8 9871.83 12963.4 11079.7 1434.85 14395.1 16072.6 5076.83 15669.9 10270.4 8054.45 393994 231032 92295.8 4952.39 263299 17615.9 7399.28 3044.77 45050.3 76155.3 3907.01 40642.2 25433.8 100793 50838.6 202941 91960.1 3386.09 75672 39949 14917.5 13587.3 53636.7 9796.99 6535.9 2516.31 12967.4
internal_count=1242034 176341 1065693 22771 153570 375757 689936 22153 105557 618 48013 270789 104968 82670 253402 25356 340848 16810 95869 22657 77867 5343 11417 21560 349088 22887 313480 4803 10800 55749 4817 19582 4092 1097 17583 17387 145363 11017 168117 224383 9099 5296 112748 6313 525 68686 23881 18007 4069 4806 93 3305 140654 5393 1251 224 1475 16743 2115 1158 98506 8221 38699 48 17535 1183 39168 21052 9786 3841 27368 25904 5642 6959 5473 16352 8368 211334 16714 12398 7330 45 1486 7984 40120 1999 19910 4024 65182 17274 3946 3784 3307 144 4123 5627 1414 5068 2637 2579 197676 115164 42148 1609 125699 3827 2688 617 18116 29771 843 16623 10994 44062 21896 94571 38475 775 29601 15447 6370 5230 24158 3104 2013 814 4316
is_linear=0
shrinkage=0.1


Tree=3
num_leaves=128
num_cat=0
split_feature=1 8 1 8 8 1 1 16 1 1 1 8 23 8 8 2 8 1 1 1 17 8 1 8 2 2 22 3 5 2 19 1 2 23 1 2 13 2 10 2 28 8 8 2 8 3 18 3 1 2 23 8 17 8 2 1 2 8 1 2 1 5 2 27 17 24 27 10 2 20 8 10 24 8 17 2 2 18 10 8 2 1 2 3 2 8 15 2 2 9 22 8 3 1 1 17 27 17 2 24 8 10 24 24 2 8 13 2 17 25 19 1 2 2 1 17 17 2 23 17 20 18 2 2 22 23 17
split_gain=339998 74875.5 54958.3 18885.4 11998.6 8041.08 7327.88 6304.89 5016.06 3801.64 3702.37 3367.19 1660.56 1444.45 1331.25 1110 1103.69 1079.1 1073.82 1053.93 1049.81 1034.61 1010.3 983.497 931.234 859.832 778.456 775.271 739.166 718.577 707.13 699.755 617.035 582.993 581.229 580.692 536.157 505.596 498.178 492.971 479.89 469.141 462.76 455.893 463.35 446.871 443.438 434.122 427.365 559.312 426.041 436.155 711.429 412.535 396.414 391.02 346.075 342.178 326.175 323.382 392.41 307.952 303.092 290.286 289.738 287.756 287.701 283.789 281.207 275.655 275.514 274.913 270.801 268.142 263.895 261.807 255.501 250.26 246.23 261.806 258.132 242.808 605.612 242.734 241.845 238.559 235.724 235.362 233.968 217.089 216.753 214.164 213.285 212.62 210.95 208.753 205.845 202.152 201.759 196.425 195.84 195.156 194.342 194.331 187.894 186.832 186.241 184.852 181.68 177.94 177.627 176.93 308.018 176.656 175.994 172.531 168.515 166.222 164.82 164.549 161.632 160.557 160.497 160.165 158.96 158.089 156.143
threshold=2.3720703125000004 6.7851562500000009 1.1000976562500002 18.500000000000004 3.3564453125000004 1.5737304687500002 0.63989257812500011 79.000000000000014 5.8046875000000009 3.5537109375000004 3.9697265625000004 2.5000000000000004 1.0000000180025095e-35 1.3574218750000002 0.78564453125000011 0.79101562500000011 28.000000000000004 6.1855468750000009 3.6591796875000004 8.1328125000000018 1.8959960937500002 1.5000000000000002 0.38049316406250006 1.0712890625000002 0.79614257812500011 0.41101074218750006 0.75561523437500011 67.500000000000014 2017.5000000000002 0.43420410156250006 1.5000000000000002 3.2021484375000004 0.087066650390625014 136.50000000000003 0.86547851562500011 0.21881103515625003 0.33007812500000006 0.20318603515625003 1.5000000000000002 0.47839355468750006 2.0449218750000004 10.359375000000002 10.640625000000002 0.72583007812500011 3.3564453125000004 64.500000000000014 5.5000000000000009 56.500000000000007 0.87963867187500011 0.33264160156250006 1.0000000180025095e-35 0.78564453125000011 9.2387199401855479e-07 4.5000000000000009 0.33264160156250006 10.355468750000002 4.2832031250000009 2.2138671875000004 1.3139648437500002 0.78295898437500011 1.9213867187500002 2017.5000000000002 4.2832031250000009 0.24993896484375003 1.7250976562500002 1.0000000180025095e-35 0.32141113281250006 1.5000000000000002 1.5659179687500002 1.0000000180025095e-35 0.49987792968750006 2.5000000000000004 13.500000000000002 14.070312500000002 7.5625000000000009 1.6713867187500002 0.11941528320312501 1.0000000180025095e-35 1.5000000000000002 0.49987792968750006 0.29846191406250006 0.50708007812500011 0.17816162109375003 23.500000000000004 0.40856933593750006 2.0712890625000004 1.4790039062500002 0.63598632812500011 1.0815429687500002 3.4667968750000004 0.45507812500000006 5.0722656250000009 22.500000000000004 0.75610351562500011 1.2377929687500002 2.8242187500000004 0.10711669921875001 0.85815429687500011 1.4794921875000002 1.5000000000000002 1.5000000000000002 1.0000000180025095e-35 4.5000000000000009 1.5000000000000002 0.12799072265625003 0.78564453125000011 0.76879882812500011 8.6679687500000018 9.2226562500000018 1.8813476562500002 1.0000000180025095e-35 0.23992919921875003 0.044387817382812507 0.47277832031250006 2.9990234375000004 2.8164062500000004 0.77124023437500011 0.12585449218750003 20.500000000000004 6.8730468750000009 1.0000000180025095e-35 5.5000000000000009 0.14007568359375003 1.1059570312500002 0.38439941406250006 42.500000000000007 4.5429687500000009
decision_type=2 2 2 2 2 2 2 2 2 2 2 2 2 2 2 2 2 2 2 2 2 2 2 2 2 2 2 2 2 2 2 2 2 2 2 2 2 2 2 2 2 2 2 2 2 2 2 2 2 2 2 2 2 2 2 2 2 2 2 2 2 2 2 2 2 2 2 2 2 2 2 2 2 2 2 2 2 2 2 2 2 2 2 2 2 2 2 2 2 2 2 2 2 2 2 2 2 2 2 2 2 2 2 2 2 2 2 2 2 2 2 2 2 2 2 2 2 2 2 2 2 2 2 2 2 2 2
left_child=2 4 6 8 9 13 22 16 18 21 15 23 20 39 34 28 55 27 96 41 26 45 111 38 83 97 -12 36 86 94 40 88 -24 89 35 76 70 93 84 78 -21 121 46 64 -45 67 98 66 -39 -50 51 61 -53 -14 122 63 -32 -52 -41 116 -61 -38 75 102 -13 77 101 87 103 -40 -11 -18 106 -58 -48 -22 -8 110 -4 120 -81 104 117 -23 -7 -31 -6 -2 -17 -9 105 -90 124 -16 -15 -46 -3 -25 -20 -55 -29 -19 -5 -33 -34 -69 -44 -28 -100 -76 -26 -1 -113 -51 -92 -68 -27 -83 -108 -98 -80 -10 -36 -62 -71 -57 -93
right_child=1 3 5 7 10 11 14 33 19 17 12 43 53 29 37 31 71 47 42 30 62 24 32 25 65 59 107 100 -30 85 56 68 81 -35 54 -37 50 48 69 58 -42 -43 72 44 95 -47 74 -49 49 113 57 52 -54 99 -56 125 73 -59 -60 60 123 -63 -64 -65 -66 -67 115 90 -70 92 -72 -73 -74 -75 109 -77 -78 -79 79 80 -82 82 -84 -85 -86 -87 -88 -89 91 -91 114 126 -94 -95 -96 -97 119 -99 108 -101 -102 -103 -104 -105 -106 -107 118 -109 -110 -111 -112 112 -114 -115 -116 -117 -118 -119 -120 -121 -122 -123 -124 -125 -126 -127 -128
leaf_value=-0.05026134833590308 0.21056014998244854 0.093428789971259349 0.015005692630224913 0.3079904617345316 0.41134745888537155 0.12186515280937034 0.026032038397786852 0.2852863292148769 0.12979686839707399 0.088355576713134834 0.36893975214311148 0.09536170891991913 0.06471288614777608 0.015222691482608415 -0.0048818094708666902 0.087210963319810875 0.3031909372933459 0.24505137731319457 0.25491455039547628 0.19100500796406653 0.28901163703247063 0.18703466673126068 -0.015129514174240896 0.23691199116397696 0.059181354033304136 0.054514299755617501 0.14787365187276075 -0.0056943362238227055 0.08416680506569181 -0.0056065867684622246 0.27277753687388551 0.15409722286522359 -0.036166478226589083 0.43509076129849023 0.071337555548645626 -0.032538434445181709 0.07638001716520125 -0.024746485811719489 0.0031573365630754042 -0.017721433515539689 0.32148241451142839 0.13868769055639818 0.23045465490751682 0.018332219177086068 0.038825378641657443 -0.0014564703786105859 0.093705045580721194 0.061055861819258539 0.0059637972066449874 -0.01273112504852799 0.027724846698368773 0.11445671880352011 0.059184489115833377 0.095897877230396264 -0.025551009445658798 0.20949262901449706 0.13929017118202211 0.049643546513791992 -0.01072052533601655 0.0040523644879016194 0.02261909189563642 0.034428577398417606 0.12341102073723671 0.16989531613601944 0.041576197385195413 0.028053026213862183 0.06581250087851985 -0.015202014250703187 0.062036152815243079 -0.015665209050094941 0.27662992980481482 0.23601740747157424 0.099617981042554496 0.16470113326461988 0.027272579218054999 0.087279765579029361 -0.019675600638047266 0.030617420984356703 -0.0014213574223335169 0.055712184073123533 0.00050413477213450905 -0.013285561482359176 -0.038748972730232589 0.072021212354740835 0.01885156913065968 0.0030607082025072598 0.23042426716476427 0.039314179051857572 0.043126757748414395 0.36475922262700328 0.016698581583291398 0.06134558856626976 -0.012649272051927006 0.030919394479420794 0.048799597197724393 0.024396828718541937 0.070146549808525291 0.077687983818383224 0.11439458742717401 0.078896299453335442 0.030761296575542319 0.12454029136848072 0.2027345528890071 0.07408153206012455 -0.043231831956570849 0.023600481560480363 0.13464082147883902 0.23422068235133586 0.045103472306627895 0.086574679334416815 0.039166748013005036 -0.023267932946986387 -0.044986454165073478 -0.02095014626038922 0.028915758631532215 0.11587816716239754 0.020276347645129755 -0.028785118154208495 0.091192693654483806 0.030795288650203631 -0.022095697748250282 0.1090427387493903 -0.012690596333672539 0.011427117454395452 0.00021665325612260655 0.26837249911704514 0.037571881001000312
leaf_weight=64206.377363920212 81.423686504364014 3574.2350845336914 6859.9750270843506 193.75047254562378 103.25905418395996 233.8046350479126 1278.4555270671844 543.09623050689697 5616.2661187648773 156.68694519996643 200.25482439994812 1252.2065980434418 19464.959563016891 4612.5851664543152 5075.2964913845062 1446.1800463199615 1022.7068867683411 144.86612820625305 99.97823166847229 1174.2251288890839 65.014344215393066 466.47959899902344 12224.166533946991 194.05157494544983 7154.1827397346497 1616.7359521389008 1573.6854169368744 2886.1757719516754 394.39581656455994 86815.791258811951 232.92663192749023 558.25002384185791 57283.239212632179 978.03502464294434 229.45783233642578 249354.09334695339 2124.5466675758362 90207.707475423813 51959.235250711441 140248.91329944134 370.92958331108093 20152.060076236725 185.82980608940125 53351.176045417786 22860.72863650322 10850.307894468307 22311.236631393433 4489.4523019790649 10889.557599902153 42487.420059204102 11447.794183492661 2606.6013767719269 21844.056779623032 8488.9299862384796 161840.96092832088 3360.8380289077759 9803.741269826889 18850.04994559288 126640.85253596306 90640.624470949173 15972.316916704178 9920.172153711319 4534.0523755550385 7010.5724439620972 5003.5597076416016 82065.517651557922 1875.6381208896637 3355.5871579647064 47493.02246761322 7391.6478369235992 154.23277401924133 1507.0384035110474 3964.2931089401245 7204.1014461517334 1044.133974313736 6137.5192694664001 28178.316259980202 19534.741755247116 5946.9704823493958 905.82545232772827 13021.382126569748 8216.8773996829987 160863.20852029324 302.48914647102356 9026.8501014709473 50072.036023139954 237.99084663391113 5613.3839671611786 47573.102406263351 936.25638866424561 40675.785464286804 13079.690786361694 31254.898388147354 2464.3245364427567 3148.1752924919128 17862.280412912369 9263.2748169898987 135.35582852363586 12583.249122858047 34063.362838506699 3010.7643165588379 1856.0252141952515 1853.9003632068634 665.18900799751282 109761.97932326794 1969.0241177082062 6947.1071217060089 294.29520463943481 390.13273406028748 981.70702123641968 11662.927963495255 6866.0641956329346 133429.90494704247 68012.650664329529 16604.418898582458 1087.3412320613861 12970.549526453018 43809.194894194603 998.61424207687378 1200.3123712539673 10384.96526324749 11083.997355461121 24278.326009988785 64108.058595657349 42754.252486944199 527.58814239501953 3502.4502196311951
leaf_count=34671 24 1041 3012 21 14 85 580 37 1322 36 25 442 6277 2016 2447 477 76 25 21 213 13 107 6108 55 2638 646 402 1265 117 39504 35 160 29803 37 96 126085 740 44889 22832 66899 46 4162 40 21643 8798 4713 6058 1423 5034 20403 4278 815 7502 2405 79655 455 2020 6583 58716 39695 6689 3641 1173 1126 1961 31714 559 1453 15837 3344 31 151 973 1250 316 1846 13757 7545 2705 371 5941 4001 83208 103 3802 21841 46 2201 17229 43 16693 4366 14272 1095 1260 6965 2914 50 3328 10018 1149 482 264 217 57756 783 1626 50 113 263 4437 3570 71026 32868 6417 307 5526 22358 251 392 4888 2707 11486 27157 19103 59 1224
internal_value=0 0.0656548 -0.0189094 0.130715 0.0467814 0.000373675 -0.0321152 0.226388 0.116319 0.033726 0.0662254 0.0101693 0.0835411 -0.00898381 -0.0250526 0.0549646 0.202761 0.0517988 0.0971221 0.138243 0.116327 0.0262876 -0.0402151 0.00526906 0.0320953 0.0100668 0.181565 0.0476821 0.177408 -0.000757966 0.15752 0.0541766 -0.0372436 0.375187 -0.02808 -0.0309699 0.050737 -0.0186265 -0.000975769 -0.0128977 0.222327 0.128416 0.104044 0.026202 0.0244637 0.0173954 0.0985468 0.0835893 -0.0195332 -0.015659 0.0501272 0.0574041 0.0650769 0.0767718 -0.0237562 0.190957 0.151712 0.0413617 -0.0143995 0.00977986 0.00855875 0.0418283 0.10376 0.17957 0.0523424 0.0313948 0.103969 0.0203902 0.0632556 -0.0025332 0.18175 0.263174 0.121047 0.150054 0.0905673 0.0893943 -0.0176918 0.0385456 -0.00209992 -0.00597789 0.00409487 -0.0379551 -0.0357158 0.141792 0.0214524 -0.00243619 0.28517 0.0417626 0.0474345 0.335583 0.0184461 0.0465379 -0.00616555 0.00681981 0.0288433 0.0324966 0.0727098 0.171486 0.113401 0.082288 0.0129186 0.133265 0.212694 0.110592 -0.040809 -0.000852976 0.131495 0.161477 0.112311 0.0560099 0.0467762 -0.0459134 -0.0439236 -0.0177899 0.0202401 0.0841854 0.024071 -0.0263372 0.12918 0.0656324 -0.0145675 0.116022 -0.0119039 0.0136594 -0.00212438 0.217482 0.0563241
internal_weight=0 609782 2.1582e+06 137116 472666 877246 1.28096e+06 17933.8 119182 282791 189876 428588 74822.1 448657 684297 115054 15476.4 82454.4 63544.1 55638.2 12804.8 200336 596661 328258 121186 185638 2068.24 73001.1 735.646 144649 18785.9 114318 392159 2457.39 465160 278811 67104.1 219137 142621 304009 1545.15 36852.3 49506.3 100330 94074.2 79149.9 37410.4 9453.32 211597 121390 66793.2 36495.4 24450.7 62017.3 186349 12946.6 17240.8 30297.8 266890 185308 170721 12044.7 10736.6 9058.22 6255.77 120417 4963.87 68299.6 48716.5 133360 310.92 2529.75 12095.8 17007.8 24337.1 6202.53 29456.8 38351.9 37119.1 30259.1 13927.2 379934 212889 768.969 9260.65 136888 341.25 5694.81 65601.4 1479.35 62604.8 64155.2 81400.8 7539.62 7760.76 40723 14037.8 329.407 13073.4 42552.3 5896.94 2000.89 2047.65 1223.44 167045 5324.61 8131.55 1867.98 12973.4 2025.84 18817.1 204502 140296 110500 57280.2 2962.98 14587.3 52026.1 7945.72 10463.6 16331.9 16700.3 24507.8 80080.4 50145.9 3888.43 16582.1
internal_count=1242034 200920 1041114 31360 169560 390218 650896 2269 29091 107664 61896 183065 22209 207153 338395 39687 2152 28836 17336 11755 3509 78828 312501 143256 46544 79818 477 26040 177 64621 3564 39510 203234 117 231659 140422 23626 106736 63438 142532 259 8191 12989 39809 37406 32284 10099 2796 103194 58305 23559 12698 8317 18700 91237 1925 3305 10861 125615 79713 73541 4381 3032 1411 2403 46334 1373 27571 16214 59551 67 227 2890 3270 6637 1859 14337 14620 16917 13905 6312 197126 109567 210 3887 61345 60 2225 23296 80 25346 22819 36719 3542 3276 15763 4347 105 3462 12423 2414 507 285 377 87559 2236 1917 452 3441 579 7075 109267 74596 53271 23110 866 6172 26359 1877 3306 7593 4029 11582 33846 22447 514 5590
is_linear=0
shrinkage=0.1


Tree=4
num_leaves=128
num_cat=0
split_feature=1 1 1 1 1 0 1 1 0 0 16 23 16 0 16 1 13 3 13 20 1 3 1 20 20 1 17 0 17 0 0 20 0 3 0 2 17 2 0 0 3 6 16 18 3 0 16 1 0 0 0 3 2 20 5 0 2 17 0 0 3 5 0 0 2 3 2 0 0 20 3 0 0 26 27 0 3 27 2 3 6 14 20 5 3 3 27 3 3 0 1 10 0 2 0 0 0 6 1 26 0 0 7 19 0 3 0 0 3 17 3 0 6 17 13 24 5 5 0 0 0 20 2 3 1 2 11
split_gain=265689 53571.7 40656.2 10977.1 9373.23 6483.16 5431.09 5309.73 4574.42 4053.24 3814.17 3029.65 1805.24 1630.29 1332.69 1140.04 1033.94 928.533 912.01 871.564 865.231 835.83 819.039 817.798 813.534 798.627 772.02 673.498 669.887 608.888 600.713 600.152 598.137 639.464 584.28 563.687 529.911 586.76 523.312 522.712 631.102 513.762 504.273 497.848 481.076 474.551 471.499 471.492 468.633 641.477 461.019 495.68 458.107 432.081 442.081 431.531 430.358 419.541 537.919 897.507 502.359 419.035 415.514 502.936 410.225 408.59 398.71 380.965 380.578 441.943 378.417 345.773 345.492 563.205 344.164 415.816 364.345 341.795 332.96 332.117 409.969 325.116 318.08 315.683 314.036 312.491 303.908 381.711 300.72 452.564 297.536 291.675 291.175 283.724 279.151 417.183 276.317 275.716 275.625 272.911 271.682 505.863 260.946 260.029 255.379 254.9 253.194 539.658 252.99 353.95 252.514 248.914 248.102 243.073 242.792 434.908 242.143 280.466 246.211 241.836 233.76 246.237 236.661 233.593 233.58 419.18 232.203
threshold=2.2060546875000004 5.1191406250000009 1.0336914062500002 10.355468750000002 3.2021484375000004 353.00000000000006 1.5737304687500002 0.61987304687500011 350.50000000000006 345.00000000000006 10.500000000000002 63.500000000000007 3.5000000000000004 345.00000000000006 3.5000000000000004 6.9277343750000009 0.41650390625000006 51.500000000000007 0.33007812500000006 1.5000000000000002 1.5512695312500002 30.500000000000004 0.35681152343750006 1.5000000000000002 1.5000000000000002 8.1328125000000018 1.2631835937500002 83.000000000000014 2.6318359375000004 338.00000000000006 231.50000000000003 1.5000000000000002 112.50000000000001 56.500000000000007 4.0000000000000009 0.087066650390625014 1.4389648437500002 0.34802246093750006 5.5000000000000009 345.00000000000006 54.500000000000007 344.50000000000006 37.500000000000007 3.5000000000000004 56.500000000000007 112.50000000000001 138.50000000000003 0.83422851562500011 356.00000000000006 360.00000000000006 27.000000000000004 56.500000000000007 3.5683593750000004 1.5000000000000002 2019.5000000000002 353.00000000000006 0.42736816406250006 2.5957031250000004 110.00000000000001 226.00000000000003 56.500000000000007 2020.5000000000002 233.00000000000003 119.50000000000001 0.20941162109375003 22.500000000000004 0.31408691406250006 5.5000000000000009 228.00000000000003 1.5000000000000002 56.500000000000007 30.000000000000004 27.000000000000004 1.5000000000000002 1.0000000180025095e-35 119.50000000000001 56.500000000000007 0.17852783203125003 0.17266845703125003 22.500000000000004 338.50000000000006 3.1679687500000004 1.5000000000000002 2020.5000000000002 56.500000000000007 51.500000000000007 1.0000000180025095e-35 57.500000000000007 44.500000000000007 35.500000000000007 3.8818359375000004 1.5000000000000002 167.00000000000003 1.4887695312500002 226.00000000000003 133.50000000000003 356.00000000000006 280.50000000000006 0.82446289062500011 8.5000000000000018 233.00000000000003 118.00000000000001 2.3564453125000004 49.500000000000007 329.50000000000006 56.500000000000007 233.00000000000003 119.50000000000001 30.500000000000004 3.7763671875000004 56.500000000000007 331.00000000000006 156.00000000000003 5.8261718750000009 0.24212646484375003 1.0000000180025095e-35 2020.5000000000002 2019.5000000000002 114.00000000000001 158.00000000000003 329.50000000000006 1.0000000180025095e-35 0.49011230468750006 56.500000000000007 0.46520996093750006 0.16290283203125003 0.40075683593750006
decision_type=2 2 2 2 2 2 2 2 2 2 2 2 2 2 2 2 2 2 2 2 2 2 2 2 2 2 2 2 2 2 2 2 2 2 2 2 2 2 2 2 2 2 2 2 2 2 2 2 2 2 2 2 2 2 2 2 2 2 2 2 2 2 2 2 2 2 2 2 2 2 2 2 2 2 2 2 2 2 2 2 2 2 2 2 2 2 2 2 2 2 2 2 2 2 2 2 2 2 2 2 2 2 2 2 2 2 2 2 2 2 2 2 2 2 2 2 2 2 2 2 2 2 2 2 2 2 2
left_child=2 4 7 10 8 6 23 22 14 12 15 42 28 24 36 39 43 48 -19 70 56 38 -1 66 78 55 83 44 50 34 32 -22 88 -34 -25 -24 37 -2 -14 57 -41 99 108 -12 -17 -38 -13 -26 -11 81 51 93 -29 62 -55 100 -7 72 -59 60 -60 91 63 -28 -15 67 -4 -16 69 110 -10 -39 73 -3 75 -27 -77 -35 -9 80 -51 -50 -58 120 -65 -75 87 -54 89 -23 -30 -36 -40 -6 95 -67 124 112 -80 -21 101 -18 -32 -45 -70 -103 107 -68 109 -5 -47 -56 -33 119 115 -52 117 -116 -118 -88 121 122 -8 -97 -37 -126 -61
right_child=1 3 5 11 9 20 26 13 19 17 16 46 21 64 65 27 25 18 -20 41 31 30 35 29 47 74 53 52 90 -31 102 97 33 77 61 96 45 71 92 40 -42 -43 -44 103 -46 68 -48 -49 49 79 114 -53 86 54 111 -57 82 58 59 126 -62 -63 -64 84 -66 94 106 -69 104 -71 -72 -73 -74 85 -76 76 -78 -79 98 -81 -82 -83 -84 -85 -86 -87 113 -89 -90 -91 -92 -93 -94 -95 -96 123 -98 -99 -100 -101 -102 105 -104 -105 -106 -107 -108 -109 -110 -111 -112 -113 -114 -115 116 -117 118 -119 -120 -121 -122 -123 -124 -125 125 -127 -128
leaf_value=-0.043686109460775169 0.32064312114445714 0.25580722306556741 0.025989486157006553 0.28826547856387158 0.1657972071733842 0.054883492953841234 0.06301952235164153 0.0029902892568028816 0.059933083295617862 0.08887636048056477 0.34272930854181999 0.24057057438428703 0.15444232289163951 0.019347818417660426 0.11236420097087403 0.097574601403696337 0.089308090730934847 0.46587203027622631 0.046143542582179245 0.089733791551143416 0.026427847393314437 0.14335459093128342 -0.018156230712985538 0.033878274469003149 -0.031383179014659465 0.11098742310171089 0.0077187009356015669 0.23927858503919139 0.041337954391967004 0.0024702304770767981 0.0387292678995316 0.064887173779965363 0.067025459189410261 0.11833964135366484 -0.00039870947164998726 -0.040436883003395374 0.0126555544144644 0.029450129731435421 0.032465316253949779 0.13332801748604092 0.044839896403019767 0.06289265501665324 0.20572108530601618 0.13078925369702576 0.042401963360048645 0.038045541255162386 0.31860349968596197 -0.02451133981589948 0.1162788043771581 0.15874891712878364 0.041388482094651624 0.0073872807330135001 0.11009042015845404 -0.00094628580359468282 0.0096629649082028701 0.15997955889914642 -0.0020028687171860884 0.060524883243450601 0.091733206597434738 0.036166595020726201 0.13256683446138415 -0.009070097664650674 0.0054917061781185519 0.019919812447426896 -0.010584003884197559 0.031462460531273481 -0.011698974201805531 0.021828334285628238 0.017957821366616913 0.022359021650666541 0.0031645049212653004 0.010219028506370033 0.055354729459256652 0.10612853046361675 0.12470390434336601 0.13118820331588518 0.20976771469822789 0.084506042478148774 -0.025035320057309525 0.073634145692845723 0.073942341883386276 0.17948134125532225 0.024335854198195353 0.0082937417003439342 0.039550008286353938 0.030223445816302243 0.12163763103688624 0.18935572294153941 0.050421056116321854 0.058623570376013324 0.057248299995545752 -0.018634015309472722 0.051883292952468879 0.065147560051889444 0.029538806206294174 0.043862837438565998 -0.024224343568331894 0.045903884473578793 -0.0165769734420077 0.12933002702599875 0.09090230666062471 0.10778563649686677 0.060158522672616559 0.24317185682298167 0.036477939600032191 0.13444739034288694 -0.011534572330519402 0.0021615834328340424 0.1472882479718558 0.14727752957585602 0.063665633468161037 0.033701578623095828 0.10766456464405183 0.11845668619386505 0.033020015982509511 0.31386190106115214 0.011099739550340756 0.016761047996266647 0.04797159632568071 0.086072884637470135 0.011345911266197918 -0.0077290708432252685 0.0013042196595708544 0.065321236087675164 -0.027410391921210704 -0.037429347672712214 0.074554436089418849
leaf_weight=169427.84060490131 61.891921281814575 199.76996850967407 3867.5873785018921 316.74520349502563 293.9992208480835 3512.3447685241699 631.97654843330383 6091.6827719211578 6165.7318825721741 6574.3916788101196 234.00278615951538 1802.7899045944214 434.40168881416321 5051.6007902622223 473.40619540214539 3429.4462814331055 7670.5995223522186 52.533215045928955 3554.7807109355927 3510.8548605442047 7067.0692319869995 930.10647702217102 18218.698073983192 2392.6006262302399 226786.41421091557 1238.2375807762146 24469.426043272018 268.1314845085144 22407.905783176422 20532.788440108299 9040.7765593528748 5364.6681840419769 15883.584443807602 4749.0006604194641 9148.5996854305267 117588.4580694437 31497.229998350143 10688.715048074722 13066.864350557327 3083.0516836643219 1091.2778475284576 3613.2590355873108 2213.7306036949158 490.96553564071655 2931.1732585430145 15648.855444669724 1357.3180484771729 178379.25264215469 1268.0724101066589 1500.9945845603943 190.8344738483429 1593.2580075263977 1632.1141591072083 59461.314011573792 37331.289944410324 1414.799533367157 6237.016809463501 11339.736498594284 9284.4388871192932 1759.8027539253235 4460.228991985321 71294.896303415298 36958.740133285522 25754.91649389267 48926.47803580761 15267.202268838882 48494.665553331375 25493.742924213409 41203.862422704697 16347.30201292038 1450.4664940834045 74613.108410358429 15703.67905664444 1652.5003736019135 14217.71875667572 920.56625080108643 1643.4809422492981 8042.4016053676605 77790.389708638191 2327.4920737743378 919.04153656959534 2272.4270422458649 17311.32781457901 33331.465149879456 11921.843888998032 807.3546998500824 2458.1588957309723 967.77079844474792 13738.151744604111 1956.0787107944489 24721.047349691391 212791.220012784 18880.120112895966 5912.6146354675293 21304.797388315201 11567.010847330093 18322.930248737335 5474.304032087326 76325.580787301064 3452.2776093482971 11192.869398117065 7168.4460420608521 15297.458675384521 354.57423639297485 9087.7365672588348 7174.9864737987518 63490.747750997543 66761.90465760231 8106.5373868942261 406.69969081878662 5101.0237412452698 4869.4186868667603 1814.3665702342987 6402.8497776985168 31157.652057170868 84.527085304260254 2133.0316417217255 16087.43551492691 11995.251324415207 8604.995361328125 10702.908067941666 68511.500115394592 36978.613704681396 9035.9332468509674 55649.36924302578 167308.2021740675 15064.21230173111
leaf_count=94256 13 42 1676 22 87 1322 247 2939 1981 1700 20 98 112 2275 145 723 1679 3 1117 949 2706 250 9427 1056 118164 223 10340 30 7668 9338 2888 1789 4594 1151 4134 64142 12320 4227 4248 582 332 1049 178 66 791 5811 43 89815 290 281 49 604 335 25760 15953 221 2689 3042 2328 497 979 33773 15591 10536 23543 5548 22796 9616 16009 6385 546 30593 4751 417 2234 140 180 2135 40062 566 197 466 7033 14642 4635 269 551 180 4245 582 7636 102345 6029 1949 7749 4050 9457 1904 37894 843 2409 1486 4589 22 3388 1271 29726 30653 1226 41 1751 1951 534 1208 11140 15 804 5984 4264 2003 4606 30943 16184 2877 29306 89880 3900
internal_value=0 0.0528214 -0.0184145 0.103855 0.037862 -0.00240285 -0.00439823 -0.0307265 0.0262861 0.0527836 0.0956295 0.187749 0.0489828 -0.0243872 0.0232078 0.0831717 0.116765 0.0977675 0.052256 0.0749148 0.0338398 0.0586971 -0.0379107 -0.0111043 -0.0259725 0.114778 0.00513318 0.100549 0.0404816 -0.0141817 0.0648694 0.0497708 0.0716772 0.0804266 -0.0153382 -0.0353158 0.0188631 0.0128521 0.0454234 0.0759736 0.110195 0.0934887 0.163044 0.213642 0.0721493 0.0231792 0.274087 -0.0283578 0.108814 0.124629 0.034237 0.0571428 0.109433 0.00918952 0.0046091 0.105892 0.0222302 0.0736035 0.0791262 0.0860266 0.104984 -0.0157398 0.0138881 0.0188815 -0.0077828 0.0338811 -0.00577635 0.0234789 0.0269723 0.034656 0.0491218 0.0126288 0.0609996 0.0943295 0.131851 0.158575 0.181555 0.0970673 -0.01994 0.100604 0.126542 0.156845 0.0173598 -0.000290353 0.0261313 0.0812155 0.107698 0.139596 0.0565857 0.0859291 0.0496836 -0.0178823 0.043941 0.0699152 0.0386054 0.0439905 -0.036187 0.0628082 -0.0208463 0.109365 0.103587 0.110037 0.0521983 0.177917 0.0213044 0.121123 -0.00646368 -0.0036703 0.152345 0.209006 0.0443438 0.0124367 0.0756984 0.10295 0.0313389 0.125029 0.0309186 0.0274837 0.0424048 0.0939751 -0.00273949 -0.00416007 0.00234123 0.053274 -0.0368306 -0.0349287 0.070539
internal_weight=0 701716 2.06235e+06 159066 542651 896480 849698 1.16587e+06 305584 237066 144862 14203.8 218597 619351 287392 91140.7 53721.2 18469.7 3607.31 18192.6 46781.1 102019 546515 498775 565373 52641.7 350923 26694.6 116578 316160 69637.6 19720.4 45299.3 28675 295627 377088 204250 85363.7 32381.4 64446.1 4174.33 10576.4 11043.7 1079.54 6360.62 118886 3160.11 405166 14862.4 8288.03 69448.6 7799.87 20334 200767 101662 34621.7 27060.7 60271.7 41908.4 30568.7 13744.7 293235 99104.9 62146.2 53978.1 83142.1 182615 25967.1 87388.8 37097.2 7616.2 85301.8 18363.3 2659.63 18020 3802.28 2564.05 12791.4 160208 4747.53 2420.04 3540.5 23548.3 150156 37676.8 2459.86 20065.9 2599.88 16624.3 2886.19 47129 221940 31947 6206.61 57174.9 35870.1 358869 12653.3 154116 6963.13 33206.9 22014 24338.2 845.54 50291.6 14343.4 178747 115257 8829.98 723.445 20749.9 42200.7 7179.03 17466 61648.7 275.362 61373.4 47245.1 14128.3 11063.2 116825 106122 37610.6 20602.9 340546 222958 16824
internal_count=1242034 226012 1016022 34519 191493 404862 386885 611160 115850 75643 32911 1608 71023 314692 110482 22960 9951 4620 1120 5368 17977 30823 296468 235497 288874 9843 151388 5821 40200 150646 20434 6933 12957 7880 141308 202212 80497 34833 10389 17139 914 2841 1467 108 1514 45664 141 207979 3500 1800 24896 2640 4307 84766 43664 7066 11044 16225 10746 7704 3307 140252 41102 25511 25818 29985 84851 9761 33344 13947 2527 34820 5479 728 2777 543 320 3286 80895 1044 478 756 9722 66622 15171 686 4277 515 5077 832 15304 106479 10277 2036 20224 12475 192785 4227 77956 1792 6845 4436 7477 88 19397 2757 83175 53449 1289 63 7562 17904 2323 3762 22256 64 22192 17124 5068 2554 51980 47374 16431 6927 183328 119186 4397
is_linear=0
shrinkage=0.1


Tree=5
num_leaves=128
num_cat=0
split_feature=1 8 1 8 8 0 1 1 0 1 16 1 1 0 8 0 19 0 1 8 13 1 2 1 3 3 0 3 1 0 2 18 8 2 3 2 1 3 2 19 18 22 19 3 0 0 0 2 8 2 10 10 3 10 0 0 0 22 8 17 0 0 3 0 1 2 1 0 13 2 0 0 0 2 2 2 0 0 11 0 14 29 13 0 0 8 17 25 3 7 5 0 5 0 0 0 24 22 3 1 2 24 8 13 18 0 0 3 6 5 24 22 2 5 2 0 8 18 1 0 3 5 3 26 2 8 0
split_gain=209638 44800.8 30701.9 8760.71 7155.08 4980.15 4034.02 3956.53 2567.46 2516.38 2509.46 2368.35 2269.58 2098.11 1372.86 1246.02 985.515 978.88 916.906 835.375 796.288 635.652 616.228 705.453 612.714 564.442 562.121 640.279 614.485 519.638 505.481 498.627 488.177 456.127 447.262 443.335 431.56 425.058 423.719 416.707 415.715 470.117 407.899 405.941 433.952 387.18 389.134 375.319 373.205 370.832 369.683 347.464 343.926 342.094 328.307 574.323 319.779 381.292 308.542 410.42 306.674 700.176 357.223 438.807 299.931 312.067 296.54 289.738 286.42 283.591 425.992 280.104 274.821 263.551 262.435 261.773 258.974 366.352 256.018 254.445 382.414 302.509 252.898 248.891 247.836 242.383 238.035 236.003 234.126 233.016 231.015 229.11 228.055 225.654 221.766 245.259 220.89 219.188 217.506 216.52 409.651 207.24 207.123 206.718 203.351 201.664 331.384 334.734 201.235 200.888 197.171 196.437 192.61 192.349 191.43 188.708 188.328 186.132 186.011 182.421 181.944 181.209 180.858 176.686 176.129 175.617 171.323
threshold=2.0830078125000004 5.9277343750000009 0.98461914062500011 15.785156250000002 2.9287109375000004 345.00000000000006 1.4467773437500002 0.59204101562500011 343.50000000000006 5.3554687500000009 53.500000000000007 3.2294921875000004 3.7412109375000004 345.00000000000006 1.6425781250000002 353.00000000000006 1.0000000180025095e-35 331.00000000000006 1.3608398437500002 1.2143554687500002 2.9951171875000004 0.34411621093750006 0.18658447265625003 0.73999023437500011 30.500000000000004 26.500000000000004 345.00000000000006 51.500000000000007 8.1328125000000018 98.500000000000014 0.085357666015625014 125.00000000000001 1.6425781250000002 0.49902343750000006 67.500000000000014 0.32189941406250006 9.2812500000000018 22.500000000000004 0.37365722656250006 1.0000000180025095e-35 1.0000000180025095e-35 0.72583007812500011 1.0000000180025095e-35 25.500000000000004 5.5000000000000009 224.50000000000003 112.50000000000001 0.18817138671875003 3.0712890625000004 0.34436035156250006 1.5000000000000002 1.5000000000000002 24.500000000000004 1.5000000000000002 231.50000000000003 112.50000000000001 23.000000000000004 0.37609863281250006 0.49987792968750006 0.43298339843750006 112.50000000000001 226.00000000000003 56.500000000000007 219.00000000000003 3.5908203125000004 1.5800781250000002 3.3505859375000004 16.000000000000004 0.33007812500000006 4.8437500000000009 258.00000000000006 349.00000000000006 189.50000000000003 0.67456054687500011 0.65551757812500011 0.10470581054687501 5.5000000000000009 91.500000000000014 0.36621093750000006 233.00000000000003 7.4726562500000009 7.5097656250000009 0.12689208984375003 35.500000000000007 282.00000000000006 0.92846679687500011 0.43298339843750006 1.5434570312500002 65.500000000000014 9.1406250000000018 2020.5000000000002 353.00000000000006 2020.5000000000002 329.50000000000006 5.5000000000000009 6.5000000000000009 1.0000000180025095e-35 0.38439941406250006 24.500000000000004 0.43737792968750006 0.14520263671875003 1.0000000180025095e-35 0.78564453125000011 5.7578125000000009 1.0000000180025095e-35 83.000000000000014 228.00000000000003 56.500000000000007 298.50000000000006 2018.5000000000002 1.0000000180025095e-35 0.38439941406250006 0.25598144531250006 2020.5000000000002 0.054428100585937507 329.50000000000006 9.2148437500000018 1.0000000180025095e-35 0.86547851562500011 363.00000000000006 27.500000000000004 2018.5000000000002 56.500000000000007 5.5000000000000009 0.36486816406250006 1.5000000000000002 235.00000000000003
decision_type=2 2 2 2 2 2 2 2 2 2 2 2 2 2 2 2 2 2 2 2 2 2 2 2 2 2 2 2 2 2 2 2 2 2 2 2 2 2 2 2 2 2 2 2 2 2 2 2 2 2 2 2 2 2 2 2 2 2 2 2 2 2 2 2 2 2 2 2 2 2 2 2 2 2 2 2 2 2 2 2 2 2 2 2 2 2 2 2 2 2 2 2 2 2 2 2 2 2 2 2 2 2 2 2 2 2 2 2 2 2 2 2 2 2 2 2 2 2 2 2 2 2 2 2 2 2 2
left_child=2 4 7 9 11 6 19 21 12 17 29 13 43 32 50 22 40 24 49 53 34 -1 75 112 76 66 28 103 60 94 114 -12 51 85 42 102 71 -15 -21 89 41 83 58 44 111 46 101 -17 74 -7 -8 -2 91 124 55 110 122 -58 109 68 117 62 63 -62 -48 -66 97 -22 -60 70 72 104 -41 -34 -16 -9 -3 -78 -63 80 113 84 -61 -14 -81 -20 -27 -55 -59 -30 -52 -35 98 -46 -5 -96 -18 -10 -75 -32 -101 -26 -25 -28 -31 -98 107 -107 -39 -13 -45 -6 -24 -38 -23 -69 -80 -11 -37 -93 -51 123 -53 -119 -4 -54 -100
right_child=1 3 5 10 8 18 14 15 25 26 31 20 16 37 48 47 96 -19 33 38 67 30 23 35 45 86 27 -29 39 36 99 -33 73 52 -36 118 79 108 -40 69 -42 -43 -44 54 93 -47 64 -49 -50 120 90 56 125 87 -56 -57 57 88 59 82 61 78 -64 -65 65 -67 -68 115 -70 -71 -72 -73 -74 92 -76 -77 77 -79 116 81 -82 -83 -84 -85 -86 -87 -88 -89 -90 -91 -92 119 -94 -95 95 -97 105 -99 126 100 -102 -103 -104 -105 -106 106 -108 -109 -110 -111 -112 -113 -114 -115 -116 -117 -118 121 -120 -121 -122 -123 -124 -125 -126 -127 -128
leaf_value=-0.041259456860356432 0.026880906768898441 0.10565053342416275 0.017980230321938868 0.18653102722641801 0.24521600351993422 0.045157623351754411 0.01300412553268491 0.033723831019142572 0.13215029772304648 0.099335393883683704 0.17238067702034374 0.046757306941475008 0.31873018666816633 0.065644450022578335 0.026315913287588047 0.030318388868355563 0.058670798146761349 0.091949086837233712 0.03891660024784252 0.017788180866804223 0.084440782369268649 0.013278798925364162 -0.026049801432590027 -0.019424528851489486 0.086906069280516043 0.19148104137614108 0.12829201886662486 0.057925044324251135 0.13309145260705482 0.22541002671269875 -0.038362634655959245 0.23679321040615933 0.10450237980580884 0.022079315216384704 0.0055372186363539435 -0.027598209619516159 0.10904846289667745 0.046573004186664733 -0.0076590125452054838 0.15537009822474274 0.061184574811168194 0.089611221862354803 0.023083597195369433 0.045011831922095853 0.021126393564128015 0.051956232534239137 0.062343375508458254 -0.0081374739472005967 0.017437175426391279 0.013812525305850566 -0.0064104391904957802 0.030593189485620748 0.0085901005928832042 -0.018134863941869656 0.027505430811631093 0.047780687809156244 -0.020187021817706614 0.0083241173886943794 0.2426745708996271 0.28845121716971228 0.082127063572887127 0.03312245227404096 0.11484295467321044 0.14944091146369481 0.25480544290273616 0.083946529081188381 0.11218918791654464 0.043443895474120441 0.064242886530027979 0.094125984279595162 0.032826980546021185 0.17056346737594374 0.31626453506732866 0.0087938214244093933 0.004676491038618699 -0.012501864020446188 0.024351155822608356 0.053624803204858323 0.06487636744098392 0.11173585227164121 0.1788805084564252 0.092909245098520568 0.03687877265682693 0.13604756481904956 0.16550457596619988 0.097440420395538851 0.058326321233961101 -0.011570051832261542 -0.006052222615154799 0.23470425551984084 0.0013921988029427961 0.054073317035414376 0.026016366554067721 0.050400191733880363 -0.046451668583025053 0.086070525279335383 0.030043629194292473 0.072364646759988716 0.023894725443396516 -0.024676335022867715 -0.035010376865335181 0.050199603305613676 -0.0080516563833078116 0.20268571980515804 0.10786076664026577 0.049697149563654994 0.038846475794655 0.080419535883254789 0.016663909755022532 0.016473434737321373 0.02154836943376421 0.08313856113137473 -0.032542349268106702 0.18627997450225217 -0.021189738931702007 0.081300395457331281 0.084080686475024008 0.050778506576320062 -0.022153783709570288 0.027650674099216562 -0.0013595582736480442 0.044298665217504259 -0.0019394787120112105 0.082386759492316608 -0.0074155789068281984 0.027458023966409357 0.01154995989145783
leaf_weight=149312.82009530067 9071.6913418769836 636.35389685630798 3834.3740051984787 210.45436382293701 85.706984996795654 2550.5609253644943 12525.199914216995 1283.1428956985474 677.70672535896301 1560.8868250846863 3653.1675877571106 2922.8147339820862 134.57125878334045 7936.8421409130096 5905.0044300556183 2764.1347458362579 14116.663888692856 10308.633952856064 1362.8498754501343 6889.4925389289856 2225.0388712882996 1761.939578294754 70888.495621562004 53406.964300632477 1796.3777086734772 135.63889288902283 4304.059522151947 1409.2960453033447 1389.1664223670959 148.95684003829956 96255.755167603493 1791.0082836151123 346.01418685913086 6252.0313310623169 7649.5317595005035 118551.95548224449 1724.9518308639526 5395.2971289157867 130222.49241495132 296.14036536216736 7761.9806694984436 6037.7354617118835 35480.767936944962 4616.571300983429 43952.140680789948 17536.071633577347 8987.4706058502197 31009.11536693573 35966.935482263565 14481.329087734222 169332.15626513958 7873.9731171131134 9301.5876007080078 218856.92988574505 32649.421552419662 35702.470486164093 5744.0007255077362 82179.321060180664 91.395468711853027 40.029442310333252 11891.854509592056 1564.7683980464935 7669.5660841464996 1054.2792589664459 107.60342955589294 16319.414322853088 3959.2039589881897 17498.7284116745 5735.9689114093781 15093.952829122543 183.20908784866333 793.43290519714355 165.48600387573242 35851.587589502335 110097.27942228317 27064.207754611969 7656.4849514961243 9680.0683622360229 9604.7047691345215 1502.2903070449829 3020.7332010269165 1906.79647397995 22868.078905582428 167.28990459442139 1996.5045390129089 1472.0818312168121 13152.826484918594 73035.873717665672 13139.13808465004 269.45225048065186 48903.936140060425 8217.6492750644684 22507.203989744186 2801.0213022232056 145.03821563720703 3760.6316123008728 8077.4095616340637 6445.3991606235504 29047.606197595596 49572.941414237022 169582.9290612936 10698.482951402664 22871.28725194931 409.00805997848511 12239.420683145523 16637.378039360046 22694.780526161194 4507.156920671463 3858.2465624809265 8741.7975602149963 15973.164994955063 586.46914911270142 128557.23482131958 396.62816143035889 18839.954110741615 1423.9208464622498 10903.189774751663 2734.7744121551514 133326.50316655636 3831.0255267620087 17402.276962041855 3693.9662878513336 2182.4764604568481 5005.1354064941406 9489.441770195961 10503.653277158737 18340.385339260101
leaf_count=86274 3562 159 1707 29 21 992 5315 582 113 308 214 968 15 2281 2450 1224 3917 2224 486 3036 584 885 37838 27402 467 22 632 286 204 14 54451 50 117 2508 3036 62762 203 1846 61152 44 2183 1439 12216 1562 15840 4803 2458 14891 14283 6169 77468 3092 3825 108322 11432 11578 2568 33775 15 4 2414 361 1327 199 20 3714 820 5456 1776 2542 33 86 16 14133 47180 13693 2370 2718 2221 171 270 232 7660 31 204 429 3631 35425 5776 26 22002 2732 8605 965 23 569 2408 1700 11026 26783 93970 2981 11443 54 1742 4790 6693 1193 1445 3083 5657 178 69662 39 10081 403 2143 611 68444 1308 7760 834 923 1064 4452 3891 7140
internal_value=0 0.0433473 -0.0177339 0.0847316 0.0295611 -0.00411209 -0.00635994 -0.0291431 0.0428116 0.0751804 0.131477 0.0203936 0.0393477 0.0149855 0.0011572 -0.0236397 0.052704 0.0630932 0.0204929 -0.0128642 0.0329723 -0.0358304 -0.0247726 -0.0255443 0.0590416 0.0735835 0.0879581 0.117064 0.0855197 0.119337 -0.0334179 0.193571 0.0124269 0.0306079 0.0285838 -0.0226936 0.125027 0.0486655 -0.00638036 0.101925 0.0767016 0.0957001 0.0309072 0.031499 0.0240272 0.0642428 0.0699263 -0.0049901 0.00853743 0.00846664 -0.00370309 0.00806309 0.0277289 -0.015777 0.0354831 0.0401101 0.00652681 0.00483459 0.0377781 0.043346 0.0803942 0.0844887 0.0977406 0.0876088 0.0770303 0.0850657 0.0902482 0.0503063 0.0670414 0.0969005 0.161844 0.112963 0.213048 0.0173707 0.00577803 -0.0104095 0.0429962 0.0406964 0.0721116 0.140102 0.156027 0.124954 0.0373184 0.217488 0.142418 0.069306 0.0596855 -0.0164923 0.00634242 0.149599 -0.00466197 0.037612 0.0170856 0.0228802 0.0865374 0.0811493 0.0475792 0.0780528 0.0146708 -0.0344092 -0.0326728 0.0554769 -0.0160145 0.134748 0.109274 0.0445633 0.0472386 0.0562459 0.0341025 0.0240617 0.0268093 0.103805 -0.0302347 0.123487 -0.0182419 0.0462926 0.0750865 0.0669434 -0.0247163 0.0456719 0.0055315 0.0625214 0.0235329 0.0712185 -0.000107085 0.0185967 0.019117
internal_weight=0 785244 1.97548e+06 196220 589025 900434 825059 1.07505e+06 240873 162930 33290 348152 216502 243474 382731 589723 80135 83727 75375 442329 104678 485326 555950 527602 73418.3 24370.8 79202.9 6122.36 73080.5 27845.8 336014 5444.18 226283 40940.9 83530.4 328157 23729.7 17190.4 137112 17397.4 14101.6 6339.6 75880.9 136367 47425.3 55445.4 37909.3 33773.3 151969 34434.2 230761 120191 38105.9 305217 88941.6 56292.2 111119 101062 40400.1 28735.5 55683.1 42688.4 20615.7 12946.1 25414.5 16427 11082.3 21147.7 5827.36 15738.8 644.835 13181.8 461.626 106093 116002 28347.4 17972.9 17336.6 22072.7 10547.9 5142.31 5405.59 22908.1 301.861 3498.79 2834.93 13288.5 291893 95318.5 1658.62 218236 18300.7 105747 46753.2 4116.12 3905.67 66033.4 7123.11 83239.6 315412 219156 12494.9 76278.3 4713.07 12388.4 51916.7 43839.3 21144.5 9253.54 11664.6 20589.7 672.176 199446 2121.58 20601.9 18922.6 20507.9 12994.8 251878 12048.7 31883.6 11433.9 10056.4 7739.91 13323.8 19805.2 47388
internal_count=1242034 248757 993277 41079 207678 412892 382792 580385 76188 37233 3846 131490 69902 96289 168698 307941 22669 21914 30100 214094 35201 272444 291826 277551 19690 6286 15319 972 14347 3582 186170 264 90717 15179 28758 170051 2961 5572 64188 2865 3668 1485 25722 47233 17004 14443 9640 16115 63913 14921 104785 49696 14264 149906 30229 18797 46134 42119 13506 9455 11482 8665 3940 2613 6192 3734 2633 6443 1791 2635 93 1842 60 41021 49630 14275 5247 5088 4725 1119 512 607 7664 46 375 915 3653 143747 39551 230 99470 6548 40904 16805 621 592 19001 1813 32299 175204 120753 3448 38845 686 1756 15084 12676 5983 3291 4051 7219 199 107500 242 10966 5859 4364 2817 131206 4040 13929 2509 4015 1675 6159 7716 18166
is_linear=0
shrinkage=0.1


Tree=6
num_leaves=128
num_cat=0
split_feature=1 1 1 1 0 1 0 1 1 3 16 0 11 16 19 17 20 20 6 6 0 3 0 6 17 1 20 0 20 2 2 0 6 0 0 20 17 1 0 0 2 0 3 0 20 0 0 3 25 0 2 3 1 0 2 0 2 5 0 0 3 5 2 0 2 16 3 3 10 3 3 0 13 0 0 17 0 0 0 1 5 20 0 0 11 0 0 1 0 6 2 0 0 22 2 13 1 10 2 0 2 1 26 26 20 0 2 3 14 27 13 10 6 23 0 0 1 2 13 1 2 2 11 2 3 1 2
split_gain=166360 32372.4 24104.6 6423.74 4997.28 4250.26 3908.18 3342.64 3065.82 2423.57 1454.35 991.943 833.921 771.091 769.786 760.763 664.845 641.049 623.34 585.079 584.762 589.955 577.106 554.477 486.384 485.277 471.095 463.541 442.68 498.351 438.517 418.772 396.79 500.931 390.295 383.791 375.939 374.69 367.248 364.849 422.412 356.434 459.334 507.362 328.355 327.51 456.728 339.168 326.518 325.949 322.998 310.692 303.775 297.729 295.701 293.469 463.841 290.314 288.416 542.633 331.025 286.468 281.167 280.452 276.317 273.987 265.949 261.345 259.754 254.747 251.008 545.101 505.467 327.813 638.939 266.528 249.876 313.614 248.258 245.669 243.636 239.652 251.045 243.074 239.452 236.012 232.009 228.329 227.323 236.162 226.432 225.812 224.015 219.713 218.223 217.396 216.212 208.932 208.848 208.725 201.149 203.001 200.25 200.227 198.169 204.074 197.959 191.375 190.003 189.582 188.795 187.459 186.997 186.727 185.31 184.483 183.247 180.581 180.417 180.19 339.455 178.418 177.298 174.011 172.164 170.518 190.527
threshold=2.0107421875000004 4.4550781250000009 0.95043945312500011 8.1328125000000018 345.00000000000006 2.9990234375000004 353.00000000000006 1.4223632812500002 0.55834960937500011 8.5000000000000018 7.5000000000000009 345.00000000000006 0.37817382812500006 3.5000000000000004 20.500000000000004 2.2197265625000004 1.5000000000000002 1.5000000000000002 280.50000000000006 156.00000000000003 349.00000000000006 51.500000000000007 353.00000000000006 254.50000000000003 1.2631835937500002 0.28967285156250006 1.5000000000000002 338.00000000000006 1.0000000180025095e-35 0.42590332031250006 0.062377929687500007 4.0000000000000009 182.50000000000003 364.50000000000006 324.00000000000006 1.5000000000000002 2.9765625000000004 5.8046875000000009 91.500000000000014 4.0000000000000009 0.72241210937500011 226.00000000000003 56.500000000000007 338.00000000000006 1.5000000000000002 91.500000000000014 238.50000000000003 64.500000000000014 1.7314453125000002 360.00000000000006 0.33996582031250006 51.500000000000007 0.76928710937500011 280.50000000000006 0.14007568359375003 37.000000000000007 1.4506835937500002 2020.5000000000002 233.00000000000003 105.50000000000001 56.500000000000007 2020.5000000000002 0.16888427734375003 324.00000000000006 0.91772460937500011 2.5000000000000004 30.500000000000004 56.500000000000007 15.500000000000002 56.500000000000007 51.500000000000007 41.000000000000007 1.1538085937500002 84.500000000000014 161.50000000000003 1.2814998626708986e-06 233.00000000000003 135.00000000000003 350.50000000000006 4.1894531250000009 2020.5000000000002 1.5000000000000002 233.00000000000003 5.5000000000000009 0.40075683593750006 98.500000000000014 4.0000000000000009 1.4155273437500002 5.5000000000000009 280.50000000000006 0.19390869140625003 360.00000000000006 233.00000000000003 0.60131835937500011 2.4042968750000004 0.76879882812500011 1.1811523437500002 1.5000000000000002 0.32189941406250006 360.00000000000006 0.74731445312500011 2.5791015625000004 1.5000000000000002 6.5000000000000009 1.0000000180025095e-35 340.00000000000006 0.57788085937500011 56.500000000000007 2.0039062500000004 0.96435546875000011 4.8671875000000009 1.5000000000000002 293.50000000000006 1.0000000180025095e-35 356.00000000000006 363.00000000000006 0.72387695312500011 0.41491699218750006 1.2758789062500002 0.41662597656250006 0.12585449218750003 0.35681152343750006 0.40075683593750006 0.65551757812500011 56.500000000000007 0.73022460937500011 0.23907470703125003
decision_type=2 2 2 2 2 2 2 2 2 2 2 2 2 2 2 2 2 2 2 2 2 2 2 2 2 2 2 2 2 2 2 2 2 2 2 2 2 2 2 2 2 2 2 2 2 2 2 2 2 2 2 2 2 2 2 2 2 2 2 2 2 2 2 2 2 2 2 2 2 2 2 2 2 2 2 2 2 2 2 2 2 2 2 2 2 2 2 2 2 2 2 2 2 2 2 2 2 2 2 2 2 2 2 2 2 2 2 2 2 2 2 2 2 2 2 2 2 2 2 2 2 2 2 2 2 2 2
left_child=2 4 8 10 5 13 7 16 25 53 20 17 93 28 38 55 50 54 19 87 36 94 -14 35 80 -1 58 37 29 -2 -27 117 33 -21 61 99 70 66 69 -30 -41 48 43 -43 76 -38 51 122 -40 -25 -4 -47 90 -5 -10 56 79 111 59 64 -61 97 -13 86 -17 -57 -12 -58 -37 -11 71 72 75 110 103 -3 77 121 119 -7 104 82 85 -83 -60 -15 -46 -8 -28 -90 -19 -20 95 -6 -22 -68 -52 -33 -54 114 -31 -102 -74 -75 123 -106 -98 -87 -23 -53 -72 -42 -29 -45 -24 -114 -64 -18 -96 -32 -121 -26 -48 -9 -79 -56 -127
right_child=1 3 6 9 12 15 18 24 11 14 27 62 22 81 -16 26 31 52 91 32 21 108 23 49 44 30 88 112 39 100 78 34 -34 -35 -36 68 45 -39 41 40 57 42 -44 113 63 46 47 -49 -50 -51 96 109 98 -55 125 65 67 -59 84 60 -62 -63 116 -65 -66 -67 92 -69 -70 -71 73 -73 102 74 -76 -77 -78 124 -80 -81 -82 83 -84 -85 -86 107 -88 -89 89 -91 -92 -93 -94 -95 118 -97 106 -99 -100 -101 101 -103 -104 -105 105 -107 -108 -109 -110 -111 -112 -113 115 -115 -116 -117 -118 -119 -120 120 -122 -123 -124 -125 -126 126 -128
leaf_value=-0.040248446762263107 0.19472447050347999 0.060613328705313878 0.0094317658551857884 0.14635491659158073 0.041739291479954324 0.09673417635722964 0.014634182850421599 0.014417890829719136 0.0083328585841226897 0.077972511631552804 0.042047720276252462 0.018430511767166913 0.04325106926880451 0.019092106206871809 0.10865155429789414 0.17639428855666942 0.09436391173264605 -0.01936773391134064 0.019202843564053773 0.062778467877859997 0.22876952284230728 0.19600851864621374 0.043379509051251097 0.065905509934847423 0.14765127105252615 -0.01289880114736025 0.097446070672148291 0.11081880315651904 0.083042597203773952 0.045142432813196812 -0.036685514298029298 -0.0027130830772369107 0.029285221698471149 0.15621254923948202 -0.0053857178928720592 0.079093937834127104 0.040983959909218548 0.073670992235897445 0.16153236378494495 -0.027686146228932576 0.0227717102954068 0.077630983859219099 0.054081981084744296 0.22573880686166203 0.045677523089094368 0.061076142298350802 0.018549312665516914 0.0068848579787609693 0.09573810702926093 0.032328933012681464 -0.011933899723995431 0.10848073549336633 -0.015380194938363853 0.19934837416148171 -0.023097027876406953 0.017937324914950915 0.042899896038481183 0.016986294564525925 0.014911961622893335 0.045442403041565028 0.065188643497677265 -0.010751054189797977 -0.018707247125401678 0.014345355144420664 0.031555233127511628 0.030386093858190535 0.15070492341461383 0.0037715553713346972 0.11230246428509834 0.040259982522809969 0.0057025413748547776 0.042407045533759027 0.17393144909556013 0.041474706021730701 0.025168622623815681 0.23732137855883689 0.0015640906786431067 0.013686771707427173 -0.022664926938132005 0.26842506517174824 0.0035856358596490739 0.074804257461762821 0.016517625239069075 0.015038869165842281 0.037562837765496362 0.030110199298593113 -0.0023077450895432122 0.035879240814725648 0.019843259314382588 0.034400118095325588 -0.029781087428498127 -0.0005174673174346044 0.048760193079299081 0.0011920284570473042 0.014331895546673854 0.06812955006695591 0.0027271807479678049 -0.018941286537883795 -0.024620386954067496 0.042488109777688819 0.012217792232786483 0.021444237857962258 0.064967952396696213 0.086895334950566935 -0.0090620635599956423 0.010021932026132566 -0.0080027252737512374 0.048447832431988878 0.024720546830155281 0.074280019250016288 0.059244367167702386 0.0047589847747482447 0.08980616259223867 0.12571400019782239 0.091661259327114677 0.037029104976873763 -0.0063457577294697455 0.015538008893024905 0.10101966919105421 -0.022349573937413124 -0.033656456657231985 0.0033554473435454899 0.054970983515137309 -0.0024815947558369349 0.029101191607848576 -0.0021224814051985191 -0.017820813882487043
leaf_weight=94303.424965500832 156.18904137611389 121.34300255775452 11230.847473025322 4301.2891988754272 2247.5337083339691 507.09760069847107 10557.219509840012 7209.6943922042847 4018.65576171875 4228.9009125232697 7243.9990401268005 3343.5721291303635 15673.158155441284 10543.706181287766 15715.24172949791 132.55692744255066 337.00089943408966 23413.983790397644 13180.514188885689 2827.7536928653717 127.45395922660828 67.368101596832275 1151.7519471645355 6119.8679621219635 85.985492944717407 11471.620481491089 475.03273129463196 3306.1996643543243 640.23678135871887 2313.5757286548615 114048.26503074169 8267.0423499345779 2430.0446715354919 719.88987255096436 36259.372836470604 6962.8995156288147 13009.302829742432 36647.13453412056 811.53546595573425 3352.5614869594574 6131.9090304374695 6122.3629653453827 5472.1090602874756 209.72814846038818 1018.8593800067902 15841.204746723175 1437.1522228717804 1777.2567899227142 10690.494437217712 5480.1715092658997 75770.154404759407 2488.4659674167633 29689.987638115883 1406.9540891647339 62440.809216618538 47110.031558513641 8530.3533856868744 29690.391161680222 5738.9490189552307 23161.957696199417 13401.993843078613 66930.146159887314 20673.243745446205 12218.639172434807 20749.675051689148 28300.635928869247 324.53568840026855 2134.0302278995514 3559.4734065532684 3107.278559923172 4704.7408533096313 24542.597041130066 175.18751096725464 1416.4293735027313 7703.1196296215057 287.8000750541687 34647.192875027657 22332.714369893074 22428.933205485344 99.73106861114502 40736.699651360512 693.71212005615234 16220.284212827682 35774.823505878448 24989.474272251129 15116.826643466949 91180.748067617416 9713.0333046913147 20121.21536231041 24981.998208522797 193036.36808264256 10378.912188529968 7177.6116986274719 3296.4845087528229 254.65581083297729 18116.513579368591 25827.655716061592 196619.21965157986 138877.23319423199 3425.9283678531647 70516.528509616852 36031.614515304565 4526.232004404068 3083.1058073043823 87849.567466616631 5985.1327135562897 51438.340087175369 9127.3605351448059 1672.8460323810577 4648.3387477397919 765.76695489883423 99988.782900094986 3121.3793947696686 1694.9768047332764 2565.9374504089355 840.70142507553101 28557.969443202019 2111.9384598731995 4195.5155453681946 32473.950493812561 145600.3415671587 24949.294431209564 19093.316758155823 39336.621444702148 10725.848910689354 8657.1870507001877 72284.613361001015
leaf_count=56738 35 28 5126 182 671 151 4361 3166 1972 675 1794 1535 4718 3797 1606 26 139 12511 5189 891 19 12 326 1600 29 6392 110 498 219 880 66888 3837 920 197 17386 1498 3286 6560 103 1512 2353 945 934 21 391 3732 393 486 1585 1460 37578 487 15266 51 34032 16984 2699 11794 1839 6643 3293 33003 10718 5103 6429 9247 58 794 704 682 1539 6790 33 416 2351 52 14886 9231 12456 16 18218 199 5901 13373 7639 5178 40394 3290 6598 7946 107460 4154 1696 1163 60 3808 11910 98824 74351 932 28022 13196 1097 825 40972 2552 24342 2797 478 962 200 40643 538 199 665 136 13869 967 704 17840 83607 10707 4594 17600 4164 4292 37915
internal_value=0 0.0364303 -0.0167646 0.0673184 0.0240958 0.021364 -0.00490483 -0.00649458 -0.0274159 0.0978136 0.0586311 -0.0227349 0.0542221 0.0142901 0.0904956 0.0321562 -0.0120819 -0.0240289 0.0223234 0.032922 0.0513608 0.080913 0.0587363 0.0670293 0.000518353 -0.0339307 0.0368855 0.069231 0.0114509 0.0162274 -0.0321033 -0.0148036 0.060415 0.0817382 -0.015131 0.0781831 0.0495931 0.0667184 0.0816723 0.00772623 0.00737972 0.087445 0.0764234 0.0916538 0.00395517 0.0549686 0.0589859 0.0487935 0.10038 0.050043 -0.00693698 0.068881 -0.0261758 0.159417 -0.0184208 0.0248587 0.0399091 0.00824534 0.0411523 0.0453352 0.0526801 -0.016431 -0.00963081 0.000109155 0.0324746 0.0226092 0.0589652 0.03507 0.0903276 0.0619992 0.0429717 0.048594 0.0783058 0.0335382 0.0426571 0.184914 0.00828545 0.0122941 -0.0328037 0.124951 -0.00322286 0.0223659 0.0267917 0.0161757 0.0333325 0.0315821 -0.00177748 0.0248143 0.0286309 0.0279061 -0.0286546 0.0105152 0.0637489 0.0176298 0.0997541 0.0695828 -0.00813823 -0.0182865 -0.0229929 0.0602945 0.0159713 0.0153379 0.0690282 0.0725972 -0.0051986 -0.00784481 -0.00441605 0.0370139 0.0313515 0.0862051 0.0131974 0.0057998 0.0932598 0.136728 0.0767034 0.0786076 -0.0115366 0.0263853 0.0960591 -0.0335821 -0.0315945 0.00385104 0.0524214 0.000136016 0.018688 -0.0191707 -0.0161418
internal_weight=0 849695 1.9082e+06 242478 607216 556733 902876 853069 1.00532e+06 53760.9 188717 584994 50483.2 336299 48052.6 220435 474792 532419 49807.4 26247.9 111939 6317.84 44939.2 29266 378277 420327 133753 76778.1 248822 109018 326023 310525 5977.69 3547.64 308076 17666 105621 69509.8 32337.4 139804 139164 25001.2 13499.2 8027.07 197159 58295 45285.7 22307.7 11502 11600 164267 22978 385018 5708.24 147401 86681.9 11271.2 135811 88174.6 57446.2 36564 271816 52574.8 104418 20882.2 75410.7 32862.7 10664.4 10522.4 7336.18 47326.3 29653.2 5110.56 17673.2 12202.7 409.143 92741 58093.8 314551 606.829 181118 87476.7 51008.2 36468.5 30728.4 34787.9 92199.6 20270.3 45578.2 45103.2 216450 23559.4 25618.7 5544.02 4577.63 18441 153036 204886 168567 7143.62 108862 106548 4701.42 4499.54 140381 93834.7 77266 24244.2 1740.21 7136.8 5470.51 106121 7268.28 1904.7 3717.69 3962.08 49231.2 2448.94 4450.17 292123 178074 25035.3 20530.5 46546.3 33058.6 143383 80941.8
internal_count=1242034 264665 977369 50615 214050 200313 419527 400525 557842 6983 43632 313921 13737 129899 6750 70414 233112 287799 19002 9659 28544 1273 11903 7185 167413 243921 40523 15088 98654 42133 187183 154156 2008 1088 153050 4125 27271 13916 5144 56521 56302 3787 2099 1165 84905 13940 10654 5473 1688 3060 78956 5181 209588 233 78211 29891 3660 54790 25869 16391 9936 135664 26122 45888 6455 26231 7356 3493 2202 1357 13331 8000 1210 5331 3592 80 39017 24131 180791 167 82508 31245 17673 13572 9478 11772 40785 7651 14654 14544 119971 9343 5562 1834 783 3866 73830 102661 89617 1923 42098 41218 1130 1241 64290 43524 36252 7975 490 1449 1739 42996 1172 220 991 674 24587 1106 764 168335 101447 10736 4987 20766 13395 76239 42207
is_linear=0
shrinkage=0.1


Tree=7
num_leaves=128
num_cat=0
split_feature=1 8 1 8 8 8 1 0 1 28 0 1 0 0 1 1 0 18 0 18 20 20 23 0 0 0 3 0 17 0 3 0 0 1 2 1 2 0 2 10 8 17 20 16 1 0 0 0 20 0 20 0 1 0 3 0 27 0 3 11 0 2 0 8 3 14 6 0 22 0 3 2 14 22 0 10 8 0 8 17 0 3 0 2 5 0 0 1 0 1 0 22 2 8 10 20 5 6 5 3 0 0 26 6 19 8 0 3 0 3 1 2 0 0 5 20 23 2 1 15 5 6 3 27 22 16 1
split_gain=132773 27738.4 18668.8 4651.22 4617.36 3149.69 2510.27 1570.71 1563.84 1480.85 1472.87 1469.17 1342.92 1209.71 1077.02 999.869 815.053 674.592 643.755 632.569 576.858 572.926 552.118 484.509 538.603 420.405 416.388 414.525 411.894 410.673 398.388 475.446 398.539 394.74 425.721 387.594 395.773 383.572 338.678 326.442 314.311 457.41 312.459 306.142 298.339 291.007 387.106 330.262 287.795 281.833 278.09 274.752 270.392 268.454 325.619 268.291 266.937 265.884 264.911 249.99 246.524 242.884 240.95 239.633 236.697 236.445 233.35 259.293 233.339 229.132 227.216 226.43 224.081 282.467 223.467 221.795 219.466 218.621 217.22 364.666 215.337 299.417 436.643 213.427 210.716 204.917 309.524 203.623 200.798 197.714 196.395 215.295 195.946 194.971 193.54 190.617 186.228 182.038 180.923 180.738 178.329 175.124 175.119 169.802 169.57 168.75 165.705 165.206 164.428 163.621 162.101 160.157 159.453 190.468 161.652 157.77 182.218 157.002 197.098 156.794 156.609 156.103 156.127 155.138 154.744 154.238 161.127
