tree
version=v3
num_class=1
num_tree_per_iteration=1
label_index=0
max_feature_idx=145
objective=tweedie
feature_names=rolling_mean_tmp_I100_14_7_I100_S100 QTT_lag_7 enc_C100_mean_clipped rolling_std_I100_7_C101 rolling_std_I100_7_I100_C100_C101 S101 enc_I100_S100_std_clipped rolling_std_I100_14_C100 month rolling_mean_tmp_14_7_clipped tm_w_end rolling_mean_7 rolling_mean_tmp_I100_1_14_C100 rolling_std_I100_14_C101 rolling_mean_tmp_I100_1_7_I100_C100_C101 rolling_mean_I100_7_I100 QTT_lag_9 rolling_std_14_clipped rolling_mean_tmp_7_7_clipped rolling_mean_tmp_7_14_clipped I102 rolling_std_I100_14_I100 rolling_mean_tmp_I100_14_7_C100 enc_S100_I100_C100_C101_std_clipped day_of_year rolling_std_I100_21_I100_S100 rolling_mean_I100_7_S100 rolling_mean_tmp_I100_7_7_C101 rolling_mean_I100_7_C101 rolling_mean_tmp_I100_1_14_C101 rolling_std_I100_7_I100_S100 enc_C101_std_clipped rolling_mean_tmp_14_14_clipped enc_I100_C100_C101_std_clipped enc_S100_mean_clipped rolling_mean_I100_14_C101 rolling_mean_tmp_I100_7_14_I100_S100 rolling_std_21 rolling_mean_tmp_1_14 day_of_week rolling_mean_I100_7_I100_C100_C101 rolling_std_I100_14_I100_S100 rolling_std_I100_21_S100 rolling_mean_I100_14_I100 C100 rolling_mean_I100_14_C100 enc_C101_mean_clipped rolling_mean_tmp_I100_1_14_I100 QTT_lag_6 rolling_mean_tmp_I100_1_14_S100 tm_wm rolling_mean_I100_21_C100 I103 rolling_mean_tmp_I100_1_7_S100 C101 rolling_mean_tmp_I100_7_7_I100 rolling_std_7_clipped rolling_mean_tmp_I100_14_14_I100_S100 rolling_std_I100_21_C101 QTT_lag_8 rolling_std_14 year rolling_mean_21_clipped rolling_mean_I100_21_I100 rolling_mean_I100_14_S100 rolling_mean_tmp_I100_1_14_I100_S100 rolling_mean_tmp_I100_14_14_I100_C100_C101 enc_S100_I100_C100_C101_mean_clipped rolling_mean_tmp_14_14 rolling_std_I100_21_C100 QTT_lag_12 QTT_lag_4 rolling_mean_tmp_I100_14_14_S100 rolling_mean_tmp_I100_1_7_I100_S100 rolling_mean_tmp_I100_1_7_C100 rolling_mean_tmp_I100_7_7_I100_S100 enc_S100_std_clipped rolling_mean_tmp_1_7 rolling_mean_tmp_I100_1_7_C101 S103 I100 rolling_mean_tmp_I100_7_14_I100_C100_C101 QTT_lag_3 enc_I100_std_clipped rolling_std_I100_21_I100 rolling_std_I100_14_I100_C100_C101 QTT_lag_10 rolling_mean_I100_7_C100 rolling_mean_tmp_I100_7_14_I100 rolling_mean_I100_21_I100_C100_C101 enc_S100_C100_std_clipped is_year_start rolling_mean_tmp_I100_7_7_I100_C100_C101 enc_I100_S100_mean_clipped QTT_lag_11 rolling_mean_I100_21_I100_S100 day is_month_end rolling_mean_I100_7_I100_S100 rolling_mean_tmp_14_7 tm_m_end S102 rolling_mean_7_clipped is_month_start enc_I100_C100_C101_mean_clipped rolling_mean_I100_21_S100 rolling_std_I100_7_S100 enc_I100_C101_std_clipped S100 is_quarter_start rolling_mean_tmp_I100_14_7_C101 enc_S100_C100_mean_clipped rolling_mean_tmp_I100_7_14_C100 rolling_mean_tmp_1_14_clipped enc_I100_mean_clipped rolling_mean_tmp_I100_7_14_S100 rolling_std_7 enc_I100_C101_mean_clipped enc_C100_std_clipped rolling_std_21_clipped rolling_mean_21 rolling_mean_tmp_7_7 rolling_std_I100_14_S100 rolling_mean_tmp_I100_1_14_I100_C100_C101 rolling_std_I100_21_I100_C100_C101 rolling_mean_tmp_I100_7_14_C101 rolling_mean_14_clipped rolling_mean_tmp_7_14 rolling_mean_I100_21_C101 rolling_mean_I100_14_I100_S100 rolling_mean_tmp_1_7_clipped rolling_mean_tmp_I100_14_14_C100 rolling_mean_tmp_I100_1_7_I100 rolling_mean_tmp_I100_7_7_S100 I101 rolling_mean_14 QTT_lag_5 rolling_mean_I100_14_I100_C100_C101 rolling_std_I100_7_I100 rolling_mean_tmp_I100_14_7_S100 rolling_std_I100_7_C100 rolling_mean_tmp_I100_14_7_I100_C100_C101 rolling_mean_tmp_I100_14_14_I100 rolling_mean_tmp_I100_14_7_I100 rolling_mean_tmp_I100_14_14_C101 rolling_mean_tmp_I100_7_7_C100
feature_infos=[0:30] [0:307] [0.0682373046875:0.69140625] [0:16.03125] [0:16.03125] [0:1] [0.0626220703125:13.4375] [0:15.40625] [1:12] [0:30] none [0:406.5] [0:30] [0:15.5625] [0:30] [0:30] [0:267] [0:15.3515625] [0:30] [0:30] [0:2] [0:15.5625] [0:30] [0:14.546875] [3:365] [0:15.0546875] [0:30] [0:30] [0:30] [0:30] [0:16.03125] [0.07647705078125:7.21875] [0:30] [0.0623779296875:10.6015625] [0.147216796875:0.78759765625] [0:30] [0:30] [0:161.375] [0:322.75] none [0:30] [0:15.3515625] [0:15.0546875] [0:30] [0:20] [0:30] [0.0058746337890625:2.060546875] [0:30] [0:352] [0:30] [1:5] [0:30] [0:2] [0:30] [0:354] [0:30] [0:15.90625] [0:30] [0:15.0546875] [0:261] [0:154.25] [2017:2021] [0:30] [0:30] [0:30] [0:30] [0:30] [0.003875732421875:19.84375] [0:322.75] [0:15.0546875] [0:691] [0:691] [0:30] [0:30] [0:30] [0:30] [0.7919921875:2.396484375] [0:405.25] [0:30] [0:10] [0:95] [0:30] [0:458] [0.396728515625:6.25390625] [0:15.0546875] [0:15.5625] [0:458] [0:30] [0:30] [0:30] [0.10260009765625:3.736328125] none [0:30] [0.0039215087890625:18.234375] [0:691] [0:30] [1:31] [0:1] [0:30] [0:405.25] [0:1] [0:19] [0:30] [0:1] [0.0038909912109375:6.08203125] [0:30] [0:16.03125] [0.0625:8.296875] [0:30] [0:1] [0:30] [0.01061248779296875:1.2509765625] [0:30] [0:30] [0.0736083984375:4.7578125] [0:30] [0:157.375] [0.00390625:6.08203125] [0.33837890625:2.45703125] [0:15.0546875] [0:280.25] [0:384.25] [0:15.40625] [0:30] [0:15.0546875] [0:30] [0:30] [0:316.25] [0:30] [0:30] [0:30] [0:30] [0:30] [0:30] [0:5] [0:312.25] [0:511] [0:30] [0:16.03125] [0:30] [0:16.03125] [0:30] [0:30] [0:30] [0:30] [0:30]
tree_sizes=13413 13807 13828 13872 13903 13895 13959 13971 14007 14032 13994 13990 14065 13990 14046 14121 14108 14083 14126 14101 14109 14098 14118 14129 14172 14219 14169 14180 14110 14165 14170 14187 14149 14198 14116 14186 14150 14173 14124 14228 14199 14082 14173 14121 14230 14109 14178 14082 14215 14155 14200 14179 14140 14151 14148 14196 14145 14063 14159 14087 14044 14145 13978 14063 14158 13969 14121 14182 14176 14071 14134 14072 14135 14040 14120 14037 14082 14128 14095 14023 14120 14166 14121 14069 14108 14112 14049 13957 14119 14134 14037 14035 13987 13879 14285 14080 13975 14035 14029 14121 14000 14050 14005 14008 14085 13988 13839 14086 13894 14197 14068 14089 14040 14118 13839 14122 14071 8049 14102 14081 13955 13960 13956 14140 13800 14043 13963 14177 13910 14006 14067 13895 13995 13914 14020 14071 13930 14096 14212 13986 6544 5288 13845 13085 10581 14133 13819 14046 13957 14147 13945 14051 13978 13943 13768 14093 13986 13906 14065 14093 14095 14111 2812 14025 14100 2969 13999 14084 10358 13836 13954 13841 14037 13996 13997 13953 13913 14117 14199 13934 13946 13959 13902 13750 13845 13967 13943 14153 13902 13790 14053 14076 14114 13968 13859 13863 14169 14084 13842 13928 14002 14225 13925 13980 13994 13976 13942 13945 13929 13828 13988 14071 13930 13870 13905 13913 13920 14070 13917 14086 14003 13863 13965 13908 13994 5088 13871 14183 13844 13843 13907 13907 13924 13822 13805 14225 14032

Tree=0
num_leaves=128
num_cat=0
split_feature=23 53 23 14 14 14 23 23 23 24 24 23 24 24 23 71 23 24 23 14 80 23 78 23 23 80 78 80 24 23 80 24 23 67 82 40 78 20 24 24 136 14 23 82 80 53 132 53 67 24 104 23 2 132 80 24 98 20 67 20 15 24 38 101 80 24 53 24 15 24 14 80 23 23 67 61 23 80 14 134 23 24 6 21 98 67 67 52 32 24 24 20 24 67 11 85 25 119 23 13 67 24 46 68 67 69 140 42 67 24 46 24 52 137 3 24 24 78 32 78 117 117 24 46 53 136 134
split_gain=774680 207885 153430 53508.4 42154.3 24623.8 22796.9 14983.3 10787.1 9717.21 8517.66 7287.34 6539.1 5956.3 5656.18 5347.46 5087.45 4982.04 3679.69 3678.01 3035.3 2764.82 2492.74 2443.79 2397.61 2343.21 2216.77 2163.25 2154.9 1901.2 1868.49 1739.24 1697.81 1692.62 1633.95 1501.11 1431.66 1366.69 1354.53 1235.24 1202.93 1180.17 1172.94 1117.49 1069.66 1034.57 1033.75 963.477 869.322 864.252 818.026 802.57 797.305 791.057 776.224 774.839 760.62 758.08 756.059 755.4 737.935 728.011 726.723 719.606 719.063 717.324 709.587 689.28 679.743 651.664 651.359 632.587 629.284 609.286 604.028 597.133 583.117 581.466 575.442 566.162 533.887 527.912 527.541 527.267 524.417 506.483 503.724 502.196 501.508 483.819 517.689 761.007 482.078 478.259 473.985 467.74 465.79 459.764 453.183 451.583 451.15 449.025 647.261 437.906 434.593 430.452 414.109 410.655 546.704 397.576 394.237 391.493 389.212 383.727 380.886 379.995 426.105 379.306 375.261 370.495 370.266 357.334 356.549 350.803 347.819 345.915 333.024
threshold=3.0654296875000004 9.7851562500000018 1.4243164062500002 25.070312500000004 4.5000000000000009 2.3564453125000004 0.84399414062500011 7.5878906250000009 4.9179687500000009 350.50000000000006 353.00000000000006 4.5449218750000009 345.00000000000006 345.00000000000006 2.0517578125000004 70.500000000000014 2.2470703125000004 353.00000000000006 0.51879882812500011 16.070312500000004 5.5000000000000009 5.4667968750000009 2.6435546875000004 7.1054687500000009 1.1098632812500002 26.500000000000004 4.2148437500000009 22.500000000000004 347.00000000000006 6.8378906250000009 25.500000000000004 345.00000000000006 2.1826171875000004 0.91723632812500011 43.500000000000007 0.92846679687500011 7.2148437500000009 1.5000000000000002 353.00000000000006 353.00000000000006 1.0000000180025095e-35 13.785156250000002 2.1962890625000004 78.000000000000014 51.500000000000007 6.7851562500000009 1.7856445312500002 1.5000000000000002 0.33264160156250006 91.500000000000014 0.25842285156250006 2.3916015625000004 0.59936523437500011 2.0712890625000004 65.500000000000014 342.00000000000006 2.5000000000000004 1.5000000000000002 0.13055419921875003 1.5000000000000002 1.3574218750000002 37.000000000000007 46.281250000000007 1.5000000000000002 50.500000000000007 209.00000000000003 3.3564453125000004 30.000000000000004 4.7851562500000009 98.500000000000014 7.2148437500000009 24.500000000000004 0.67211914062500011 3.9843750000000004 0.26379394531250006 2017.5000000000002 0.31701660156250006 24.500000000000004 20.789062500000004 1.0000000180025095e-35 3.5322265625000004 353.00000000000006 9.3906250000000018 1.8164062500000002 7.3574218750000009 0.44982910156250006 0.074005126953125014 1.5000000000000002 1.4643554687500002 91.500000000000014 226.00000000000003 1.5000000000000002 340.00000000000006 1.7827148437500002 14.359375000000002 2.1230468750000004 2.9335937500000004 1.4248046875000002 3.9326171875000004 3.9863281250000004 0.68627929687500011 360.00000000000006 0.50854492187500011 5.1074218750000009 4.1601562500000009 1.1962890625000002 1.6899414062500002 1.0932617187500002 1.1127929687500002 345.00000000000006 0.13153076171875003 345.00000000000006 1.5000000000000002 1.9643554687500002 12.121093750000002 118.00000000000001 207.00000000000003 1.2143554687500002 0.67871093750000011 0.78564453125000011 0.37280273437500006 1.8623046875000002 345.00000000000006 0.13153076171875003 1.2143554687500002 1.0000000180025095e-35 1.5000000000000002
decision_type=2 2 2 2 2 2 2 2 2 2 2 2 2 2 2 2 2 2 2 2 2 2 2 2 2 2 2 2 2 2 2 2 2 2 2 2 2 2 2 2 2 2 2 2 2 2 2 2 2 2 2 2 2 2 2 2 2 2 2 2 2 2 2 2 2 2 2 2 2 2 2 2 2 2 2 2 2 2 2 2 2 2 2 2 2 2 2 2 2 2 2 2 2 2 2 2 2 2 2 2 2 2 2 2 2 2 2 2 2 2 2 2 2 2 2 2 2 2 2 2 2 2 2 2 2 2 2
left_child=2 4 6 7 11 10 18 21 12 16 14 13 30 22 47 62 66 24 76 34 -13 49 54 28 48 39 107 42 45 37 98 41 -11 -34 68 87 50 55 58 -15 106 103 120 69 -30 56 85 63 -8 113 -37 124 105 121 67 61 -10 100 -20 -27 -24 112 -5 -4 81 75 -7 -2 -9 114 -42 -19 -60 -52 -74 -59 -1 -35 94 -65 -62 -14 -17 -38 -51 -26 -78 -32 -43 -70 91 -91 -92 -41 -71 -69 -47 -55 -6 -63 125 -83 -103 -23 -72 -31 -25 108 -18 -81 -29 -96 -22 -3 -21 -68 -117 -53 -85 -50 -12 -39 -109 -73 -16 -28 -49
right_child=1 3 5 15 8 9 17 19 23 32 27 20 64 25 51 82 26 71 38 43 29 31 60 40 46 59 57 110 44 52 35 -33 33 77 -36 36 83 53 -40 93 70 88 -44 -45 -46 96 -48 126 119 84 73 117 -54 97 -56 -57 -58 65 72 -61 80 99 -64 79 -66 -67 115 95 89 78 104 123 74 -75 -76 -77 86 -79 -80 109 -82 101 -84 118 -86 -87 -88 -89 -90 90 92 -93 -94 -95 111 -97 -98 -99 -100 -101 -102 102 -104 -105 -106 -107 -108 122 -110 -111 -112 -113 -114 -115 -116 116 -118 -119 -120 -121 -122 -123 -124 -125 -126 -127 -128
leaf_value=0.84216829340608157 0.98320027611825389 1.3206795907413009 0.91634712555884157 1.4611332177616361 0.97748317580885313 0.91833931446937578 0.88285194628332075 1.4258825663609844 1.1489103823688085 0.98981351410203822 1.0377782024434523 1.5281502001831626 1.1024563330365382 1.0522352220617113 0.9045491993094984 1.622484819856902 1.1464713018411601 0.92971706467515947 0.88371027587351725 1.2307033363787627 1.176339830667648 1.1788782450732818 1.0322713990292649 1.3350664746732597 0.89306669468862532 1.0385631966434021 1.2636742743161495 1.0543779103809188 1.2183562680395694 1.2032088241650756 1.4877461594900507 1.3026923806860258 1.2441422905439605 1.074090664065227 1.5925780739864299 1.4204699299378576 1.404382237746036 0.91641847915043362 0.87928261291900955 1.2921476311683584 1.0932729360182318 1.2641420270276877 1.0784390942780473 1.6992285332659267 1.0538788167262434 1.1608495029027803 0.89577741240682451 0.91123056027840843 0.86525752599968975 1.214855887019022 1.0107000589320005 0.91804773461173395 1.0402445784744478 1.0509382614366627 0.91650380262835907 1.0956993496800453 1.0562482659953989 1.0641279549153491 0.8539159336319041 0.94840212869214691 0.96401533762390546 0.99671476126522807 1.5927221094394337 0.89816707432694787 1.0719099983915461 0.97230447777587581 0.92113509496418089 0.93892845743358511 1.1747512367573496 1.3821769766005703 1.3503875493027171 0.96349294172625299 0.86950804945231408 1.039058324043985 0.85836827710081731 0.99461846136179766 0.86537335466792387 1.017453378291862 1.3702484171482903 0.88658808935747802 0.98528691454483885 1.2211884044984043 1.7494895515781073 1.094481881564453 1.1235680306549178 0.87806085838733761 0.84871821781321977 1.1691078133628434 1.1925883328915212 1.2320478296031139 1.1964593756759521 1.3337510177644205 1.2827743299139669 1.155074398416831 1.2852184722976445 0.95812886284597054 1.0934865802752693 0.98571112618878998 1.0117041074020925 1.0298255285777937 0.96733407364546764 1.2267901288561074 1.0983425436789385 1.1350237502727147 1.1493002911321706 1.0915391308425024 1.2003332970955916 0.94468357603210407 0.97293140975190395 0.9185832876374852 0.93823458575568908 1.4129989680149726 1.0487013088231067 1.0613445275797191 1.4128275252382907 0.96153750604060007 0.93306011196251792 0.93110825332190494 1.0523897323704563 0.87220905035052776 0.9778686106101574 0.97022516545422544 0.9935006952857045 0.89950145029643302 0.91775447337706084 1.0217337893941763 0.89940809817569567
leaf_weight=150459.31658124924 6344.911150932312 58.276243925094604 12088.90140581131 2289.195330619812 7753.3349435329437 63107.320193529129 45350.711569547653 170.99615812301636 943.36489582061768 7208.8116061687469 1267.5526120662689 115.16903424263 1288.759685754776 1350.2185418605804 38684.243872880936 455.46011829376221 220.89710187911987 15054.930823564529 11304.130475521088 1018.5709550380707 261.11903548240662 3659.2030582427979 2397.185998916626 270.9314649105072 24816.957235813141 2615.7348191738129 84.869121789932251 300.51470589637756 1755.9162809848785 442.33029818534851 87.444462299346924 1096.4278085231781 456.27781581878662 3599.8229315280914 124.74789023399353 51.657220602035522 45.432122468948364 2192.1154751777649 31989.815314531326 314.69288301467896 3030.4268000125885 1312.9025678634644 1869.6795902252197 78.858733892440796 510.30733466148376 1101.6678519248962 45530.08135676384 41697.36669421196 190530.66461062431 696.14329957962036 18678.649591207504 40927.192932844162 4454.4144511222839 1377.2873158454895 6851.2418358325958 1235.9678490161896 14531.367611408234 2445.663526058197 250778.31196737289 1441.2983510494232 22038.345145702362 13136.402256965637 513.90974092483521 77061.138101577759 1317.177104473114 4067.0706202983856 10951.456266880035 26155.126961946487 1606.6996502876282 752.1734619140625 110.58274435997009 897.94375205039978 62032.357615470886 12746.646509170532 226045.45948672295 2498.4975564479828 19408.298067331314 3651.235093832016 2549.7863442897797 136374.76808810234 25395.846119642258 1375.4742548465729 1160.0393934249878 2833.954193353653 6552.7212619781494 240179.73568749428 282153.98529291153 113.87630939483643 3857.4761941432953 2320.8290009498596 3552.586309671402 1077.2265317440033 791.16217970848083 1331.6613948345184 3239.4884715080261 24640.923362731934 15039.033213376999 5017.0944910049438 7725.9758200645447 6000.6413707733154 21661.245930671692 611.59264421463013 1094.16237616539 6027.6915903091431 3826.3616905212402 1571.7685194015503 1443.7102482318878 66686.126217365265 1018.6690621376038 3997.5934948921204 10639.174604177475 258.93538475036621 2808.08176612854 2724.4582145214081 129.42198777198792 8474.3280699253082 13828.181868553162 48691.996471405029 8384.0269961357117 128295.68192052841 5542.505068063736 2824.6113219261169 1530.4860713481903 18642.159782648087 41178.183989524841 194.5907928943634 55593.203897476196
leaf_count=70799 2587 15 5289 446 3181 27554 20518 36 315 2918 486 19 457 509 17128 56 74 6497 5110 303 84 1173 925 68 11115 1002 24 113 532 137 16 291 133 1322 17 11 10 959 14524 85 1087 371 683 7 192 362 20337 18338 87695 212 7387 17875 1703 520 2997 442 5452 909 116692 610 9174 5277 70 34339 485 1678 4768 11180 518 173 27 374 28434 4880 104735 1006 8932 1433 600 61473 10331 415 77 1015 2262 109177 131945 37 1213 689 1111 271 217 441 885 10322 5393 2040 3052 2322 8985 183 390 2050 1277 565 449 28334 420 1745 4551 56 1063 1016 28 3537 5947 20983 3160 58653 2273 1168 617 8296 17990 76 24742
internal_value=0.898497 1.04563 0.87959 1.23716 1.01139 0.918162 0.863492 1.2036 1.06023 0.946881 0.906378 0.979301 1.03431 0.966895 0.903823 1.56877 0.940982 0.8773 0.854022 1.27464 1.01549 1.15528 0.96137 1.09925 0.875402 1.05607 0.956734 0.971003 1.08712 1.01406 1.02435 1.18115 1.0247 1.05733 1.23301 1.03509 1.0338 1.00482 0.859279 1.12313 1.14659 1.17218 1.00828 1.32464 1.18132 1.08037 0.881858 0.896135 0.869897 1.11415 1.02286 0.918648 1.06385 0.976439 0.948311 1.01864 1.0619 0.978992 0.858116 1.00653 0.97814 1.01435 1.48526 0.8926 1.13668 1.00341 0.924569 0.952124 1.2283 1.32093 1.12812 0.914312 0.857579 1.0222 0.860767 1.029 0.847253 1.04557 1.33269 0.89128 0.975404 1.1562 1.71368 1.0644 1.13233 0.879466 0.84979 1.30751 1.21076 1.22469 1.23505 1.26429 1.21218 1.18128 1.31016 0.948242 1.09808 0.99976 0.994563 1.0071 0.968963 1.17868 1.1444 1.15159 1.15495 1.11606 1.22162 0.946815 1.00386 0.887499 0.941425 1.29468 1.05956 1.06678 1.25124 0.93639 0.943881 0.925144 1.06302 0.868055 0.98902 0.946714 0.945779 0.902442 0.911358 1.09521 0.904475
internal_weight=0 317061 2.47107e+06 48075.4 268986 727600 1.74347e+06 43656.8 106672 211686 515914 162314 64108.2 120877 496295 4418.6 196769 709299 1.03417e+06 17671.5 41437 25985.3 113824 42563.7 674704 7053.61 100408 19619.4 33881.7 41321.8 58421 15953.7 14916.1 7707.34 9644.25 42941.7 42740.4 34853.3 582150 2996.57 8682.01 14857.3 8679.74 8027.24 2266.22 31615.4 310527 326813 364177 10031.6 31477 169482 6468.51 11411.1 63992.2 23442.2 15474.7 30951.9 550160 4057.03 49831.4 22206.2 2803.11 229522 5687.17 9011.23 96361.3 57141 9519.5 7948.38 6967.37 34595 538856 31425.3 288078 4944.16 452022 7251.06 6800.38 217433 47434.2 4369.99 1615.5 11263.4 7248.86 264997 301562 201.321 5170.38 9348.5 7741.8 3398.06 4343.75 1646.35 4250.6 50796.1 16140.7 6394.38 15479.3 19137 21940.7 3081.23 1705.76 9686.89 3936.94 2014.1 1714.64 69456.2 1239.57 140372 10939.7 3498.42 3069.2 2782.73 1147.99 33254 22302.5 89619.2 11218 318826 6810.06 5016.73 68216.6 19540.1 79862.4 279.46 97290.6
internal_count=1242034 120458 1121576 14163 106295 317743 803833 13514 39833 89735 228008 66462 24679 50163 219902 649 83929 322662 481171 4911 16299 8603 47516 15154 307495 2647 42123 8106 12246 16280 22749 5098 5806 2888 2859 16516 16463 13875 269495 1035 2908 4807 3442 2052 724 11522 140629 145926 166866 3505 12278 73976 2405 4687 27086 9188 5767 12678 254971 1612 20430 8746 516 102846 1930 3593 41806 24089 2842 2045 2391 15167 249861 12267 133169 1915 211676 2755 1714 97557 19505 1445 133 4185 2474 120292 140877 53 1584 2806 2288 960 1328 526 1114 21502 5755 2560 6233 7599 9085 988 573 3223 1304 702 517 29445 494 63218 4664 941 1147 1031 331 14252 9484 38858 4175 146348 2759 2127 28951 8670 35118 100 43080
is_linear=0
shrinkage=1


Tree=1
num_leaves=128
num_cat=0
split_feature=23 14 23 77 14 23 74 23 23 24 77 23 24 24 24 23 77 24 6 23 23 24 78 124 80 23 67 77 24 134 23 80 24 24 5 40 80 80 78 87 78 24 23 23 67 67 80 52 67 136 74 67 134 104 77 71 23 80 23 67 23 24 101 37 24 136 67 24 14 23 67 67 23 134 114 80 23 14 32 23 24 11 14 24 80 73 67 134 40 117 24 24 48 80 77 23 24 52 24 24 23 24 23 24 54 14 67 78 67 128 67 87 67 24 20 101 24 25 104 15 23 24 24 61 83 23 67
split_gain=579439 144741 103267 44323.3 25825.6 15465.8 15381.1 14959.9 7459.74 7096.02 6035.09 5611.3 5147.75 4845.18 4726.42 4688.79 3472.38 3433.39 2394.16 2362.76 2339.37 1887.39 1802.87 1756.13 1747.08 1690.26 1531.81 1429.54 1382.1 1359.27 1333.09 1291.61 1277.84 1270.21 1152.02 1124.35 1123.15 1037.94 1030.57 1011.66 987.81 964.191 945.906 842.256 816.852 768.399 767.467 729.237 725.25 721.357 820.36 720.195 698.378 689.966 678.617 676.591 671.406 666.495 737.383 657.634 644.691 644.245 625.51 619.188 601 578.291 576.607 566.178 553.074 552.154 548.615 539.305 610.67 537.708 522.774 503.161 499.876 496.944 495.211 482.018 478.223 473.897 467.037 466.849 456.014 451.813 448.03 446.034 434.549 426.608 417.391 856.539 409.564 403.047 397.878 393.746 389.826 386.172 388.074 384.857 384.795 381.637 376.226 369.179 363.647 360.592 358.196 354.387 353.539 347.134 345.92 344.469 383.645 338.35 336.872 331.504 326.656 320.046 311.934 313.03 310.616 306.962 305.454 300.795 295.05 294.917 389.969
threshold=2.7490234375000004 8.3593750000000018 1.2875976562500002 36.500000000000007 3.9287109375000004 6.3320312500000009 2.3564453125000004 0.76489257812500011 4.6386718750000009 345.00000000000006 19.210937500000004 4.4589843750000009 345.00000000000006 345.00000000000006 350.50000000000006 1.7993164062500002 85.562500000000014 345.00000000000006 9.3906250000000018 0.43762207031250006 2.0419921875000004 91.500000000000014 2.0712890625000004 1.3696289062500002 26.500000000000004 1.0180664062500002 8.6445312500000018 12.640625000000002 350.50000000000006 1.5000000000000002 5.9667968750000009 25.500000000000004 349.00000000000006 224.50000000000003 1.0000000180025095e-35 1.2143554687500002 51.500000000000007 67.500000000000014 3.9287109375000004 0.92846679687500011 5.5000000000000009 350.50000000000006 1.7104492187500002 1.9780273437500002 0.29699707031250006 1.2719726562500002 65.500000000000014 1.5000000000000002 0.86645507812500011 1.0000000180025095e-35 1.5000000000000002 0.39611816406250006 1.0000000180025095e-35 0.39270019531250006 23.789062500000004 1.0000000180025095e-35 2.2626953125000004 56.500000000000007 4.2832031250000009 0.11245727539062501 3.6259765625000004 353.00000000000006 1.5000000000000002 3.4609375000000004 338.00000000000006 1.0000000180025095e-35 1.3764648437500002 5.5000000000000009 0.78564453125000011 0.62915039062500011 0.21490478515625003 0.23840332031250003 1.0395507812500002 1.5000000000000002 0.40075683593750006 53.500000000000007 4.1093750000000009 5.9277343750000009 0.82128906250000011 3.4111328125000004 107.00000000000001 17.210937500000004 1.2143554687500002 252.50000000000003 62.500000000000007 5.5000000000000009 4.8828125000000009 1.0000000180025095e-35 2.6435546875000004 0.44274902343750006 91.500000000000014 226.00000000000003 11.500000000000002 29.500000000000004 49.062500000000007 9.2304687500000018 353.00000000000006 1.5000000000000002 37.000000000000007 231.50000000000003 3.6611328125000004 5.5000000000000009 3.7148437500000004 353.00000000000006 200.00000000000003 1.3574218750000002 0.66723632812500011 2.3564453125000004 0.44982910156250006 1.3095703125000002 0.49902343750000006 1.0712890625000002 0.79101562500000011 76.000000000000014 1.5000000000000002 14.500000000000002 105.50000000000001 2.5791015625000004 0.86425781250000011 8.7851562500000018 0.90112304687500011 353.00000000000006 23.000000000000004 2019.5000000000002 1.6928710937500002 0.26892089843750006 0.052749633789062507
decision_type=2 2 2 2 2 2 2 2 2 2 2 2 2 2 2 2 2 2 2 2 2 2 2 2 2 2 2 2 2 2 2 2 2 2 2 2 2 2 2 2 2 2 2 2 2 2 2 2 2 2 2 2 2 2 2 2 2 2 2 2 2 2 2 2 2 2 2 2 2 2 2 2 2 2 2 2 2 2 2 2 2 2 2 2 2 2 2 2 2 2 2 2 2 2 2 2 2 2 2 2 2 2 2 2 2 2 2 2 2 2 2 2 2 2 2 2 2 2 2 2 2 2 2 2 2 2 2
left_child=2 4 7 5 11 21 9 19 13 15 18 14 20 31 22 52 94 25 27 125 73 76 46 34 103 44 37 63 30 87 53 67 33 57 -10 66 -30 49 111 97 88 59 96 -14 -9 -15 60 -28 109 50 123 -27 110 -25 81 -52 105 -23 -59 -21 89 -44 -54 124 95 -32 -33 -6 -64 -61 -71 -19 -73 99 -26 102 -3 -55 -60 -41 -65 -12 -53 -18 -66 -67 -35 -11 -37 -2 -42 -92 -56 -40 -5 113 -31 98 -24 114 -69 -75 -47 -16 -63 -17 -95 -51 -98 -45 -4 112 -22 -29 -8 -105 -90 -79 119 -78 -46 -82 -62 -13 -7 -1 -127
right_child=1 3 6 16 8 10 12 17 23 29 54 26 43 45 24 56 83 71 -20 41 38 32 39 28 74 51 47 64 36 42 65 35 -34 86 -36 40 -38 -39 93 79 90 -43 61 48 120 75 -48 -49 -50 107 55 82 62 77 92 -57 -58 58 78 69 122 104 68 80 84 85 -68 100 -70 70 -72 72 -74 101 -76 -77 118 117 -80 -81 121 -83 -84 -85 -86 -87 -88 -89 116 -91 91 -93 -94 106 -96 -97 108 -99 -100 -101 -102 -103 -104 115 -106 -107 -108 -109 -110 -111 -112 -113 -114 -115 -116 -117 -118 -119 -120 -121 -122 -123 -124 -125 -126 126 -128
leaf_value=-0.054845060857951981 -0.00044616297491828017 0.083019995327898263 0.022460837526899327 0.45274203427898324 0.18833550922756442 0.3636851013761952 0.022974332750220237 -0.017958381831543795 0.64821781573380877 0.025397876092745398 0.35782192854612183 0.1127290897059416 0.061456124980233132 0.35475219798434204 0.11263020446154337 0.0019583781925116553 0.64525664644492986 0.043302526253803098 0.67614052535119429 -0.02087043063676414 0.22161729426245033 0.1684105277289992 0.3088739856987659 0.43611487947931171 0.014171962704608543 -0.0044324361698126133 0.51913660282576835 0.19416010865892408 0.25028851161305576 0.020200067080729734 0.19676190799839544 0.42434941806681126 0.25309590848293384 0.1368472063447029 0.25729721669959338 0.12478010985790489 0.10575164864868936 0.032211029909283227 0.039094986183733978 0.047425029624526341 0.084422364053832272 -0.023801413255623707 0.049989426720516074 0.26329530892922004 -0.03502086393142452 0.15523960959616545 0.007847434559490921 0.17808330348656662 0.098137941086725453 0.053189276348466243 0.14691304892714355 -0.024157193595810384 0.013027411256982258 0.11146087452519493 0.45536661841134801 0.093783637450715995 0.017477023464534815 0.16811950017590044 0.2686758055420605 -0.044018772344171696 0.091956069862813045 0.12094555686237081 -0.019598546730067789 0.16170444926133626 0.35314304611655017 0.12298825318808933 0.18083011805631405 0.055623765042217922 -0.0089130543513560988 -0.025154919350248901 -0.039362741536673684 -0.010991873463644594 0.010595640274372809 0.068097745268363069 0.10261310168315059 0.10057819102247514 0.36243766930244764 0.19701812009038777 0.20702978444266701 0.063437587073760696 0.2092159552078374 0.28379638788374084 -0.014759523994647868 0.75879428034595076 0.19505359471581485 0.16209711753943767 0.18187849772292364 -0.02444299740706328 0.059648160142504382 0.035542440655795517 0.13481021538000632 0.09394482183353664 0.3493426495499708 0.16747968035287406 0.54084648322436091 0.28257713550703412 0.11842670321387516 0.098498452634827399 0.086112398847014285 0.011085624486143496 0.081805838548784537 0.0067962478524506128 0.20321603734590013 0.17127237270284759 0.071923840809697853 0.01192961432507441 0.062654899039238765 0.085852893445196463 0.047180645861332908 0.10134110019088607 -0.0032861193623420245 0.032105128884248393 0.062303658509652519 0.24923132721541341 0.045431348021305357 0.24383838440976355 0.085415984150121027 0.13356059949984098 0.13455746878316621 0.14256004895215241 -0.028682284837904359 0.28513124054235822 0.050661008118754493 0.074108640796359801 0.24744840822268196 -0.027775828813848553 -0.049049315381507759
leaf_weight=95276.968662977219 3537.5939295291901 2143.0738966464996 5490.3070085048676 1172.551896572113 388.28241539001465 241.13527202606201 17432.396061897278 47288.016459941864 90.342870712280273 13530.597796201706 1180.5981349945068 2780.3554818630219 7992.0472848415375 217.6799099445343 637.15188813209534 85730.872850894928 913.09011888504028 2737.1713409423828 123.86811590194702 16675.315546989441 169.0769476890564 5757.6605088710785 183.34867095947266 71.117292165756226 870.22231078147888 27174.510093688965 65.821648120880127 1287.5228834152222 1979.7407457828522 5942.2500956058502 3375.8295469284058 133.61044406890869 2191.5258910655975 8339.970202922821 455.30290555953979 2323.5876457691193 738.05880641937256 3147.105895280838 9258.4924023151398 46468.546363592148 5261.3124957084656 37468.444820165634 4431.675920009613 410.02835750579834 165858.14026880264 4114.8090028762817 9220.7544372081757 1319.2981905937195 9494.4742910861969 4697.2043330669403 5860.9994101524353 189392.20817637444 9709.4994521141052 15134.135104417801 399.62619543075562 4055.4789664745331 81368.233554840088 2459.4091069698334 2344.8066916465759 279958.74826312065 2043.7158651351929 3533.3708968162537 77791.769602775574 2169.1546931266785 1018.1583247184753 4159.5530157089233 357.12474036216736 13427.172496557236 128374.22264361382 31624.282610177994 193289.64258933067 32143.17595410347 22122.794459581375 1044.3628263473511 2881.1258072853088 1071.1394183635712 123.04343748092651 841.61500811576843 2933.2223596572876 31572.15350484848 9353.112007856369 3233.1651923656464 73368.458181619644 600.22102928161621 222.29975700378418 10192.05841755867 3005.682445526123 2070.2798702716827 6279.6690995693207 47797.711824655533 11127.685326099396 9514.5283877849579 4126.9908230304718 331.63308143615723 910.65697908401489 3154.8537514209747 757.98781442642212 3140.998619556427 136.37281608581543 13559.934927463531 9645.8909664154053 36830.814041376114 2711.7010564804077 1767.1805036067963 2646.7261533737183 62859.638774394989 19129.57001709938 11342.214856386185 8584.8357925415039 195.42482900619507 105302.06432986259 59902.337126970291 1426.0567660331726 8355.8644306659698 10829.345173120499 977.90912175178528 22715.889283895493 14281.606851816177 5448.7781579494476 136.6614625453949 144810.72825312614 564.7939920425415 14498.480422735214 7342.1547470092773 2313.963862657547 9001.7612454891205 201560.92542147636
leaf_count=47098 1524 771 2398 170 131 50 7435 21942 10 5761 234 986 3142 49 224 38156 69 1167 10 7849 53 1758 52 14 360 12327 8 355 509 2588 976 27 561 2672 122 834 254 1291 3763 18795 1917 17535 1849 107 78953 1292 3999 411 3434 1814 1984 88285 4245 5274 64 1476 34894 763 603 135717 766 1250 35805 644 204 1407 108 5294 58186 14912 92757 14601 9733 427 1046 381 29 251 835 12304 2577 722 33677 31 56 3182 889 924 2411 19801 3816 3437 772 112 101 737 275 1173 52 5859 3605 16007 782 529 1011 27423 7502 4176 3471 67 47167 24928 569 2084 4479 266 8488 4721 1760 44 68154 131 5849 2737 596 4308 98525
internal_value=0 0.107558 -0.0195327 0.232331 0.0801456 0.215362 0.0100523 -0.0343489 0.113196 0.00221015 0.259724 0.0576239 0.0350015 0.0957341 0.0494609 -0.000763854 0.575003 -0.0235356 0.237447 -0.0431622 0.029602 0.167361 0.0458794 0.143578 0.129088 -0.0256057 0.0909375 0.235552 0.14166 0.0421018 0.137737 0.0883687 0.179897 0.173439 0.322022 0.0964113 0.211037 0.0872879 0.0406303 0.0562492 0.0951187 -0.0392961 0.056149 0.0857116 -0.0302026 0.169408 0.0349174 0.19429 0.104905 0.0920923 0.104743 -0.0199304 -0.00846438 0.125003 0.331498 0.125185 0.0101751 0.194173 0.213343 -0.0404093 0.0385947 0.0790862 -0.0117768 0.213692 0.258353 0.159522 0.247132 0.0685846 -0.012945 -0.0410546 -0.037365 -6.70344e-06 -0.00219122 0.0171179 0.0820969 0.164299 0.124201 0.124272 0.234417 0.0539031 0.204237 0.303597 -0.0215332 0.690289 0.324812 0.150762 0.148777 0.0187839 0.0831698 0.0330624 0.109566 0.115974 0.358703 0.0562702 0.491256 0.251911 0.0402247 0.109156 0.213858 0.0249347 0.0665694 0.00848656 0.174297 0.181206 0.0999512 0.0061766 0.0644412 0.0762872 0.0529609 0.211021 -0.00201023 0.0333264 0.0791902 0.241879 0.0315794 0.197123 0.0798354 0.137092 0.139661 0.246734 -0.0320663 0.213539 0.0557628 0.0847165 0.258418 -0.0502287 -0.0481399
internal_weight=0 423179 2.35588e+06 76225.5 346953 72628.9 786130 1.56975e+06 140609 598124 37745.1 206344 188006 89290.1 165733 556627 3596.52 704895 28804.7 864856 169914 34883.8 158600 51319.4 7133.59 647892 40610.6 28680.9 50773.7 41497.7 48055.9 81174.8 27032.3 24840.8 545.646 57713.4 2717.8 39225.5 90217.2 81501.4 57222.7 559016 25896.8 18092 357957 8115.33 77098.3 1385.12 10099.9 36078.4 20039 289935 326668 30328.5 8940.38 9916.48 229959 13495.1 7737.44 521548 67877.5 10611.8 215875 14642.2 14038.7 17727.4 490.735 23461.3 206166 504873 224914 57003.1 54266 79696.9 3751.35 7897.65 7851.56 30257.4 5278.03 78040.7 12087.1 4413.76 262761 1513.31 1240.46 14351.6 11345.7 15600.9 31319.1 51335.3 25903.5 20642.2 4526.62 28719.7 2083.21 12798.2 15285.1 3460.72 319.721 41821.7 23073.1 37875.2 6826.51 3382.24 6180.1 148591 19461.2 16039.4 9342.82 605.453 110792 61497.5 1595.13 9643.39 28261.7 2745.09 28995.6 15123.2 5708.48 259.705 310669 9917.91 16542.2 10122.5 2555.1 305840 210563
internal_count=1242034 151207 1090827 20292 130915 19921 343287 747540 49292 265403 9236 81623 77884 32572 66740 248274 371 328839 7444 418701 71134 10685 64315 16720 2425 303338 14883 7434 16588 17129 15825 30068 8081 7520 132 21038 763 14464 36927 32376 20903 268770 10444 6750 169049 2504 31939 419 3608 13173 7183 134289 147801 10260 1792 3460 100473 3959 2201 251235 27940 4110 98236 3998 3436 5565 135 9030 93991 243386 107669 25501 24334 34207 1406 2455 2604 10246 1438 31099 3352 956 121962 100 260 4589 3561 6685 11733 21325 9170 7253 836 11377 271 3176 6334 1277 104 17773 8899 16434 2074 1019 2261 65579 7614 5990 3746 174 49565 25550 622 2439 11914 795 10899 4972 1833 73 147107 2708 6615 3723 646 149931 102833
is_linear=0
shrinkage=0.1


Tree=2
num_leaves=128
num_cat=0
split_feature=23 53 23 77 14 53 23 23 23 24 77 23 24 23 24 14 24 24 23 87 23 23 76 24 24 23 67 53 53 136 78 20 14 20 77 40 134 20 67 24 67 101 98 134 134 24 67 76 23 67 23 23 37 40 125 24 24 24 20 24 134 24 24 137 67 67 24 2 20 7 101 24 107 24 53 24 23 24 24 104 20 24 134 24 23 40 24 14 65 24 67 24 24 24 134 24 134 24 24 32 46 20 134 134 52 67 24 14 2 23 67 34 134 134 78 132 60 104 54 30 134 67 20 104 67 24 67
split_gain=440579 99171.7 78192 29089.4 16123.1 12226.5 10031.5 9605.85 5535.6 5179.69 4709.36 3973.87 3768.55 3767.88 3699.87 2879.55 2876.14 2459.09 2278.29 1949.1 1774.17 1411.22 1406.33 1393.76 1350.38 1246.98 1090.84 1057.5 1047.47 1034.81 984.631 960.579 958.113 885.753 880.944 876.029 868.394 862.664 784.09 769.447 758.417 741.824 712.817 700.009 695.359 676.714 663.602 661.749 634.485 624.368 614.285 604.392 571.297 566.497 536.736 528.188 629.096 517.314 516.068 510.85 509.003 508.949 828.545 563.434 505.427 503.602 500.035 595.89 492.554 492.401 483.343 481.053 570.34 508.895 479.268 470.51 467.428 461.321 449.457 444.607 429.268 407.265 406.742 402.046 399.257 395.931 387.312 380.309 365.735 358.474 357.341 355.463 353.347 485.682 352.639 350.084 463.737 344.411 501.544 341.748 335.963 327.762 326.977 326.372 320.908 320.091 318.327 313.802 309.949 309.256 491.627 308.976 307.119 304.156 300.925 296.562 346.148 315.187 293.793 285.239 284.206 282.863 278.46 277.633 276.468 272.887 272.003
threshold=2.6005859375000004 7.5000000000000009 1.1645507812500002 30.648437500000004 3.3564453125000004 2.0712890625000004 6.6171875000000009 0.68188476562500011 3.9843750000000004 345.00000000000006 76.406250000000014 1.7397460937500002 345.00000000000006 4.2050781250000009 350.50000000000006 14.929687500000002 345.00000000000006 345.00000000000006 1.7993164062500002 1.7856445312500002 3.7509765625000004 0.40124511718750006 2.3593750000000004 345.00000000000006 347.00000000000006 0.93041992187500011 4.8828125000000009 5.0722656250000009 10.640625000000002 1.0000000180025095e-35 3.3564453125000004 1.5000000000000002 1.6425781250000002 1.5000000000000002 149.50000000000003 1.0712890625000002 1.5000000000000002 1.5000000000000002 0.21881103515625003 353.00000000000006 0.10018920898437501 1.5000000000000002 8.5000000000000018 1.0000000180025095e-35 1.5000000000000002 13.000000000000002 0.38391113281250006 2.3593750000000004 1.5942382812500002 1.2641601562500002 1.7397460937500002 5.7695312500000009 0.10913398861885072 6.5000000000000009 0.39282226562500006 91.500000000000014 226.00000000000003 98.500000000000014 1.5000000000000002 338.00000000000006 1.0000000180025095e-35 231.50000000000003 112.50000000000001 0.89282226562500011 10.929687500000002 0.21319580078125003 342.00000000000006 0.59936523437500011 1.5000000000000002 2.1230468750000004 1.5000000000000002 202.00000000000003 7.5097656250000009 345.00000000000006 0.92846679687500011 5.5000000000000009 8.6445312500000018 350.50000000000006 338.00000000000006 0.34289550781250006 1.5000000000000002 219.00000000000003 1.5000000000000002 331.00000000000006 0.96459960937500011 9.5000000000000018 98.500000000000014 29.500000000000004 3.8925781250000004 231.50000000000003 2.0683593750000004 41.000000000000007 91.500000000000014 233.00000000000003 1.5000000000000002 353.00000000000006 1.5000000000000002 133.50000000000003 233.00000000000003 0.75000000000000011 0.15753173828125003 1.5000000000000002 1.5000000000000002 1.5000000000000002 1.5000000000000002 10.929687500000002 77.500000000000014 5.9277343750000009 0.59936523437500011 0.52270507812500011 0.18609619140625003 0.39477539062500006 1.5000000000000002 1.0000000180025095e-35 0.78564453125000011 1.0712890625000002 11.652343750000002 0.62695312500000011 254.50000000000003 3.2782554626464849e-07 1.5000000000000002 0.97290039062500011 1.5000000000000002 2.9638671875000004 0.78295898437500011 5.5000000000000009 0.86083984375000011
decision_type=2 2 2 2 2 2 2 2 2 2 2 2 2 2 2 2 2 2 2 2 2 2 2 2 2 2 2 2 2 2 2 2 2 2 2 2 2 2 2 2 2 2 2 2 2 2 2 2 2 2 2 2 2 2 2 2 2 2 2 2 2 2 2 2 2 2 2 2 2 2 2 2 2 2 2 2 2 2 2 2 2 2 2 2 2 2 2 2 2 2 2 2 2 2 2 2 2 2 2 2 2 2 2 2 2 2 2 2 2 2 2 2 2 2 2 2 2 2 2 2 2 2 2 2 2 2 2
left_child=2 4 7 6 13 9 20 21 14 11 59 41 18 16 44 29 32 25 94 22 106 -1 90 28 27 38 37 79 53 47 -20 95 52 102 -12 112 101 76 -9 -38 -23 -4 -17 -43 61 64 -27 -8 118 -16 -14 92 113 80 -52 -31 58 -44 81 87 -13 62 63 -6 -28 -19 -58 -68 121 -54 -62 72 -59 105 -45 -46 78 109 91 -21 -22 -57 99 -77 -67 -30 -55 -5 -47 -88 -10 104 -29 -94 -7 -18 -97 -87 -99 122 -33 -11 -26 -40 -15 -73 -3 -92 -75 -42 -111 -93 119 -2 126 116 -39 -117 -41 -34 -56 -64 -32 -81 -50 -96 -72
right_child=1 3 5 10 8 12 15 17 19 36 34 60 50 26 49 42 31 65 30 24 23 40 -24 -25 33 46 45 51 85 55 82 100 35 -35 -36 -37 39 115 103 48 77 43 57 74 75 88 -48 -49 124 -51 54 -53 69 86 120 56 66 71 -60 -61 70 -63 68 -65 -66 84 67 -69 -70 -71 114 73 -74 108 -76 83 -78 -79 -80 123 -82 -83 -84 -85 -86 97 89 -89 -90 -91 107 111 93 -95 125 96 -98 98 -100 -101 -102 -103 -104 -105 -106 -107 -108 -109 -110 110 -112 -113 -114 -115 -116 117 -118 -119 -120 -121 -122 -123 -124 -125 -126 -127 -128
leaf_value=-0.048239922330990927 0.052440941294029986 0.06096428824208662 0.0083508417870174958 0.29156955669660389 0.15759168669669033 0.013326665559215124 0.22833546703595556 -0.013584550699557982 0.31690020024007132 0.018874385046096308 0.46791314769115955 0.011759569771119173 0.040885389316077748 0.1779151611931642 0.25318844777593813 0.43197442208824344 0.077778761486377121 0.031542327889209347 0.021544687538451516 0.37578584407048449 0.13347007844996694 -0.01854413669923257 0.48236894671722541 0.19591966595286231 0.14832360091226507 -0.010551665304668539 0.15421719835912129 0.076222507774367579 0.18493517954740743 0.13543413463846707 0.045732065496089415 0.22011967428221257 0.14492416765370669 0.068652942723220561 0.61498475446240386 0.036866206712599769 0.020011151914167628 0.013719077496948366 -0.027082302323228877 0.052868934826657957 -0.043981631709469469 -0.0056609801032873955 0.18269160926846686 -0.019209168608788449 0.14266284003155041 0.079959571844897187 -0.024245649770323771 0.44294937586499777 0.11266269567246262 0.12858106781855869 0.16502966189020685 0.12550125880210869 0.011706441600430845 0.090064850474252736 0.052938861255717978 0.17164846836032277 0.14958724596182188 0.23665677369972499 0.23359642012371951 0.45422880778843944 0.027907079644887298 0.0571968774503855 0.28068078215508585 0.052104190756151615 0.38983207656648311 -0.01464113604869779 0.26166606785135416 0.15150809021374248 0.10790270173557709 0.032601510288454115 -0.024607521616372481 0.20152086533898134 0.31325237514104515 0.3276287614071805 -0.010533561316829605 0.04514919229821359 0.35661220926917614 -0.027446643449932237 0.12465903803975197 0.074546544959885094 0.19732229660460388 0.2758538492000655 0.027928633102434566 0.08608110187022959 0.0029098529660512955 0.11634907367605968 0.13596223723545936 0.36284797137820468 0.13550967075155501 0.1074968946296388 0.14148834544180031 0.074556924133317479 0.11913449924066018 0.090248370515666643 0.048525715547636468 0.083672571905199805 0.1450584863164753 0.17150605176416825 0.1253894566368931 0.038856913551743408 0.012254522991229585 -0.014525539183888096 0.20633454889493971 -0.034106746963176393 0.086202073295774187 0.2500555439806873 0.102353281090026 0.22133419599386947 0.21948510474458938 -0.029738352639530598 -0.040605803946937406 0.047932315475712362 0.046463640423715216 0.02669395608475409 0.0038808856343441819 0.23827693130286873 0.26256893537193365 0.048824624199669098 0.02029246460706555 0.077231472737278137 0.082250797031914236 0.076181882399562639 0.078381871109597115 0.094476201618039657 0.065378784907443407 -0.0013307187658675463 -0.0029352001330339959
leaf_weight=240922.19958662987 9011.9359951019287 2637.0218796730042 18606.346307039261 2647.8778381347656 527.1244330406189 39896.38130736351 1626.5402719974518 23982.51485991478 137.50939059257507 12173.293802976608 1480.6561350822449 86741.634916305542 8265.7609829902649 432.81747817993164 426.54738640785217 168.63214683532715 3875.6480276584625 3373.3077917098999 82134.387039422989 51.408379554748535 3709.8927476406097 17834.908199548721 138.46995568275452 3906.4424571990967 2837.8772995471954 41651.366668462753 942.6692259311676 5639.1221280097961 3238.2568497657776 4046.1399440765381 5396.0028791427612 81.303454399108887 734.08409214019775 1127.7596940994263 561.81321811676025 82001.906532764435 12041.16651892662 3792.7243247032166 89302.018681168556 5984.3543109893799 154386.28698372841 115734.42866301537 2430.6661427021027 132437.32701849937 541.86112570762634 5970.8711249828339 235301.24109649658 157.59422755241394 1605.0817697048187 7021.111643075943 633.55438685417175 11841.958296298981 33528.344653367996 4905.8115696907043 5392.2193696498871 5146.8709831237793 8981.8163294792175 3401.4753975868225 2548.7511236667633 269.93484973907471 6714.74205493927 23400.849142789841 67.94001030921936 12840.581786155701 100.77751898765564 35557.144085884094 959.24336266517639 1006.1118016242981 7846.6339058876038 16994.410645961761 7042.4178028106689 6741.0488953590393 1361.1476058959961 651.86604499816895 122644.19180703163 27992.423469305038 58.027088403701782 29175.117051482201 1537.0615880489349 20158.002336502075 1470.0867109298706 404.53585004806519 17928.085264921188 2624.6726431846619 20396.147874355316 3034.5417814254761 8904.41774559021 1043.5615997314453 1478.744472026825 8792.6660854816437 3428.5796370506287 9871.8690559864044 11196.315019130707 12123.202972888947 1129.4844188690186 2210.6641280651093 2776.0277693271637 6482.2558841705322 3706.8413527011871 18209.788647413254 1781.5162978172302 3872.8496420383453 1477.4721701145172 255061.40249621868 3219.0691485404968 1701.9092030525208 6292.2216067314148 574.71750450134277 446.59530329704285 52978.292823314667 194289.8165358305 7804.7365627288818 2925.4703624248505 9347.0127763748169 79487.837265968323 88.729673147201538 56.733009099960327 8518.0182147026062 5151.6218280792236 4094.3831276893616 8557.252569437027 15241.50464630127 5063.2675268650055 10700.286282777786 5385.9562838077545 39190.906960964203 32592.72305226326
leaf_count=123431 3523 925 8200 358 153 17070 346 11326 28 5135 96 37582 3239 118 90 19 1381 1458 34240 8 1072 8663 16 874 724 19405 277 1847 808 1037 2107 23 243 373 24 32254 5122 1518 43372 2331 78144 52519 509 62114 170 1969 112450 16 520 2017 180 3376 14005 1510 1965 1201 2196 625 521 26 2844 8467 18 4724 15 16534 180 226 2600 6854 3229 1308 208 95 56395 10603 12 14085 476 6887 372 84 7234 919 9042 863 2458 106 449 2587 994 3458 3445 3890 457 751 740 1573 992 7157 720 1722 344 125197 1071 291 1922 132 76 26138 97274 2852 1127 3820 34847 27 17 3168 2123 1518 2950 5378 1842 3496 1925 17336 14541
internal_value=0 0.0848971 -0.0189446 0.171303 0.061853 0.00439454 0.158323 -0.033676 0.0838952 -0.00265402 0.385025 -0.00513076 0.0241057 0.0432501 0.067951 0.195556 0.0364844 -0.0254646 0.0198892 0.103187 0.13107 -0.0420665 0.168879 0.138662 0.0995436 -0.0272558 0.0693674 0.0958987 0.133607 0.173916 0.028132 0.0866029 0.033096 0.147563 0.508367 0.0399041 0.0296088 0.0616418 -0.0310676 0.0396061 -0.0387515 -0.0111336 0.227405 -0.0121113 0.0624099 0.10155 -0.0221862 0.247293 0.0526223 0.135718 0.0626643 0.106468 0.0242248 0.121763 0.0750087 0.168247 0.175217 0.225343 0.196345 0.321431 0.00586583 0.0687104 0.0760871 0.0562638 0.176973 -0.00598122 0.159585 0.205274 0.0875308 0.0187349 0.00180319 0.232591 0.258548 0.219635 -0.0150379 0.0502929 0.0731523 -0.0395881 0.0724329 0.0819468 0.151591 0.179242 0.0397432 0.0486581 -0.00824343 0.153596 0.114927 0.31172 0.0909862 0.121819 0.158396 0.0686692 0.0986854 0.104117 0.00666123 0.100324 0.117845 0.145921 0.154729 0.0471315 0.0213269 0.0108131 0.168185 -0.0322851 0.0970718 0.211304 0.0901301 0.152951 0.283661 -0.04047 -0.0382774 0.0628014 0.0720318 0.0393325 0.000331763 0.0404586 0.0173866 0.0507777 0.0377987 0.087523 0.0709202 0.0770894 0.0615376 0.0814573 0.0762348 6.58963e-05 -0.00678596
internal_weight=0 498065 2.27422e+06 104865 393199 880013 98861.4 1.39421e+06 179964 648216 6003.84 602002 231797 213236 98531.3 41780.9 169363 704625 208948 81432.7 57080.5 689587 4279.28 48151.2 77153.4 645299 43872.8 71710.3 44244.8 24877.6 128732 10725.2 158638 5443.11 2042.47 89755.8 46214.3 35379.8 368346 30168.2 448664 389422 16903.3 370816 91083.6 8493.06 276953 1784.13 18127 7447.66 22848.8 40800.6 68881.7 27782.9 14583 23093.5 19047.3 16734.7 8100.16 3961.37 212579 59924.6 36523.8 13367.7 1043.45 59326.6 10947.2 1965.36 23156.1 50522.8 125838 14304 4762.62 9541.42 255082 31159 22923.6 430830 22865.6 30909.7 5179.98 5551.41 46597.1 30617.1 55953.3 16461.9 22602.9 3691.44 7449.62 17697.1 4140.81 21328.5 28958.6 23319.5 80216.8 8862.34 4986.69 13223.6 10189.1 28669.1 1862.82 16046.1 4315.35 344363 3651.89 8442.96 8929.24 4003.3 1098.46 401654 247268 17676.6 7753.94 18358.9 119123 12456.2 3849.46 8606.75 11136 4828.47 13949.5 15309.4 10459.3 30858.3 6991.04 40320.4 39635.1
internal_count=1242034 168589 1073445 25504 143085 386926 24894 686519 60699 291149 610 272271 95777 82386 35139 8938 66959 338784 87443 25560 15956 347735 1170 13109 24390 311750 15427 22949 12235 5807 52580 3615 63344 1441 120 35142 18878 12717 179895 12021 224304 179228 3131 171028 33032 2710 131855 362 6899 2107 8334 12558 28202 7999 5095 5445 4408 3112 1806 490 93043 21340 12873 4877 292 27034 2602 406 7996 20859 55461 2603 833 1770 118509 11692 7987 215641 7975 10391 1444 1285 18340 11522 25576 4236 6555 464 2418 5045 1154 7499 9182 7335 34863 2872 1491 3428 2565 11106 743 6857 1068 168569 1189 1599 2847 1126 171 201556 123412 6310 2888 7343 52617 4730 1535 3195 4454 1761 4915 5396 3949 10383 2445 17793 17770
is_linear=0
shrinkage=0.1


Tree=3
num_leaves=128
num_cat=0
split_feature=23 53 23 77 78 23 53 23 80 23 23 8 8 23 23 53 8 8 23 48 104 8 80 134 8 96 23 8 48 77 3 78 80 67 48 80 42 23 96 80 96 96 8 80 80 8 53 8 53 89 73 23 96 26 67 96 8 80 32 23 134 101 23 67 23 101 114 134 117 80 85 23 87 123 67 98 32 134 13 80 8 8 134 67 8 20 8 20 80 134 8 57 67 95 37 23 32 68 23 52 54 23 67 46 51 8 23 134 67 134 137 13 54 44 50 96 23 101 8 20 96 12 74 60 50 114 54
split_gain=340434 72175.6 57036.1 19133.6 11167 8571.17 7814.07 6350.16 4492.85 4144.07 3126.34 3084.21 2434.47 2213.06 1821.24 1676.2 1655.19 1605.52 1525.05 1423.17 1227.91 1154.65 1138.29 1018.66 995.583 983.176 972.973 972.799 917.099 897.899 842.444 796.747 739.659 723.7 696.763 682.637 678.276 676.233 668.953 679.741 652.005 650.631 641.505 610.221 589.441 573.068 553.452 528.029 517.936 511.823 504.374 498.171 479.639 479.287 470.49 470.153 442.973 500.921 454.457 435.598 435.266 433.525 424.969 549.608 410.669 410.576 405.49 402.151 395.413 458.945 394.886 383.57 383.297 381.225 377.736 371.521 364.545 359.994 358.171 350.893 346.042 540.049 336.128 335.479 334.54 566.767 422.785 383.583 325.979 324.262 315.965 325.334 373.371 312.626 297.225 285.062 277.289 274.803 307.954 273.003 264.256 261.851 363.155 261.615 258.18 256.185 254.554 254.035 246.696 245.109 244.891 333.015 243.254 240.037 251.591 267.859 233.079 232.967 230.816 279.242 226.654 224.639 218.861 277.697 218.037 218.008 216.638
threshold=2.4208984375000004 6.7851562500000009 1.1645507812500002 23.789062500000004 3.0712890625000004 0.71313476562500011 1.6425781250000002 5.7695312500000009 8.5000000000000018 3.9326171875000004 3.6611328125000004 11.500000000000002 11.500000000000002 1.5776367187500002 1.7319335937500002 12.500000000000002 11.500000000000002 11.500000000000002 0.42736816406250006 1.0000000180025095e-35 0.27465820312500006 11.500000000000002 65.500000000000014 1.5000000000000002 11.500000000000002 19.500000000000004 3.7509765625000004 11.500000000000002 1.0000000180025095e-35 111.31250000000001 0.72290039062500011 3.3564453125000004 24.500000000000004 0.12265014648437501 1.0000000180025095e-35 6.5000000000000009 0.67260742187500011 5.6816406250000009 19.500000000000004 26.500000000000004 19.500000000000004 19.500000000000004 3.5000000000000004 35.500000000000007 6.5000000000000009 8.5000000000000018 1.6425781250000002 3.5000000000000004 1.0712890625000002 1.1191406250000002 4.9277343750000009 0.90112304687500011 19.500000000000004 1.2143554687500002 0.24603271484375003 19.500000000000004 7.5000000000000009 55.500000000000007 0.67871093750000011 1.6547851562500002 1.5000000000000002 1.5000000000000002 0.58129882812500011 0.20172119140625003 3.4111328125000004 1.5000000000000002 0.34643554687500006 1.0000000180025095e-35 0.45507812500000006 64.500000000000014 1.9970703125000002 10.246093750000002 0.92846679687500011 0.75000000000000011 6.8750000000000009 4.0722656250000009 3.2500000000000004 1.0000000180025095e-35 1.221895217895508e-06 52.500000000000007 8.5000000000000018 4.5000000000000009 1.5000000000000002 1.2641601562500002 8.5000000000000018 1.5000000000000002 11.500000000000002 1.5000000000000002 22.500000000000004 1.5000000000000002 11.500000000000002 4.9648437500000009 7.2675781250000009 1.0000000180025095e-35 0.10913398861885072 0.54370117187500011 0.32141113281250006 4.4648437500000009 8.0234375000000018 1.5000000000000002 293.50000000000006 0.23919677734375003 0.043655395507812507 0.50854492187500011 1.0239257812500002 8.5000000000000018 0.93383789062500011 1.5000000000000002 0.21881103515625003 1.5000000000000002 4.5351562500000009 1.4603137969970705e-06 76.500000000000014 15.500000000000002 3.5000000000000004 26.500000000000004 1.6606445312500002 1.5000000000000002 4.5000000000000009 1.5000000000000002 26.500000000000004 9.1054687500000018 1.9287109375000002 14.847656250000002 4.5000000000000009 0.44616699218750006 280.50000000000006
decision_type=2 2 2 2 2 2 2 2 2 2 2 2 2 2 2 2 2 2 2 2 2 2 2 2 2 2 2 2 2 2 2 2 2 2 2 2 2 2 2 2 2 2 2 2 2 2 2 2 2 2 2 2 2 2 2 2 2 2 2 2 2 2 2 2 2 2 2 2 2 2 2 2 2 2 2 2 2 2 2 2 2 2 2 2 2 2 2 2 2 2 2 2 2 2 2 2 2 2 2 2 2 2 2 2 2 2 2 2 2 2 2 2 2 2 2 2 2 2 2 2 2 2 2 2 2 2 2
left_child=2 4 5 7 10 18 13 21 29 12 16 14 32 24 60 34 46 23 101 20 -11 26 28 48 61 116 88 65 37 76 66 89 -6 95 70 -17 -27 73 -18 83 -14 -19 -21 112 -39 -31 68 -36 108 -42 -44 -25 -26 99 -43 -29 57 104 -59 -38 96 -4 -35 -64 80 -15 -22 -67 125 93 -9 97 -48 94 -32 -52 -5 -63 -75 120 81 -55 -57 -40 85 121 -86 -88 -3 105 91 -37 -93 -70 -12 -20 -8 98 -10 -34 -41 -1 -103 126 -45 118 -56 -33 -7 -54 111 -46 -28 114 -23 -116 -13 -53 -16 -120 -51 -49 123 -24 -105 -2 -61
right_child=1 3 6 8 9 17 11 15 71 19 22 25 40 27 31 35 38 41 33 42 30 113 122 51 52 36 43 55 -30 45 74 107 53 62 47 90 59 44 39 100 49 54 50 56 110 -47 72 84 -50 79 75 117 109 64 106 82 -58 58 -60 103 -62 77 63 -65 -66 67 -68 -69 69 -71 -72 -73 -74 78 -76 -77 -78 -79 -80 -81 -82 -83 -84 -85 86 -87 87 -89 -90 -91 -92 92 -94 -95 -96 -97 -98 -99 -100 -101 -102 102 -104 124 -106 -107 -108 -109 -110 -111 -112 -113 -114 -115 115 -117 -118 -119 119 -121 -122 -123 -124 -125 -126 -127 -128
leaf_value=-0.050277512892017276 0.012162482571421794 0.037620884840277168 0.0051879396012627131 0.39018775414085061 0.035814939176043718 -0.0021941552771446676 0.017133063435878972 0.33108152813437347 0.13650821095484764 0.4901674881989892 0.061169552236097983 0.010483174994655762 0.068624581968833961 0.018097877086779856 0.014510182301207883 0.35047109241738666 0.040140928359104669 -0.017400043384302826 -0.024794695882691783 0.053588703929590524 0.40049122688097738 0.12156358258810845 -0.0013181781533602632 -0.031141682848687902 -0.0043769077017960564 0.18164631318182933 0.047490650444157602 0.01052008385163669 0.040246019354756558 0.35265344617544048 0.095321739115212856 0.03760804453616369 0.21425650721757905 -0.039538536451741553 0.092531962040032403 0.17329622381106974 0.035677827845695058 0.31076773083304837 0.17044829053249996 0.074166214715045017 0.2061821975165779 0.038610462204338773 0.070023667306164397 0.25826505714381981 0.12089767644618132 0.47398330362502916 0.053630124428518278 0.11073001651613562 -0.0088397347703678113 0.13014650683998827 0.11749784592542925 -0.0074843139076994306 -0.00026992423358487952 0.036620224944296294 -0.011226164355399526 0.016131296052391032 0.091979674754050528 0.1618999240629726 0.11358341912122963 0.095325851166759068 -0.0041231570452670129 -0.008239852182830321 -0.022035066635668087 -0.035453079837089611 0.063965409755323097 0.0044261840063009273 0.17903601076442544 -0.0048567515256053607 0.040812921013460603 -0.0010915858214526912 0.16349277403456985 0.23743281351991699 0.026891547431646852 0.1262505875661904 0.14302760541463105 0.084568518146754187 0.27756767794928455 -0.016627273809618825 0.063138623097608315 0.054050140714259558 0.035447860105967594 0.062291529474483798 0.056139676925195475 0.094342736330684365 0.10664362517083521 0.17134806390694696 0.1669514205672131 0.094814515131590504 0.076514446347350759 0.0087953817362411008 0.19096886915005234 0.12885881694605342 0.15892139691522589 0.019550585816077874 0.024012147921081955 0.00099467658177831097 0.0023802625054327054 0.17603838508680036 0.24679260150094515 0.092802355580506549 0.017571643300733492 -0.020336758142948247 -0.043713169254828772 0.065096267481468059 0.10090301590157767 0.0093827040753028702 0.0068128220115552382 0.020299571906225323 -0.02250526042772584 0.029675012400089018 0.12677982238406402 0.06859778736311542 0.086456543256026641 0.096128508956641351 0.21389645968575655 0.14611776467950413 0.033053698424129009 -0.024688071452942561 0.023671826531669715 0.048370966976466562 0.093627147343004979 0.14273968828895237 0.038165884023389551 0.23422149484084459 0.024913000269699413 -0.025030165171867715 0.057302435035796663
leaf_weight=63519.909251213074 3056.3275144100189 2656.8642191886902 12223.875909566879 365.79877090454102 34672.443789482117 6305.4830086231232 21088.084890842438 147.24869537353516 309.70074439048767 83.785234451293945 3968.235077381134 7257.1747407913208 8242.0833547115326 11636.372328996658 14627.456630945206 186.93076610565186 11699.942928552628 44245.162564516068 27304.530800104141 11081.252314567566 92.758583784103394 2586.3281252384186 4614.2628695964813 188099.81599545479 19898.570556521416 420.60406851768494 1931.2632713317871 15011.830085992813 22308.444831848145 879.8314037322998 13737.404270172119 23042.584421396255 223.62570548057556 203735.74005889893 4953.8763787746429 7100.6583681106567 8262.8819282054901 119.82889628410339 732.07120585441589 1720.5193638801575 499.90897464752197 3023.2783377170563 26655.481485843658 105.31995797157288 1558.8281681537628 698.2208309173584 5766.9745721817017 4694.6544609069824 44354.992580890656 3236.2512540817261 3973.3056933879852 8204.8246513605118 3953.9105608463287 12775.112214326859 16540.985740184784 3556.556973695755 11862.721179246902 3620.1364707946777 4211.3469541072845 3667.6441924571991 61606.826486587524 73105.474447488785 36761.613204240799 179980.86636376381 21712.379793167114 76519.950273990631 761.06797504425049 119624.21578717232 7949.5411281585693 9705.9270339012146 3113.2672975063324 3860.7580165863037 76187.077992677689 943.94460725784302 1887.8482258319855 24884.461905241013 1341.4449996948242 170566.44722354412 18979.187782764435 1287.7507140636444 16167.329960823059 22856.232412576675 5127.2093734741211 2773.792772769928 10019.354839086533 3929.7828440666199 2598.371440410614 1029.0668740272522 11406.786446332932 55405.909332752228 2739.3145267963409 6491.8692712783813 11361.7420566082 53145.685659408569 4705.4482686519623 5084.1117613315582 32185.071307182312 2908.6045417785645 1387.7649230957031 1073.5220150947571 1585.1782591342926 6877.2013927698135 197372.37813341618 3652.02037358284 10371.157748937607 16663.876183748245 14841.728969812393 13417.078200340271 115812.88551294804 8855.6626341342926 1331.1833033561707 5559.8991243839264 9399.9287075996399 1264.6341645717621 794.92015147209167 2187.8286633491516 12380.820151090622 193652.72470283508 16249.576648712158 6372.4386582374573 3578.9284632205963 4113.3578991889954 2446.5136799812317 50.603477478027344 2142.5231397151947 3253.8791439533234 2533.4600491523743
leaf_count=34303 1282 942 5395 24 12895 2970 9017 20 55 7 1340 3114 2717 4915 6096 14 4441 21304 13783 3504 9 638 1934 94853 9011 117 578 6478 7907 42 4021 8724 51 105999 1237 1276 3163 13 167 577 94 1262 8467 19 434 24 2102 1120 21246 815 1076 3900 1698 4670 7688 1465 3182 784 1039 1154 27701 33623 18369 92237 7257 33546 167 54204 3087 4128 643 438 29797 276 460 7162 106 80814 6519 404 5909 7856 1718 735 2404 786 503 236 3455 23514 426 1323 2057 21626 1768 2400 14035 400 157 331 598 3558 104674 1243 2782 7000 6476 5388 56828 3460 361 1757 2616 308 150 466 4870 94669 6710 2549 959 890 912 13 757 1423 868
internal_value=0 0.066997 -0.018626 0.130713 0.0478066 -0.031223 0.00217418 0.119234 0.2527 0.0647452 0.033274 0.0149981 0.0533336 -0.00524717 0.0110169 0.141769 0.0263449 -0.0227531 -0.0386874 0.0820806 0.108312 0.096669 0.051753 -0.0246435 -0.0110892 0.0407375 0.0918985 0.00203666 0.0562741 0.35196 0.106371 0.0184372 0.0478883 -0.03515 0.127066 0.160015 0.0559553 0.0658947 0.0546456 0.0795597 0.0887245 -0.00937959 0.0755564 0.0996016 0.090535 0.406337 0.0230514 0.122489 -0.0180949 0.107981 0.0799415 -0.0274391 0.00533905 0.0534842 0.0009345 0.0212334 0.107033 0.116786 0.135918 0.0533457 0.00160078 -0.013189 -0.0362595 -0.0331773 0.0524209 -0.000152565 0.203095 -0.00123528 0.0169703 0.0191081 0.171061 0.214185 0.0287731 0.0585106 0.101086 0.0891024 0.301698 -0.0141109 0.0661288 0.101923 0.0475818 0.0530874 0.0397537 0.110235 0.128113 0.139768 0.117234 0.146487 0.0691668 0.0141678 0.15873 0.155191 0.14799 0.0223172 0.0410118 -0.0207465 0.00822013 0.194698 0.226671 0.113741 0.0470275 -0.04467 -0.0429261 0.0655158 0.102485 0.019689 -0.00269504 0.0312386 -0.0214565 0.020432 0.0874119 0.0800502 0.0798153 0.135458 0.144389 0.164181 0.0247128 -0.0239888 0.0242995 0.0306294 0.110969 0.125679 0.0139415 0.00123691 0.0502386 -0.00701603 0.0797914
internal_weight=0 590277 2.17677e+06 136631 453646 1.35572e+06 821056 124879 11752.1 209483 244163 300976 126326 520080 260659 62479.5 177577 635082 720636 83157.4 16562.9 62399.2 66586.4 556431 288604 40317.1 55565.5 231476 59475 3285.3 16479.1 145779 109481 452867 34599 27880.5 20679.1 37166.6 18511.5 6811.56 16844.9 78651.2 66594.5 41501.9 8569.74 1578.05 159065 31338.5 166473 8602.84 55513.2 389957 32708.1 74808.2 34406 23695.6 30170.7 18308 7831.48 20258.5 114880 255896 420478 216742 73511.1 207781 853.827 196144 77111.4 70801.2 3260.52 8466.83 81954.1 28596.8 15625.3 28857.8 1707.24 243672 19923.1 8102.93 51798.7 35631.3 8683.77 3505.86 26384.6 12737.8 13646.8 3627.44 14063.7 109319 27693.6 24954.3 17853.6 61095.2 8673.68 32388.6 53273.2 4606.07 1697.47 1297.15 3305.7 267769 204250 11995.6 10476.5 53913.3 31382.7 36459.7 122118 12809.6 8449.91 7118.73 11331.2 6833.71 5569.08 2982.75 19638 201858 37249.5 22622 6815.18 8808.01 7111.38 4664.87 5794.54 6310.21 6201.1
internal_count=1242034 193168 1048866 31140 162028 686519 362347 29894 1246 68831 93197 126020 43958 236327 110734 12935 69963 311196 375323 24873 4664 16959 23234 274466 134001 15286 15397 102326 20375 196 4657 59981 38969 232788 7839 5096 7302 12468 6518 2077 4989 36730 20209 11000 2565 66 63445 7176 81044 2272 16705 193422 14169 26074 15426 9661 7806 4624 1823 7185 50753 119832 216605 110606 25692 92665 176 87750 31546 28841 663 1050 31899 9903 4481 8238 130 114437 6795 2178 18435 12526 3183 902 5939 2796 3143 739 4397 45869 5082 4656 3380 24713 3108 16183 23052 612 212 382 1175 142535 108232 4022 2801 22355 14164 14112 59798 5158 2552 2191 3194 1562 1254 616 7984 98569 15355 9259 1774 2010 2859 1947 2000 2705 2022
is_linear=0
shrinkage=0.1


Tree=4
num_leaves=128
num_cat=0
split_feature=23 53 23 23 23 23 53 80 24 23 78 24 24 78 23 24 77 136 23 77 104 104 23 117 24 23 82 24 80 80 20 24 114 3 78 24 134 23 98 134 24 24 24 87 24 134 24 20 101 77 117 136 126 134 25 134 24 24 134 101 134 134 132 26 107 74 46 23 24 54 32 33 76 24 20 32 24 54 37 134 95 32 20 2 24 24 24 23 80 7 82 40 24 83 20 32 101 24 24 8 25 24 54 24 24 24 80 24 78 24 24 20 24 31 80 20 104 24 24 24 134 116 33 114 74 47 54
split_gain=266653 55192.1 41059.2 13666.6 8655.74 5759.65 5703.89 5699.39 4276.49 2769.54 2465.54 2340.61 2146.94 1992.76 1906.87 1575.97 1401.42 1188.7 1184.58 1126.65 1035.5 891.507 887.83 821.136 797.98 787.055 740.84 681.654 609.971 554.161 549.661 522.343 514.65 491.865 490.067 482.041 473.194 470.698 461.168 449.717 473.379 481.81 464.86 441.006 440.49 421.216 419.993 417.055 404.858 401.086 393.56 391.445 382.966 380.36 364.885 356.818 356.019 438.056 340.988 352.879 334.656 331.011 319.154 454.919 340.343 313.115 306.02 303.799 299.476 310.283 299.359 317.608 300.219 298.768 371.23 325.513 298.273 296.493 293.533 286.806 283.605 276.439 292.896 275.066 274.758 441.978 268.3 298.329 266.553 266.204 266.177 261.646 260.534 254.722 251.231 248.14 245.199 244.012 242.258 241.774 288.896 241.487 252.861 238.332 235.869 471.025 479.873 235.064 230.132 227.871 488.154 231.404 222.024 241.996 221.174 219.772 216.804 213.709 212.117 211.091 209.59 209.09 231.314 205.742 203.981 203.253 202.462
threshold=2.2197265625000004 6.0722656250000009 1.0688476562500002 8.0234375000000018 3.4619140625000004 0.62915039062500011 1.6425781250000002 8.5000000000000018 345.00000000000006 4.7089843750000009 2.6435546875000004 345.00000000000006 345.00000000000006 2.9287109375000004 1.4497070312500002 345.00000000000006 19.500000000000004 1.0000000180025095e-35 1.5717773437500002 10.640625000000002 0.27465820312500006 2.9951171875000004 0.37829589843750006 0.38183593750000006 343.50000000000006 0.85815429687500011 189.50000000000003 338.00000000000006 32.500000000000007 65.500000000000014 1.5000000000000002 349.00000000000006 0.37817382812500006 0.18896567821502688 2.6435546875000004 364.50000000000006 1.0000000180025095e-35 5.0976562500000009 9.5000000000000018 1.5000000000000002 226.00000000000003 107.00000000000001 5.5000000000000009 4.5000000000000009 331.00000000000006 1.5000000000000002 356.00000000000006 1.5000000000000002 1.5000000000000002 2.6435546875000004 0.38439941406250006 1.0000000180025095e-35 0.46423339843750006 1.5000000000000002 9.8347663879394552e-07 1.5000000000000002 233.00000000000003 133.50000000000003 1.5000000000000002 1.5000000000000002 1.0000000180025095e-35 1.0000000180025095e-35 0.49987792968750006 1.0000000180025095e-35 1.1162109375000002 1.5000000000000002 0.22869873046875003 1.6606445312500002 353.00000000000006 254.50000000000003 0.75000000000000011 7.4726562500000009 2.0449218750000004 224.50000000000003 1.5000000000000002 0.24993896484375003 168.50000000000003 154.50000000000003 0.10913398861885072 1.0000000180025095e-35 6.7382812500000009 0.53564453125000011 1.5000000000000002 0.59936523437500011 83.000000000000014 228.00000000000003 338.00000000000006 5.0136718750000009 19.500000000000004 1.8286132812500002 1.0000000180025095e-35 4.3574218750000009 353.00000000000006 0.92285156250000011 1.5000000000000002 0.24993896484375003 1.5000000000000002 233.00000000000003 25.000000000000004 11.500000000000002 4.4082031250000009 5.5000000000000009 77.500000000000014 48.000000000000007 98.500000000000014 231.50000000000003 56.500000000000007 280.50000000000006 1.0712890625000002 112.50000000000001 231.50000000000003 1.5000000000000002 356.00000000000006 0.72192382812500011 37.500000000000007 1.5000000000000002 0.60620117187500011 342.00000000000006 219.00000000000003 193.00000000000003 1.5000000000000002 10.261718750000002 2.2343750000000004 1.2192382812500002 0.78564453125000011 0.53564453125000011 119.50000000000001
decision_type=2 2 2 2 2 2 2 2 2 2 2 2 2 2 2 2 2 2 2 2 2 2 2 2 2 2 2 2 2 2 2 2 2 2 2 2 2 2 2 2 2 2 2 2 2 2 2 2 2 2 2 2 2 2 2 2 2 2 2 2 2 2 2 2 2 2 2 2 2 2 2 2 2 2 2 2 2 2 2 2 2 2 2 2 2 2 2 2 2 2 2 2 2 2 2 2 2 2 2 2 2 2 2 2 2 2 2 2 2 2 2 2 2 2 2 2 2 2 2 2 2 2 2 2 2 2 2
left_child=2 4 5 9 8 22 12 26 10 27 36 18 14 21 60 25 90 20 95 31 -15 29 -1 35 37 55 80 28 101 51 -26 91 93 -22 -20 -10 78 104 -18 40 41 49 -41 -30 56 115 79 118 -16 -12 108 62 -13 124 -23 -7 57 121 65 -60 -4 -50 -6 125 -65 -52 112 -54 -47 77 71 -40 97 74 -45 -76 -44 -70 -2 -24 -5 82 -36 -46 -39 94 87 -35 92 -80 -9 -11 -34 -25 -86 114 -62 103 -61 -56 -101 -3 -103 -72 116 106 -106 -82 -38 -93 111 -111 -17 -114 -8 -14 -19 -53 -43 -49 -69 122 -21 -58 -27 -64 -94
right_child=1 3 6 7 13 15 11 16 23 19 39 52 45 17 48 66 38 24 34 44 33 54 46 32 30 53 -28 -29 43 -31 -32 -33 88 86 81 -37 50 84 70 42 -42 47 76 73 83 68 -48 119 61 -51 58 117 67 -55 99 -57 123 -59 59 98 96 -63 63 64 -66 -67 -68 120 69 -71 72 -73 -74 -75 75 -77 -78 -79 89 -81 107 -83 -84 -85 85 -87 -88 -89 -90 -91 -92 109 126 -95 -96 -97 -98 -99 -100 100 -102 102 -104 -105 105 -107 -108 -109 -110 110 -112 -113 113 -115 -116 -117 -118 -119 -120 -121 -122 -123 -124 -125 -126 -127 -128
leaf_value=-0.043126982353712318 0.03323503338065318 0.12510634798828904 -0.0091318612086896903 0.29725349746290913 0.030682656917853574 -0.023331095721285049 -0.0065501342693562031 0.17201167355685276 0.099733169874841182 0.1153314851343666 0.083281834789237966 0.088634672873443121 0.0073218774915120082 0.37006889706875712 0.013720649701590662 -0.0094064770686232476 0.34848034207273876 0.19190537284984852 0.0077777963389328401 0.26085559209272974 0.15373910371730437 0.094829998364217849 -0.029086098521737047 0.07657924012604693 0.10253007005076278 -0.019804982145416521 0.38158191429560179 0.10197111854469997 0.10925504759360592 0.011219952501990885 0.037373973150537643 0.124766549551452 0.053924609705977969 0.064649900326721021 0.019493343380497258 0.21633237082426127 -0.026120968810619101 0.044523419252278221 0.16252175874650943 0.10739110663070831 0.029518928936269825 0.042242226062240852 0.016202327538331677 0.061937550336806493 0.16364265812120127 0.0087641597698427231 -0.020320096907721519 0.081362281915636825 0.0012197407177223874 0.027213412332100465 -0.013127544262108362 0.027012740736023489 0.023868721834847173 -0.023749724510495854 0.05216500923817783 -0.030624725168065265 0.075460089050399859 0.12605787590755793 0.041286815531189652 0.036212800033286245 0.0009436851189201876 -0.0064559790548446953 0.054389929839395328 0.28245080266436312 0.046163833254882318 0.018910370275962467 -0.011901167860649825 0.028453346184202501 0.031417612731405094 0.014955698169834532 0.10133150198641963 0.23285213801380902 0.18268544397595757 0.054374183395513899 0.10709015011979006 0.072598553048896133 0.032030650176332935 0.07191226771782358 0.011776169832357707 -0.036844668994428204 0.21292719114441142 0.014923551899740654 0.045111653533291288 0.099756079792002503 0.078073387272208694 0.057478585813263885 0.11759812206668137 0.091505110887636854 0.056517770742940038 0.02506490541924879 0.12214952244842166 0.070532724272572664 0.11650111209345471 -0.00035043720057983913 0.11558726287877329 -0.0053849499046618142 -0.017377638047771076 0.12496229006396031 0.012353650896625115 0.068239647306918436 0.1876286946541815 0.021052666089277153 0.052790174567549621 0.17042602190510703 0.056937704626424383 0.043852838642964069 0.094469552096709042 0.27360773181776005 0.014161808078132243 0.092905047433829074 0.076752948065637816 0.11968515382979338 0.0039439436641686802 0.042407394180971052 0.012107794685380556 -0.021942793791279169 0.036512279938083737 0.062120315679620453 0.081596796493652132 0.048415852040469498 0.054018617953075311 0.056907315903532554 0.10045609231372016 0.10675113043549495 -0.0094602229095049218 0.10224956160673267 0.075531407555963409
leaf_weight=194878.9501786232 17471.783746242523 377.52358341217041 81936.742055058479 885.04873657226562 8608.3472068309784 93006.140381932259 9557.6849759817123 1127.1811320781708 2099.4526455402374 2809.5437371730804 1396.9947600364685 1381.4235570430756 10455.730187654495 126.51207971572876 14278.628705024719 5537.3255969285965 136.40118312835693 90.47275447845459 90865.074817180634 91.383601188659668 937.5810661315918 2772.7723393440247 57071.375755310059 552.04218411445618 6040.6797754764557 44940.710389018059 463.62942314147949 5551.3858921527863 2881.0826349258423 7745.3512108325958 1647.9678063392639 3704.0461361408234 2563.3498873710632 9999.6368072032928 11522.451936483383 426.60992288589478 4239.3437395095825 4142.4788944721222 1429.5351800918579 711.75128722190857 29491.968018054962 17540.523907661438 19218.200634241104 10947.024206161499 2505.4966928958893 11326.997811555862 19073.109658718109 6358.6456389427185 89288.309275150299 14712.934827804565 8590.768016576767 21092.406125068665 13340.959419727325 183839.89426696301 14406.910024404526 240572.06335937977 4173.4535617828369 13586.761923074722 4988.5606071949005 4532.5036339759827 7586.6032072305679 151530.45096206665 1399.1548466682434 61.156768798828125 18844.680303096771 4730.2013404369354 44175.21802508831 4968.8117997646332 6963.3011748790741 7799.0185081958771 576.26271915435791 1165.7049193382263 3057.1400990486145 10308.835414171219 4917.5537712574005 6168.1628663539886 31287.70187664032 2442.2319800853729 29725.838297128677 288492.67990875244 1967.5965361595154 43855.180121183395 7284.1376574039459 921.91319227218628 5785.5221064090729 8722.4606485366821 1684.0483026504517 7055.0068352222443 14471.735477685928 30585.018990755081 21328.436019897461 9932.2731845378876 2125.4318177700043 1953.4073104858398 2581.889922618866 63232.289899468422 196623.73892176151 3269.6591935157776 69678.771039485931 681.57139301300049 288.46072912216187 3483.1975131034851 8988.2124433517456 3734.2815089225769 18698.36788392067 24673.285217046738 4165.5658578872681 944.99859142303467 2131.13751745224 10852.585672855377 18391.761719703674 4591.7969892024994 4749.3630249500275 2495.057039141655 18950.976696610451 3400.8387100696564 11811.362696409225 1889.1916570663452 1485.5669846534729 2801.5044128894806 9042.9561283588409 1188.4965801239014 5565.7685701847076 4232.0448091030121 33100.226791739464 2425.8468999862671 2788.9462425708771
leaf_count=108129 6768 102 38579 39 2987 47312 4347 195 551 628 452 444 4415 12 5987 2642 9 22 38801 15 181 762 30240 174 1418 22348 13 1259 779 3105 511 682 837 3062 4635 69 1900 1215 166 220 10630 6122 7222 3111 385 4857 9749 2026 39479 5346 3726 7543 5193 92459 4652 125391 889 2463 1939 1780 3430 69940 461 12 6402 1879 20910 1790 2568 3053 85 109 332 2987 1191 1653 11546 816 12081 155133 115 17760 2727 164 1593 2494 405 1797 4487 12021 3779 2495 497 738 684 28614 95475 418 28211 206 73 1166 2801 429 5810 7855 1213 51 870 2553 4528 963 2181 1055 8274 1541 3854 588 493 931 2972 266 1177 860 16072 711 715
internal_value=0 0.0532712 -0.0183851 0.101596 0.0367975 -0.030234 -0.00164131 0.152918 0.0270019 0.0864876 0.0235905 0.0102609 -0.00722912 0.0538878 -0.00892644 -0.0238498 0.139913 0.0627451 0.0070974 0.097982 0.0848894 0.0419446 -0.0376781 0.0651448 0.0577822 -0.0253699 0.262248 0.0687931 0.0649617 0.0362437 0.0885647 0.0886236 0.059538 0.0830558 0.0124696 0.119425 0.0159862 0.0548484 0.165547 0.034338 0.0393351 0.0458706 0.0271387 0.0717652 0.112566 0.0144437 -0.034766 0.0537553 -0.00264 0.0320755 0.0113964 0.0398118 0.0372637 -0.0212667 0.0614397 -0.0285912 0.108538 0.115665 0.0130517 0.0155415 -0.0145308 -0.00361005 0.0470812 0.0532914 0.0469282 -0.00175106 -0.00795835 0.0346693 0.0213906 0.0297036 0.163661 0.194112 0.156232 0.0684255 0.0749999 0.0878988 0.0260078 0.0419324 0.0218216 -0.0355633 0.247679 0.0192731 0.0294158 0.146458 0.0676289 0.0732295 0.0795192 0.0757591 0.0644392 0.0185152 0.124652 0.0857494 0.0797697 0.0166 0.0896489 -0.00189285 -0.016697 0.145563 0.0138109 0.0554187 0.103743 0.0463113 0.0439261 0.161189 0.050283 0.0534351 0.0637756 0.232615 -0.012645 0.0838505 0.0877598 0.100867 0.0056685 0.0171912 0.00585262 0.000139405 0.0376935 0.0298987 0.0453151 0.0712861 0.0449527 0.0950366 0.103047 0.0912147 -0.0154174 0.0847429 0.0932505
internal_weight=0 693296 2.06957e+06 176256 517039 1.21193e+06 857635 40085.9 328661 136170 301680 274002 583633 188379 541244 652416 35824.6 108163 245268 82547.3 19802.8 80215.8 559516 26981 88360.1 595459 4261.27 53623 48071.6 62066.1 7688.65 50282 24454.9 19676.3 153527 2526.06 176674 80671.4 13369 125006 73788.1 44296.2 51217.7 35222.7 32265.3 42388.1 364637 28186.2 255097 16109.9 98891.3 54320.8 28734.2 261881 18149.7 333578 28837.9 20432.4 92520.8 79199.8 286147 240819 31339.2 22730.8 18905.8 13321 56957 27352.7 28531.5 17204.6 13232.6 2595.24 10637.3 32341.6 22032.7 11085.7 50505.9 9405.53 77782.6 345564 3797.64 62661.8 18806.6 3427.41 21232.4 17089.9 18738.7 17054.6 21949.5 60310.9 22455.6 46578 7477.73 2505.45 8367.41 91741 204210 7580.2 74211.3 15376.9 970.032 12848.9 12471.4 4310.54 59439.1 47537.2 22863.9 2912.6 6370.48 43768.4 33836.1 15444.4 12781.7 7244.42 28508.7 13856.6 11901.8 22981.6 19026.1 9160.15 14011.8 6845.65 5657.15 8405.5 78040.9 3825 4914.38
internal_count=1242034 222716 1019318 38857 183859 633621 385697 5740 124231 33117 116163 115557 270140 59628 252890 330370 5522 32126 105158 18068 5457 27502 303251 8068 26669 303582 218 15049 13790 21809 1929 11849 7448 5445 63923 620 71175 24740 1548 44988 26000 15370 18988 9721 6219 17250 195122 9572 115406 5798 40305 18704 10399 130879 5693 172703 5670 3921 37535 31930 137484 109419 10573 7586 6414 5605 26788 9955 11294 6437 1539 275 1264 8942 5955 2844 18768 3384 30870 185373 205 25122 7362 549 5986 4771 5264 4859 6536 24102 3974 11167 2049 912 2277 41235 98905 932 29991 4931 279 4069 3967 514 18754 14878 7023 166 2770 10539 8044 3516 5878 3236 12621 5956 3876 8131 6615 2957 4762 1458 1192 1749 38420 1172 1212
is_linear=0
shrinkage=0.1


Tree=5
num_leaves=128
num_cat=0
split_feature=23 53 23 23 23 23 53 82 24 23 24 23 14 23 24 24 53 24 23 14 67 23 80 23 24 24 67 67 80 70 77 24 134 67 80 67 87 24 67 20 67 67 67 52 24 69 40 24 24 24 24 24 80 67 8 8 24 24 101 134 67 80 46 24 17 23 80 80 54 26 101 6 98 69 24 24 20 24 135 12 24 74 67 20 24 24 23 80 135 24 71 24 23 78 54 24 24 85 134 101 67 67 29 61 24 24 24 77 114 104 24 37 96 61 96 24 62 134 23 80 40 14 83 61 61 23 67
split_gain=210243 42732.7 30501.7 10806.6 6144.44 4332.49 4248.83 3584.8 3049.17 2764.39 1828.07 1562.67 1544.22 1359.33 1454.87 1211.55 1116.81 974.562 948.128 751.701 728.392 819.018 714.634 707.267 688.432 673.923 648.903 593.647 582.334 574.803 546.672 534.755 527.575 486.902 468.838 466.281 462.641 431.875 424.125 418.844 408.879 404.485 399.47 394.472 427.329 388.533 387.091 380.27 527.851 368.374 395.384 385.517 472.169 366.851 365.815 350.673 337.779 900.866 337.571 350.373 372.206 329.392 320.361 318.285 312.584 305.533 295.139 294.953 287.751 280.312 271.724 270.829 270.09 269.737 269.635 567.768 273.292 267.967 264.55 263.725 263.432 259.602 244.367 244.25 251.905 235.873 234.171 232.498 232.326 228.873 228.251 227.347 226.389 225.867 218.059 216.283 323.897 215.492 213.782 251.409 231.122 210.534 206.613 206.825 206.064 202.518 408.48 201.321 196.362 195.5 195.479 195.03 191.64 189.441 188.065 187.48 187.43 187.067 185.87 184.44 184.094 234.301 187.632 183.773 183.456 182.178 419.801
threshold=2.0830078125000004 5.2148437500000009 1.0180664062500002 8.0234375000000018 3.2333984375000004 0.60571289062500011 1.5000000000000002 42.500000000000007 343.50000000000006 4.2832031250000009 353.00000000000006 1.4497070312500002 2.0712890625000004 5.0136718750000009 338.00000000000006 353.00000000000006 10.640625000000002 353.00000000000006 1.5717773437500002 2.5000000000000004 0.19390869140625003 0.80053710937500011 55.500000000000007 0.35070800781250006 336.50000000000006 345.00000000000006 0.077545166015625014 1.2485351562500002 6.5000000000000009 132.00000000000003 19.210937500000004 345.00000000000006 1.5000000000000002 0.74780273437500011 51.500000000000007 0.37219238281250006 3.6435546875000004 353.00000000000006 0.44982910156250006 1.5000000000000002 1.1323242187500002 0.45471191406250006 0.43151855468750006 1.5000000000000002 356.00000000000006 1.3193359375000002 1.3574218750000002 107.00000000000001 224.50000000000003 98.500000000000014 226.00000000000003 219.00000000000003 24.500000000000004 0.20941162109375003 1.5000000000000002 6.5000000000000009 84.500000000000014 163.00000000000003 1.5000000000000002 1.0000000180025095e-35 0.90649414062500011 65.500000000000014 0.50854492187500011 338.00000000000006 1.4901161193847659e-07 8.0234375000000018 51.500000000000007 24.500000000000004 240.50000000000003 1.2143554687500002 1.5000000000000002 3.0908203125000004 7.3574218750000009 1.7407226562500002 233.00000000000003 119.50000000000001 1.5000000000000002 349.00000000000006 2.9638671875000004 0.39282226562500006 360.00000000000006 3.0712890625000004 0.34985351562500006 1.5000000000000002 219.00000000000003 4.0000000000000009 1.2348632812500002 24.500000000000004 6.0351562500000009 198.00000000000003 1.0000000180025095e-35 48.000000000000007 0.76196289062500011 0.78564453125000011 154.50000000000003 91.500000000000014 226.00000000000003 1.1401367187500002 1.0000000180025095e-35 1.5000000000000002 0.26965332031250006 0.27746582031250006 2.1074218750000004 2017.5000000000002 119.50000000000001 360.00000000000006 356.00000000000006 49.062500000000007 0.29089355468750006 0.33007812500000006 364.50000000000006 0.10913398861885072 8.5000000000000018 2020.5000000000002 5.5000000000000009 326.00000000000006 1.4526367187500002 1.5000000000000002 1.3100585937500002 35.500000000000007 8.9296875000000018 13.640625000000002 1.4477539062500002 2019.5000000000002 2020.5000000000002 0.46862792968750006 0.16290283203125003
decision_type=2 2 2 2 2 2 2 2 2 2 2 2 2 2 2 2 2 2 2 2 2 2 2 2 2 2 2 2 2 2 2 2 2 2 2 2 2 2 2 2 2 2 2 2 2 2 2 2 2 2 2 2 2 2 2 2 2 2 2 2 2 2 2 2 2 2 2 2 2 2 2 2 2 2 2 2 2 2 2 2 2 2 2 2 2 2 2 2 2 2 2 2 2 2 2 2 2 2 2 2 2 2 2 2 2 2 2 2 2 2 2 2 2 2 2 2 2 2 2 2 2 2 2 2 2 2 2
left_child=2 4 5 9 8 23 11 30 12 24 18 17 58 14 19 20 31 42 41 61 92 101 43 -1 47 70 -25 54 -15 72 46 36 39 116 65 93 73 -34 -12 -10 45 -8 98 -16 -45 102 -5 78 83 85 51 52 -51 -17 -21 -31 -36 104 -2 111 -61 64 71 120 -6 -30 105 -38 94 108 -13 -46 -9 -11 75 -69 -76 125 109 -66 -64 -35 -19 84 -49 -42 -44 -40 -24 -85 -81 -74 -7 -23 -39 -71 -97 -72 100 -100 -4 -22 -14 -104 -58 106 -33 112 -29 -3 -96 -60 -32 -59 -105 -67 -20 -62 -43 -75 122 -122 -18 -52 -119 -28 -127
right_child=1 3 6 7 13 15 10 29 32 16 38 25 40 28 22 53 63 82 33 27 21 35 88 26 -26 -27 77 69 34 55 107 66 37 81 56 -37 67 68 87 -41 49 118 86 44 62 -47 -48 48 -50 50 123 -53 -54 -55 -56 -57 57 113 59 60 117 -63 80 -65 79 115 -68 74 -70 95 97 -73 91 119 76 -77 -78 -79 -80 90 -82 -83 -84 89 -86 -87 -88 -89 -90 -91 -92 -93 -94 -95 110 96 -98 -99 99 -101 -102 -103 103 114 -106 -107 -108 -109 -110 -111 -112 -113 -114 -115 -116 -117 -118 124 -120 -121 121 -123 -124 -125 -126 126 -128
leaf_value=-0.041080115570046961 0.026978987398998462 0.12822865231381678 0.051828929711908056 0.22061751312549938 0.042915345443121117 -0.013076353192769752 0.015066497814140984 0.2548767895635618 0.044011581892747884 0.18219478606923772 0.086493513549725565 0.010991252200392491 0.075451778440404793 0.20849146848420319 0.012322473572109088 0.024175482008670396 0.1636376012008432 0.054667603405002679 0.038913056152847653 0.33136263994836362 -0.025287082641782671 -0.018651963702171093 0.014447901274628314 -0.0087586582667705509 0.080318586694024113 0.018177979413923039 -0.037513138046965995 0.14221875837440351 0.061517985122240652 0.19819680424383429 0.10437903185884596 0.095816454442339605 0.04165941450816886 0.005453210428140706 0.025891972315505607 -0.023893790664911818 0.052077118885704189 0.076502245301814195 0.040879248972514236 0.00029986324708163362 0.059526236762747299 -0.0091225216795484225 -0.01777624425398398 0.0673913272619166 0.16090361330052683 0.036506367652576692 0.10085838785408857 0.049806714336124866 0.042218328876939125 0.015531426005091685 0.015102100776587787 0.061806514060829626 0.036218878122403958 -0.0085450616324955955 0.079893584022184314 0.29691204575670876 0.071756640516050643 0.027383765942185279 0.024386683835523892 -0.024566173908489634 -0.0059595154708876217 0.0046350729651637385 0.11510983319134982 0.12193929299638236 0.00093000519270551672 0.092134278550575766 0.054164907711346522 0.059983025267184735 0.05410227978382709 0.028259859917138721 -0.0078085666133224556 0.053613149268766529 0.097428304480339692 0.05848099797632518 0.068629539282202487 0.085640188105844242 0.045171694957537166 -0.024155857086818264 0.029512513329639768 0.034852479545652841 0.051216915796434392 0.016228760173915533 0.0076693216581167761 0.083063463883585473 0.11061118323000874 0.011697728160564752 -0.012065401374633872 0.019442841387075634 0.21181670658423341 0.054872661652077839 0.019648638882667629 0.17373200139235787 0.0091760833549014986 -0.0078059100392497043 0.10100933154899756 0.04911541155003709 0.034607228778916178 -0.0012098963296133369 0.012307974168923652 -0.015166527756110557 0.0019067361362354351 -0.031114055383239622 0.31231043227388844 0.23551557341021079 0.11809145475898392 0.078821838646498471 0.16227910411268925 0.21640382895227195 0.05986779317493534 0.050821699777078615 0.18623042604747592 0.0112030593055433 0.13262431478327372 0.063227184688553983 0.025472411086644959 0.2072458337665756 0.013094258803555067 0.0053293342577716623 -0.00083137161093722412 0.10827388483806773 0.078301481654264912 0.095973084822501747 0.10096895715365713 0.026205649227478235 0.018479526117659139 -0.024674186788333954 -0.035440957013776288
leaf_weight=156757.17741978168 10816.504288911819 348.47671127319336 997.56436657905579 272.83920240402222 11993.51114153862 24106.840999960899 11914.054790139198 380.62610530853271 10421.45142698288 380.72526359558105 1447.1818940639496 12021.249975442886 786.12127494812012 252.71936941146851 874.14188289642334 3848.6861836910248 565.83763909339905 1194.8069813251495 7270.9704236984253 111.24382472038269 99306.808705210686 58688.470348596573 2506.8416011333466 10706.371166944504 8143.6076891422272 15230.85479426384 126488.01230561733 315.2046947479248 24400.884003400803 775.66250705718994 3198.0693440437317 2556.2872707843781 6896.2437868118286 103782.30002522469 6573.8711454868317 195834.08488762379 11055.048011302948 4782.189688205719 10406.446207761765 2775.9889800548553 1065.786777973175 46713.517151713371 163288.89196503162 7326.948926448822 1342.734174489975 10012.232763051987 25018.522765398026 10793.130457878113 19606.782459259033 16708.131932973862 35253.584367752075 3912.5126512050629 32479.968200206757 31235.076473355293 120.52171635627747 671.30562210083008 1992.8385343551636 6446.2909774780273 14699.013290405273 4218.7979230880737 11298.391053438187 6385.0635783672333 1393.2042698860168 3316.2838985919952 4220.2210240364075 2131.0485053062439 1265.063894033432 14423.811010360718 4437.6025102138519 15077.487774848938 98495.591395139694 285.25544762611389 423.97946786880493 1052.5857474803925 16481.284007072449 21452.966319561005 7108.6147019863129 26746.922005653381 12909.253701448441 19694.767867088318 1202.0804693698883 28496.874955415726 14937.271313905716 8632.94762134552 727.25280928611755 31691.82833147049 128153.00184345245 9847.3095479011536 61.093905925750732 4321.5722494125366 19802.774675607681 4941.8183426856995 5641.9358112812042 28536.215609908104 1276.976886510849 29793.166169404984 31825.693146467209 99469.741507411003 4058.1606019735336 18576.805990338326 13179.546210169792 165082.11665976048 79.998853921890259 76.105341672897339 1851.6103408336639 1718.5578036308289 1448.8500604629517 248.86233520507812 3557.1529612541199 5121.583211183548 341.03965497016907 47423.025608539581 9651.5908198356628 1911.8530111312866 96.905766010284424 151.54915165901184 4584.5309143066406 52996.673778295517 64195.339899301529 2536.7193009853363 15425.383212089539 14607.935674667358 3069.1237082481384 25825.238642215729 13264.057535409927 49223.013358712196 137020.71364581585
leaf_count=90377 4264 88 436 27 3995 12315 5381 15 3371 59 485 4990 259 22 269 1691 89 446 2909 15 52823 29956 864 5705 1865 5837 71164 69 6636 27 365 463 2318 44114 1992 101204 2830 1172 3511 1067 358 21951 81206 2027 236 3676 4149 3102 5969 6347 13138 1356 11424 14756 31 17 562 1985 5752 1937 4891 2614 299 468 1580 478 290 3542 1190 4948 45472 67 36 253 3962 4681 1757 14219 4137 6910 287 11190 6145 2155 199 11924 61512 3627 15 1162 7144 307 2701 14248 266 9275 10265 45329 1822 9053 6189 88650 15 17 489 293 217 14 1000 1564 50 19305 1044 546 32 28 1888 22015 28549 541 3048 2484 567 9548 5453 26665 75939
internal_value=0 0.0434703 -0.017784 0.0791714 0.0281618 -0.0286597 -0.00360149 0.122877 0.0200055 0.0686343 0.0062822 -0.00861026 0.0170429 0.0419279 0.0375313 -0.0229985 0.0779692 -0.012846 0.00401326 0.0344221 -0.0240952 -0.0249233 0.0671669 -0.0354974 0.0529716 -0.00213333 -0.0329983 0.0407803 0.0571134 0.187662 0.110738 0.0714277 0.0499563 0.00951459 0.0562719 -0.0211851 0.0689463 0.0612226 0.0341939 0.0348171 0.023997 -0.00244264 -0.0140253 0.0770926 0.0819946 0.0425469 0.10215 0.0494061 0.0544443 0.0226018 0.0252837 0.0315949 0.0291918 -0.00495562 0.200595 0.243995 0.0441656 0.0540101 0.00994167 0.00866102 0.00436032 0.0261486 0.10733 0.0923808 0.0286143 0.0647908 0.0978764 0.0670764 0.0736709 0.0403206 -0.00360656 0.142104 0.173477 0.102161 0.0698649 0.075325 0.0615607 -0.0337628 0.0373222 0.024691 0.085516 0.00777458 0.0111502 0.0642385 0.0536451 0.0132539 -0.0152651 0.0304569 0.0191435 0.0736591 0.0272298 0.167703 -0.00885612 -0.0151036 0.0872389 0.0389952 0.041622 -0.004493 -0.00420963 -0.0102407 0.00541948 -0.0289254 0.100749 0.179348 0.094073 0.107538 0.119859 0.12732 0.0665711 0.055753 0.118972 0.0143225 0.125595 0.0355826 0.117868 0.0997769 0.0289289 0.00593376 -0.00432351 0.0936718 0.0894693 0.0868968 0.110724 0.0197969 0.00796174 -0.0345844 -0.0325954
internal_weight=0 781891 1.97748e+06 234653 547238 1.11922e+06 858262 45583.3 343636 189070 288659 569603 312705 203602 157889 612280 118465 344386 266958 142897 577196 547448 14992.3 506942 70604.6 225217 350185 80800.5 45712.7 7193.39 38389.9 81480.5 30931.5 144135 45459.9 283059 74491.8 17734.1 21700.9 13197.4 157988 122823 328254 12424.4 11550.2 11051.4 25291.4 62461 44081.7 146937 114179 53100.6 49188.1 35083.8 231.766 1446.97 18776.5 12202.6 154716 143900 81777.9 62096.3 4223.27 36984.6 55711.3 26683.5 6988.76 70521.7 10837.8 80568.7 209987 1627.99 5746.42 3970.03 59466.7 35876.8 23589.9 339479 18379.3 43717.8 2595.28 132279 16132.1 24474.9 11520.4 32757.6 291442 20253.8 2567.94 12954.5 39497.5 5365.8 29748.8 87224.7 6400.21 76696.3 61618.9 197965 36812.1 22635 14177.1 264389 1039.13 253.01 3844.45 5723.7 4005.14 13098.5 3872.36 5470.06 1618.02 62122 12849.7 8358.14 173.011 2282.6 11855.5 77559.1 110909 3589.31 33668.3 30033.3 3634.96 61078.8 66260.7 312732 186244
internal_count=1242034 247579 994455 51786 195793 602413 392042 6001 131145 45785 123605 268437 121711 64648 51910 318344 25544 166809 115982 47846 301897 286881 4064 284069 20241 101628 193692 25603 12738 402 5599 18888 9434 60101 12716 145408 17625 4996 7623 4438 58094 55881 160218 3185 2916 3999 4176 18376 12587 54095 41813 19127 17771 16447 46 44 5574 3582 63617 59353 34296 22243 889 6656 19629 7142 1263 16772 2678 25557 95791 303 358 853 13942 8223 5719 187987 5789 15634 586 55304 6591 6618 3301 12282 142718 7138 879 3317 14054 343 15016 44204 1488 24488 19540 90801 17500 10875 6625 141473 323 64 1051 973 680 1423 1069 1652 316 25057 1409 2531 49 506 4797 32359 50500 794 6188 5532 656 22686 27468 173768 102604
is_linear=0
shrinkage=0.1


Tree=6
num_leaves=128
num_cat=0
split_feature=23 14 23 77 23 14 23 77 24 23 24 23 23 24 78 67 24 134 24 53 24 24 24 23 80 98 23 24 67 23 23 80 67 48 20 80 80 67 40 67 80 40 24 24 37 23 104 24 24 20 24 20 24 40 33 20 24 14 87 52 24 25 47 136 2 24 101 24 89 85 24 24 48 56 117 134 24 24 24 65 67 89 67 20 117 24 79 32 24 24 67 61 6 101 61 23 61 24 2 44 67 23 23 67 29 51 24 46 24 93 67 48 24 24 117 47 70 108 134 24 24 134 24 0 54 24 134
split_gain=167035 34064.8 22509.3 7576.36 5490.72 3355.3 2976.19 2643.85 2280.26 1724.24 1500.4 1263.7 1204.31 1250.17 1136.54 923.248 820.342 742.019 708.844 664.244 660.135 627.929 563.502 561.516 559.671 541.837 532.627 500.677 482.205 465.793 464.845 455.508 403.27 389.725 383.769 366.289 361.697 357.011 344.575 338.07 328.99 322.401 344.289 346.572 321.631 319.208 319.024 310.935 385.092 478.482 426.132 414.23 389.428 304.265 298.942 292.82 366.685 290.559 569.037 286.986 302.773 274.025 423.112 336.852 270.345 268.126 260.296 256.812 255.392 265.873 251.956 318.767 249.692 246.652 246.468 244.201 235.678 235.226 584.509 233.889 232.402 232.053 229.936 228.895 296.244 228.387 279.669 226.6 226.28 222.777 219.713 217.379 216.191 212.262 206.273 205.729 204.501 204.069 300.308 202.364 199.083 198.601 196.292 365.562 196.201 193.095 190.425 190.285 232.121 189.964 189.311 188.823 187.957 185.552 184.476 182.265 181.572 180.929 180.568 216.324 178.287 172.317 172.073 189.088 169.585 202.333 184.752
threshold=1.9497070312500002 5.0722656250000009 0.94702148437500011 11.929687500000002 2.9873046875000004 1.3574218750000002 0.58129882812500011 36.500000000000007 350.50000000000006 5.0976562500000009 343.50000000000006 1.3295898437500002 5.0136718750000009 338.00000000000006 2.2138671875000004 0.17279052734375003 331.00000000000006 1.5000000000000002 345.00000000000006 3.2138671875000004 345.00000000000006 350.50000000000006 4.0000000000000009 0.30163574218750006 6.5000000000000009 2.5000000000000004 3.3017578125000004 231.50000000000003 0.066375732421875014 0.73999023437500011 9.2304687500000018 51.500000000000007 0.32189941406250006 139.00000000000003 1.5000000000000002 22.500000000000004 22.500000000000004 0.43151855468750006 8.5000000000000018 1.2485351562500002 51.500000000000007 1.0712890625000002 110.00000000000001 226.00000000000003 0.72216796875000011 1.4301757812500002 0.39904785156250006 91.500000000000014 226.00000000000003 1.5000000000000002 219.00000000000003 1.5000000000000002 338.00000000000006 3.0712890625000004 2.6240234375000004 1.5000000000000002 219.00000000000003 0.78564453125000011 0.21423339843750003 1.5000000000000002 356.00000000000006 2.6822090148925787e-07 0.67871093750000011 1.0000000180025095e-35 0.59936523437500011 329.50000000000006 1.5000000000000002 324.00000000000006 0.11901855468750001 5.0566406250000009 233.00000000000003 112.50000000000001 1.0000000180025095e-35 4.3554687500000009 0.40747070312500006 1.0000000180025095e-35 356.00000000000006 83.000000000000014 149.00000000000003 7.9648437500000009 0.63989257812500011 2.0712890625000004 0.24822998046875003 1.5000000000000002 0.39221191406250006 119.50000000000001 6.5000000000000009 0.46423339843750006 27.000000000000004 356.00000000000006 0.30090332031250006 2020.5000000000002 9.3906250000000018 1.5000000000000002 2020.5000000000002 1.3715820312500002 2019.5000000000002 231.50000000000003 0.59936523437500011 7.5000000000000009 0.10855102539062501 0.38220214843750006 0.41760253906250006 0.13214111328125003 8.8945312500000018 0.40466308593750006 5.5000000000000009 0.50854492187500011 360.00000000000006 5.4921875000000009 0.34802246093750006 1.0000000180025095e-35 4.0000000000000009 105.50000000000001 0.37939453125000006 0.39282226562500006 13.500000000000002 15.500000000000002 1.0000000180025095e-35 4.0000000000000009 5.5000000000000009 1.5000000000000002 107.00000000000001 0.35705566406250006 293.50000000000006 356.00000000000006 1.5000000000000002
decision_type=2 2 2 2 2 2 2 2 2 2 2 2 2 2 2 2 2 2 2 2 2 2 2 2 2 2 2 2 2 2 2 2 2 2 2 2 2 2 2 2 2 2 2 2 2 2 2 2 2 2 2 2 2 2 2 2 2 2 2 2 2 2 2 2 2 2 2 2 2 2 2 2 2 2 2 2 2 2 2 2 2 2 2 2 2 2 2 2 2 2 2 2 2 2 2 2 2 2 2 2 2 2 2 2 2 2 2 2 2 2 2 2 2 2 2 2 2 2 2 2 2 2 2 2 2 2 2
left_child=2 4 6 9 8 11 23 30 14 16 17 21 13 19 57 89 26 27 29 61 66 37 105 -1 -14 92 73 34 101 82 38 59 -31 -9 -7 114 120 93 -5 -21 68 99 112 55 74 -24 -33 54 49 50 79 52 -50 -38 -27 56 -44 83 -59 -15 -61 115 -63 111 -52 104 -13 -45 -26 -70 71 -55 -41 -3 -12 80 102 -42 85 -49 -68 -57 -17 84 110 -79 -87 -51 -32 100 -23 -39 -11 -4 -77 -46 -47 122 -99 -16 -8 -25 -30 -104 -40 -19 -106 117 -109 -53 -2 -64 -43 -65 -10 -6 -85 -62 -95 -120 -28 -97 -90 -124 125 -18 -127
right_child=1 3 5 7 12 10 15 33 35 25 44 20 24 31 41 18 124 22 -20 39 -22 90 45 28 40 47 36 -29 76 32 88 46 -34 -35 -36 -37 53 91 65 72 77 42 43 67 95 96 -48 48 51 87 64 109 -54 70 -56 81 -58 58 -60 60 107 62 63 113 -66 -67 75 -69 69 -71 -72 -73 -74 -75 -76 94 -78 78 -80 -81 -82 -83 -84 116 -86 86 -88 -89 97 -91 -92 -93 -94 118 -96 121 -98 98 -100 -101 -102 -103 103 -105 106 -107 -108 108 -110 -111 -112 -113 -114 -115 -116 -117 -118 -119 119 -121 -122 -123 123 -125 -126 126 -128
leaf_value=-0.039886974771028733 0.16424681053659682 0.040413735025859661 0.0081976187200788371 0.1209571871964271 0.027200853416301986 0.0058245213402062157 0.026096086514383235 0.13822324065654085 0.086759627923099214 0.10245503849426965 0.078036037295784663 0.0078391244671184458 0.17842996452962362 0.013817740126689871 0.17831784516245408 -0.023558881883932556 0.0638507448168006 0.14959234092801543 -0.011558164330783091 0.13168539536030263 0.014522530683311725 0.045381423776042845 -0.010463533548304147 -0.018463142544335519 0.086128516335903599 0.18045449689701715 0.11181306028771708 -0.0028726320536596006 -0.03635793737531464 -0.015224119144772683 0.035653261554731731 0.25491518158162152 -0.024034421019572108 0.19349398524552386 0.020402965924837715 0.033051715162365658 0.095142047135297461 -0.018371775860142537 0.053153142476975924 0.048781115056502906 0.022220433085809215 0.050411600295993689 0.020076598156258379 0.012996706486411824 0.0093231125523843498 -0.0052511025144730168 0.02427217967191253 0.054370925369352008 0.061894368426570513 0.11987066121087431 0.098291830564401758 0.040358567104996725 0.091207026551521742 0.043711865852377588 0.050114536051387215 0.053964183581341654 0.056470726749469305 0.039136253170338309 0.0091257880368064339 0.055443135343933241 0.13664471451289537 0.006362898672691646 0.037261876426773741 0.0090740604180427325 0.20527791751754332 0.1054378589126504 0.011207259025788513 0.028430211686574915 0.046113559756872764 0.070535664365501932 0.041941501869039104 0.063671789543913684 0.032865827211087655 0.021756734434139814 0.0088419003739144252 -0.011277569428927331 -0.021109820130675125 0.058028720935143233 0.0315617406290696 0.078078421719778482 -0.0045324678135783619 0.026869336931400929 -0.030505289262630738 -0.009286072129392 0.0083814836472751886 0.029106050613853813 0.13085105785517834 0.085657469259935407 0.089429568225034187 0.030417463477273768 0.0010002968034593057 -0.011625587105383214 0.20249868544446664 -0.0028653080110391067 -0.0017402113893027747 0.011973584955002019 0.0047996126708952933 0.11650047725194929 0.075442689940052154 0.042808686433128962 -0.0086712127900896944 0.013428895859801983 -0.022707078889730625 -0.033156830599917496 0.17291995069961238 0.034827513970920855 0.079219191409627576 0.093554786111205851 0.038970456339078918 0.086432402052542129 -0.020715206322677718 0.022617933683447569 0.0082247091902206831 0.022949357941527859 0.052537960905383541 0.054807630301636469 0.18508760402746524 0.079742243863713549 0.096387806245252464 -0.015867295261889573 0.033402068081395404 0.031783644652740022 0.19515666642778848 0.11919276888147584 0.058824660457240045 0.074898100423983968 0.11778775614628985
leaf_weight=104107.56594455242 56.023513793945312 22152.662249088287 7139.1506217718124 2195.36590051651 5210.8119721412659 53107.321761608124 1806.644118309021 6340.8385090827942 1889.1658568382263 2535.2755422592163 1715.7043097019196 12838.21489238739 331.25392770767212 1100.6037392616272 113.09463882446289 73852.961914300919 4010.7831056118011 155.88205420970917 46541.194139122963 367.93774175643921 16862.377637386322 1192.6021149158478 63671.303735256195 10402.219941616058 2413.4875221252441 178.41349577903748 296.67136287689209 40308.930325031281 107336.05588066578 70165.184025764465 493.07173919677734 60.765897035598755 200162.82061493397 1597.0859813690186 27359.703637123108 11759.486095905304 1712.9977917671204 193059.37732756138 3004.2198972702026 11882.220838308334 6375.9326829910278 1093.8578639030457 32208.193657636642 47097.507644414902 12039.44721186161 48519.041411519051 4585.831930398941 9689.2115349769592 18908.442272901535 2941.1311459541321 970.53352570533752 9092.2282569408417 5961.1457710266113 12038.977420091629 12835.159140348434 6573.2436664104462 3028.7380950450897 6643.3890495300293 129085.68949842453 8865.40074467659 1102.8306653499603 14461.806002855301 24249.103821516037 12713.790730714798 312.15927028656006 3832.6796429157257 11006.910326957703 13982.595789909363 18425.669845342636 5880.2584104537964 16162.766684293747 23856.360389709473 57856.291553020477 10418.603749036789 735.44111931324005 109812.19566273689 17994.118964791298 2190.2079944610596 8647.2708380222321 7294.1427891254425 63503.568336963654 6088.9801480770111 134322.45903968811 14543.522075176239 41573.330805301666 347.86813998222351 1209.3668231964111 5663.7176060676575 1956.8401007652283 1874.8976899385452 17247.631538271904 63465.823391079903 236.1196403503418 19802.788510560989 28578.799209475517 6311.0140256881714 34738.851670742035 3030.4311075210571 4322.4261050224304 4310.8301949501038 18637.725078821182 2403.8405783176422 41619.257380366325 171124.52086949348 218.31173229217529 2463.9234253168106 33290.236288070679 1783.2134785652161 1383.5295808315277 992.56822609901428 4512.1155257225037 13825.397888183594 30592.536327838898 39836.236712217331 9478.5399129390717 4420.1435830593109 48.218284368515015 1132.7093727588654 172.68002355098724 29325.924144387245 12852.356690645218 14432.266205906868 346.95113611221313 5899.3833475112915 7486.7188472747803 2081.6073381900787 1940.7221355438232
