tree
version=v3
num_class=1
num_tree_per_iteration=1
label_index=0
max_feature_idx=145
objective=tweedie
feature_names=rolling_mean_tmp_I100_14_7_I100_S100 QTT_lag_7 enc_C100_mean_clipped rolling_std_I100_7_C101 rolling_std_I100_7_I100_C100_C101 S101 enc_I100_S100_std_clipped rolling_std_I100_14_C100 month rolling_mean_tmp_14_7_clipped tm_w_end rolling_mean_7 rolling_mean_tmp_I100_1_14_C100 rolling_std_I100_14_C101 rolling_mean_tmp_I100_1_7_I100_C100_C101 rolling_mean_I100_7_I100 QTT_lag_9 rolling_std_14_clipped rolling_mean_tmp_7_7_clipped rolling_mean_tmp_7_14_clipped I102 rolling_std_I100_14_I100 rolling_mean_tmp_I100_14_7_C100 enc_S100_I100_C100_C101_std_clipped day_of_year rolling_std_I100_21_I100_S100 rolling_mean_I100_7_S100 rolling_mean_tmp_I100_7_7_C101 rolling_mean_I100_7_C101 rolling_mean_tmp_I100_1_14_C101 rolling_std_I100_7_I100_S100 enc_C101_std_clipped rolling_mean_tmp_14_14_clipped enc_I100_C100_C101_std_clipped enc_S100_mean_clipped rolling_mean_I100_14_C101 rolling_mean_tmp_I100_7_14_I100_S100 rolling_std_21 rolling_mean_tmp_1_14 day_of_week rolling_mean_I100_7_I100_C100_C101 rolling_std_I100_14_I100_S100 rolling_std_I100_21_S100 rolling_mean_I100_14_I100 C100 rolling_mean_I100_14_C100 enc_C101_mean_clipped rolling_mean_tmp_I100_1_14_I100 QTT_lag_6 rolling_mean_tmp_I100_1_14_S100 tm_wm rolling_mean_I100_21_C100 I103 rolling_mean_tmp_I100_1_7_S100 C101 rolling_mean_tmp_I100_7_7_I100 rolling_std_7_clipped rolling_mean_tmp_I100_14_14_I100_S100 rolling_std_I100_21_C101 QTT_lag_8 rolling_std_14 year rolling_mean_21_clipped rolling_mean_I100_21_I100 rolling_mean_I100_14_S100 rolling_mean_tmp_I100_1_14_I100_S100 rolling_mean_tmp_I100_14_14_I100_C100_C101 enc_S100_I100_C100_C101_mean_clipped rolling_mean_tmp_14_14 rolling_std_I100_21_C100 QTT_lag_12 QTT_lag_4 rolling_mean_tmp_I100_14_14_S100 rolling_mean_tmp_I100_1_7_I100_S100 rolling_mean_tmp_I100_1_7_C100 rolling_mean_tmp_I100_7_7_I100_S100 enc_S100_std_clipped rolling_mean_tmp_1_7 rolling_mean_tmp_I100_1_7_C101 S103 I100 rolling_mean_tmp_I100_7_14_I100_C100_C101 QTT_lag_3 enc_I100_std_clipped rolling_std_I100_21_I100 rolling_std_I100_14_I100_C100_C101 QTT_lag_10 rolling_mean_I100_7_C100 rolling_mean_tmp_I100_7_14_I100 rolling_mean_I100_21_I100_C100_C101 enc_S100_C100_std_clipped is_year_start rolling_mean_tmp_I100_7_7_I100_C100_C101 enc_I100_S100_mean_clipped QTT_lag_11 rolling_mean_I100_21_I100_S100 day is_month_end rolling_mean_I100_7_I100_S100 rolling_mean_tmp_14_7 tm_m_end S102 rolling_mean_7_clipped is_month_start enc_I100_C100_C101_mean_clipped rolling_mean_I100_21_S100 rolling_std_I100_7_S100 enc_I100_C101_std_clipped S100 is_quarter_start rolling_mean_tmp_I100_14_7_C101 enc_S100_C100_mean_clipped rolling_mean_tmp_I100_7_14_C100 rolling_mean_tmp_1_14_clipped enc_I100_mean_clipped rolling_mean_tmp_I100_7_14_S100 rolling_std_7 enc_I100_C101_mean_clipped enc_C100_std_clipped rolling_std_21_clipped rolling_mean_21 rolling_mean_tmp_7_7 rolling_std_I100_14_S100 rolling_mean_tmp_I100_1_14_I100_C100_C101 rolling_std_I100_21_I100_C100_C101 rolling_mean_tmp_I100_7_14_C101 rolling_mean_14_clipped rolling_mean_tmp_7_14 rolling_mean_I100_21_C101 rolling_mean_I100_14_I100_S100 rolling_mean_tmp_1_7_clipped rolling_mean_tmp_I100_14_14_C100 rolling_mean_tmp_I100_1_7_I100 rolling_mean_tmp_I100_7_7_S100 I101 rolling_mean_14 QTT_lag_5 rolling_mean_I100_14_I100_C100_C101 rolling_std_I100_7_I100 rolling_mean_tmp_I100_14_7_S100 rolling_std_I100_7_C100 rolling_mean_tmp_I100_14_7_I100_C100_C101 rolling_mean_tmp_I100_14_14_I100 rolling_mean_tmp_I100_14_7_I100 rolling_mean_tmp_I100_14_14_C101 rolling_mean_tmp_I100_7_7_C100
feature_infos=[0:30] [0:222] [0.0682373046875:0.69140625] [0:16.03125] [0:16.03125] [0:1] [0.07281494140625:13.4375] [0:15.2890625] [1:12] [0:30] none [0:193.125] [0:30] [0:15.2890625] [0:30] [0:30] [0:222] [0:15.2890625] [0:30] [0:30] [0:2] [0:15.2890625] [0:30] [0:14.546875] [3:365] [0:14.9609375] [0:30] [0:30] [0:30] [0:30] [0:15.6953125] [0.09039306640625:7.21875] [0:30] [0.0625:10.6015625] [0.147216796875:0.78759765625] [0:30] [0:30] [0:94.0625] [0:175.625] none [0:30] [0:15.2890625] [0:14.9609375] [0:30] [0:20] [0:30] [0.00714111328125:2.060546875] [0:30] [0:175] [0:30] [1:5] [0:30] [0:2] [0:30] [0:354] [0:30] [0:15.6953125] [0:30] [0:14.9609375] [0:175] [0:81.875] [2017:2021] [0:30] [0:30] [0:30] [0:30] [0:30] [0.003875732421875:19.84375] [0:300.5] [0:14.9609375] [0:184] [0:323] [0:30] [0:30] [0:30] [0:30] [0.7919921875:2.396484375] [0:193.125] [0:30] [0:10] [0:95] [0:30] [0:205] [0.396728515625:6.25390625] [0:14.9609375] [0:15.2890625] [0:272] [0:30] [0:30] [0:30] [0.107177734375:3.736328125] none [0:30] [0.00531768798828125:18.234375] [0:334] [0:30] [1:31] [0:1] [0:30] [0:195.875] [0:1] [0:19] [0:30] [0:1] [0.00390625:6.08203125] [0:30] [0:15.6953125] [0.06414794921875:8.296875] [0:30] [0:1] [0:30] [0.01129913330078125:1.2509765625] [0:30] [0:30] [0.0736083984375:4.7578125] [0:30] [0:77.5625] [0.00412750244140625:6.08203125] [0.33837890625:2.45703125] [0:14.9609375] [0:166] [0:177.75] [0:15.2890625] [0:30] [0:14.9609375] [0:30] [0:30] [0:154.625] [0:30] [0:30] [0:30] [0:30] [0:30] [0:30] [0:5] [0:175.625] [0:184] [0:30] [0:15.6953125] [0:30] [0:16.03125] [0:30] [0:30] [0:30] [0:30] [0:30]
tree_sizes=13425 13774 13845 13839 13888 13928 13981 13947 14021 14010 14086 14057 13992 14026 14088 14097 14105 14121 14076 14168 14143 14105 14135 14148 14212 14160 14129 14153 14105 14168 14148 14122 14137 14144 14110 14155 14143 14220 14142 14180 14182 14153 14097 14175 14096 14173 14089 14184 14109 14184 14162 14178 14225 14135 14170 14123 14115 14074 14171 14073 14250 14085 13996 14138 14162 14061 14152 14191 14109 14065 14035 14021 14103 13939 14050 13978 14005 14022 14019 14053 14083 14035 14025 14112 13997 13932 14057 14088 14137 14015 14260 14131 13993 14119 13984 13839 14031 13970 14165 13988 13998 13996 14177 13877 14031 14164 14237 13931 14095 13878 10218 14060 14063 14143 13835 14129 13957 14041 14146 13925 14087 13963 14103 13938 14083 13952 14034 14037 14113 14145 13866 14163 13945 13169 14217 13791 14012 13846 13948 14226 14198 14034 14078 14058 14045 13932 13890 14011 14105 13870 14015 14020 13857 13969 14116 14089 13930 13975 13893 14053 13974 13906 13911 13917 13925 14031 14098 13902 13971 13941 14147 2006 13819 13945 13963 14076 14316 2751 13825 13784 13793 13931 13822 5413 13998 13855 14018 14193 2875 13941 14014 14036 14008 14074 14107 13903 14090 14093 3910 14174 13967 13969 13982 14035 13953 13846 14056 14082 13759 13974 13815 10681 13326 13797 5597 7835 13777 14104 14068 6566 13928 13885 13959 14143 13865 13927 14023 13932 13926 13852 14054 13973 13836 14138 13935 13943 13786 14041 13867 14222 14140 14009 13980

Tree=0
num_leaves=128
num_cat=0
split_feature=23 53 23 14 14 78 23 23 24 23 23 24 80 23 24 24 23 24 74 23 14 28 23 23 23 80 24 80 23 80 74 24 23 80 24 67 23 80 24 23 80 3 104 136 78 14 14 24 67 14 24 78 14 14 40 24 24 24 20 20 136 80 24 134 101 67 20 132 80 134 46 52 8 80 23 67 20 32 25 85 23 53 67 32 67 14 3 23 52 14 67 67 94 32 80 24 4 23 134 119 32 20 80 46 23 42 24 80 25 24 24 67 129 23 24 67 24 24 24 24 67 46 40 28 57 15 24
split_gain=771743 207927 155147 52980.2 43361.6 25850.3 21267.8 13633.6 10084 9193.01 8943.83 8711.23 8026.49 7028.6 6557.06 6002.04 4651.79 4566.7 3284.47 3198.07 3103.48 2837.25 2725.25 2602.24 2453.38 2298.72 2293.64 2042.63 2018.59 1971.46 1900.48 1665.01 1530.53 1521.76 1590.62 1339.18 1337.56 1292.6 1199.09 1164.4 1117.4 1100.1 1061.96 998.84 992.609 991.674 975.838 956.356 953.94 897.132 884.946 870.355 829.398 819.182 805.789 793.354 853.029 1059.27 855.506 848.377 789.956 762.035 759.369 758.303 755.16 739.083 722.822 699.111 658.782 657.845 646.718 638.546 635.602 628.198 618.665 1133.02 611.376 708.619 605.526 601.677 584.371 578.347 554.107 531.971 528.865 522.701 514.308 502.062 501.199 497.695 483.569 479.427 477.332 473.936 467.899 467.493 461.944 444.323 443.075 438.437 421.894 550.015 419.845 411.119 406.594 430.459 406.177 403.937 399.871 397.184 593.863 395.575 463.384 390.331 388.016 388.043 386.968 658.48 385.909 383.895 379.578 377.19 372.88 372.407 367.745 367.561 366.696
threshold=3.0791015625000004 9.9296875000000018 1.3872070312500002 23.929687500000004 5.0722656250000009 2.5000000000000004 0.80834960937500011 7.1972656250000009 350.50000000000006 4.5273437500000009 4.8457031250000009 350.50000000000006 8.5000000000000018 1.9506835937500002 350.50000000000006 345.00000000000006 2.2587890625000004 353.00000000000006 3.0712890625000004 0.52368164062500011 16.929687500000004 2.6435546875000004 6.7441406250000009 1.0981445312500002 5.3339843750000009 26.500000000000004 345.00000000000006 22.500000000000004 6.8964843750000009 10.500000000000002 4.3574218750000009 345.00000000000006 2.2177734375000004 51.500000000000007 345.00000000000006 0.91772460937500011 1.9409179687500002 23.500000000000004 353.00000000000006 2.3994140625000004 51.500000000000007 12.796875000000002 1.0654296875000002 45.500000000000007 2.0712890625000004 1.3574218750000002 14.359375000000002 39.000000000000007 0.28918457031250006 7.7851562500000009 91.500000000000014 1.6425781250000002 7.0722656250000009 29.789062500000004 2.9287109375000004 91.500000000000014 226.00000000000003 338.00000000000006 1.5000000000000002 1.5000000000000002 1.0000000180025095e-35 65.500000000000014 30.000000000000004 1.5000000000000002 1.5000000000000002 0.15728759765625003 1.5000000000000002 1.7856445312500002 24.500000000000004 1.5000000000000002 0.13153076171875003 1.5000000000000002 3.5000000000000004 52.500000000000007 3.5263671875000004 1.2797851562500002 1.5000000000000002 0.39282226562500006 2.6259765625000004 2.2070312500000004 0.31506347656250006 1.2143554687500002 0.063690185546875014 1.5356445312500002 0.45300292968750006 0.78564453125000011 6.4511718750000009 0.65307617187500011 1.5000000000000002 1.5000000000000002 1.7211914062500002 0.27355957031250006 14.500000000000002 0.32141113281250006 27.500000000000004 205.00000000000003 0.72290039062500011 8.1328125000000018 1.0000000180025095e-35 1.1728515625000002 0.10711669921875001 1.5000000000000002 67.500000000000014 0.50854492187500011 4.2578125000000009 3.8115234375000004 340.00000000000006 50.500000000000007 9.0976562500000018 226.00000000000003 112.50000000000001 0.97290039062500011 1.0000000180025095e-35 5.6914062500000009 353.00000000000006 2.0058593750000004 91.500000000000014 226.00000000000003 353.00000000000006 310.00000000000006 0.41247558593750006 0.39135742187500006 4.9277343750000009 4.7851562500000009 3.1074218750000004 0.78564453125000011 5.5000000000000009
decision_type=2 2 2 2 2 2 2 2 2 2 2 2 2 2 2 2 2 2 2 2 2 2 2 2 2 2 2 2 2 2 2 2 2 2 2 2 2 2 2 2 2 2 2 2 2 2 2 2 2 2 2 2 2 2 2 2 2 2 2 2 2 2 2 2 2 2 2 2 2 2 2 2 2 2 2 2 2 2 2 2 2 2 2 2 2 2 2 2 2 2 2 2 2 2 2 2 2 2 2 2 2 2 2 2 2 2 2 2 2 2 2 2 2 2 2 2 2 2 2 2 2 2 2 2 2 2 2
left_child=2 4 6 7 9 8 19 24 13 14 15 16 43 45 18 37 69 23 61 80 55 42 33 48 50 114 28 36 49 -24 111 46 -13 34 47 -34 121 -6 65 81 -28 72 -12 -5 92 64 116 71 -8 109 -3 84 54 -14 90 122 59 -58 -59 -57 67 62 88 -37 -4 -21 -27 -31 -19 100 -29 -11 -22 103 -20 -76 -32 -78 -54 -64 -1 -15 -82 -48 -25 -50 -30 -67 -2 120 -39 -89 102 104 -36 107 -69 -44 -66 -46 101 -7 -35 -17 -52 -106 -97 -74 -43 110 -23 112 -18 -49 -16 -116 -26 124 -38 -95 -41 -10 -9 -51 -118 -91 -71
right_child=1 3 5 12 10 11 17 20 27 22 21 32 53 39 25 73 30 68 74 38 41 26 29 51 31 66 40 70 86 60 76 -33 35 44 94 63 118 52 -40 89 -42 108 97 -45 99 -47 83 113 85 123 93 -53 78 -55 -56 56 57 58 -60 -61 -62 -63 79 -65 98 87 -68 96 -70 126 -72 -73 95 -75 75 -77 77 -79 -80 -81 82 -83 -84 -85 -86 -87 -88 91 -90 125 -92 -93 -94 119 -96 106 -98 -99 -100 -101 -102 -103 -104 -105 105 -107 -108 -109 -110 -111 -112 -113 -114 -115 115 -117 117 -119 -120 -121 -122 -123 -124 -125 -126 -127 -128
leaf_value=0.84203184507716344 1.0695775291004048 1.0559781103610668 0.915330967667632 1.5160183478791889 0.99759572595685331 0.93217085608996231 0.88588964756959809 1.4033485384133018 1.0130515060744836 1.2086586196144626 1.4771380278301565 0.99147614217498781 1.4213297664941527 0.90353888675389638 1.0692422401303379 1.2174733284544972 1.2831855039404536 0.92590102587962686 0.97243259178790298 0.8729773306380223 1.2315014145624865 1.0500352028378355 1.4852602773567245 0.89211245378255488 1.108175464817944 1.0539379364039627 1.2241151554682022 1.0647583947294004 1.1196637186882843 1.0537414808852403 0.97024824476586735 1.2976843188424827 1.2390624557400163 0.96514358483671037 1.2372314878808575 1.0091240346014818 0.98142302611109633 1.2856801867035104 0.87864376137043054 1.1676023790633163 1.0780664870087162 1.6241776799392986 1.1734458869441804 1.7265859377430597 1.0536092460900248 0.90139071671368043 1.2655107743481115 1.0052164534984116 0.8645369537602775 1.1916933755991215 1.1116800217095786 0.89312211003776087 1.1450957086668136 1.5625066214261873 1.0224709740185776 1.2495344163932443 1.1989982190395818 1.3628872258584133 1.1754786047030821 1.3413061815362661 1.0293087149394207 0.92275304266870695 0.94256131160053669 1.0772428338978324 0.89512684714895707 0.85268698129557685 0.95282465279924344 1.217557051342856 0.89867926805810283 0.97697443695994945 0.93847656283958747 1.0555621523780607 1.3056233305816225 1.0512179792879475 1.4490595111027136 0.99451477557794599 1.0426484928978035 0.98149686766273425 1.0534143283819504 0.96222219916222207 0.87443245755275056 0.91740354742893881 0.84894858673057694 1.1850019581695519 0.87707194377212749 0.87220260624263013 1.1745027294083195 0.86578255373888413 0.97863475787222654 0.96555721425418939 1.0869357446234225 0.85654564979402703 1.1571683600565694 1.0968219039553078 1.0975731430904896 1.2890296930895282 1.1082320127266825 1.3060752934204927 0.88506284496093812 0.99533293305754766 0.92791501969149792 0.9728282966546179 0.90452775817977127 1.1450733383005163 1.4595069483946319 1.1962650904482794 1.3951876983277001 1.3989851526486596 1.4132873083497171 1.0488470545001241 1.1002679921644529 0.94783565200131847 0.99339037531552554 1.0403484889237544 1.2357522076081124 1.1392458112846995 1.2353405720992414 1.1298269253270918 1.0588638911278703 1.1767804994931323 0.91887813358876091 0.96045960760026061 1.1725515897616097 1.098510510828886 1.1686458877486088 0.9310214506889416 0.91493110319047499
leaf_weight=147792.6295311451 674.34928011894226 2339.4422409534454 11096.93567276001 258.27049016952515 10096.898187160492 8188.97327876091 30383.021901369095 72.543846368789673 1789.9423484802246 299.3944845199585 170.49892973899841 6959.7496380805969 2611.1997797489166 56377.097616910934 479.16289067268372 1094.4088885784149 58.375710964202881 15623.774409532547 20243.814934015274 29072.307754278183 851.53398776054382 4061.3775174617767 114.08941054344177 26243.461145401001 1800.8794822692871 2118.4864456653595 2053.9191992282867 417.34913945198059 5857.048574924469 2444.8610224723816 19816.483766078949 1049.9662477970123 384.69058680534363 4233.12824177742 353.07111024856567 2927.9936375617981 798.01037192344666 146.53342652320862 28421.610517024994 61.429463386535645 703.21721243858337 130.95312714576721 891.71405649185181 1763.3182742595673 1567.6545960903168 120355.12830328941 1173.9239346981049 17264.929696559906 232520.92360448837 447.84000444412231 639.10707902908325 50780.127020120621 768.76559114456177 487.79056930541992 20482.796499490738 2930.01003074646 4262.0052924156189 813.1410174369812 347.75270080566406 1535.0836310386658 3367.9091868400574 7794.735258102417 31392.946091890335 3698.4381093978882 66531.785899162292 195019.83101773262 1061.1124205589294 474.74174165725708 20627.479656934738 976.86283421516418 14331.886374950409 3025.3927943706512 749.74164032936096 548.45525455474854 54.947000741958618 27751.297853708267 2880.0663216114044 5540.0089039802551 11449.208184480667 30872.545372247696 8779.4629006385803 64516.505721092224 302989.64703011513 2727.9121763706207 214165.89938402176 144064.06528496742 2415.4837577342987 81003.128336906433 5979.1372327804565 3342.2853200435638 744.09681248664856 183448.55258369446 112.04488062858582 3430.3347623348236 748.37429881095886 2961.5100898742676 2079.3976466655731 352.42005825042725 127730.52026677132 7315.08354139328 33546.678601503372 5604.5331697463989 1565.1418597698212 2768.0698792934418 66.482980489730835 946.26744294166565 410.36297535896301 1213.4827566146851 286.86606764793396 7839.2542374134064 5596.6029665470123 64789.589752435684 1006.982479095459 3871.6513204574585 609.720534324646 1315.7545869350433 1154.3646383285522 3837.561901807785 3323.3732752799988 727.8654637336731 52106.136009216309 5726.8697783946991 1997.6999785900116 10135.938254117966 2912.844158411026 39527.211180210114 38371.570540428162
leaf_count=69553 249 878 4860 44 4052 3525 13705 16 706 92 32 2812 555 24987 177 332 16 6769 8351 13281 253 1535 21 11765 634 797 617 155 2032 920 8194 281 113 1760 104 1160 326 40 12912 20 257 16 288 135 590 53458 331 6870 107096 141 224 22742 258 73 7993 847 1328 194 112 381 1304 3388 13368 1353 29737 90853 447 144 9187 401 6129 1136 198 207 11 11175 1098 2263 4310 12876 4005 28196 141657 867 97446 65862 779 37264 2450 1389 269 85147 37 1225 267 804 732 93 57663 2943 14504 2311 693 929 13 296 92 270 62 2967 1990 27437 406 1480 180 445 341 1314 1243 234 22738 2393 646 3612 947 17035 16812
internal_value=0.898446 1.04603 0.879671 1.24124 1.01214 0.917178 0.862949 1.20369 0.906399 0.983839 1.06935 0.948618 1.54467 0.903458 0.969975 1.04019 0.942738 0.875806 0.96523 0.853281 1.26732 1.10396 1.02084 0.874009 1.15189 1.07599 1.09893 0.966765 1.09226 1.07237 0.958136 1.17635 1.0247 1.01001 1.02479 1.05767 0.998086 1.02897 0.858676 0.917449 1.18686 1.32234 1.24309 1.69968 0.984488 0.894183 1.16699 1.01949 0.868845 1.07947 1.10791 0.881226 1.0384 1.44355 1.02652 1.23693 1.24872 1.22206 1.30675 1.28109 1.06674 0.952389 0.955741 1.04714 0.889959 0.857515 1.02019 1.09196 0.910411 0.926026 0.94205 1.06935 1.31173 1.15137 0.985731 0.995413 0.97984 1.00241 1.05918 0.95231 0.847211 0.910938 0.849666 1.20922 0.878714 0.867469 1.13568 0.856536 0.987852 0.925731 1.11963 0.859375 0.952732 1.12882 1.14234 1.32454 1.12855 1.21102 0.88851 1.00562 0.933968 0.948691 0.948781 1.16559 1.17413 1.21355 1.30195 1.36333 1.47938 1.06557 1.07914 0.948829 1.00927 1.01165 1.14977 1.16981 1.15001 1.15954 1.04387 1.11082 0.919171 0.972983 1.18064 1.10245 1.18758 0.933714 0.916471
internal_weight=0 314300 2.47372e+06 46490.2 267809 762783 1.71094e+06 41369.6 568032 179185 88624.5 194751 5120.58 541645 130348 48099.2 180780 734409 124764 976527 18562.7 40525.3 48836.9 698157 22807 5584.24 39110.7 26387.4 36353.5 8481 94091.5 14657.5 13970.9 40355.9 25562.8 7011.12 11638.2 43688.3 516965 215931 2757.14 6604.45 1414.63 2021.59 14793.1 325714 13607.5 24461.4 406968 28081 8149.5 291189 33591.4 3098.99 21373.4 11958.2 9887.99 5422.9 1160.89 4465.09 8366.91 76713.7 68919 6626.43 205359 488544 3179.6 4999 36251.3 86688.6 14749.2 3324.79 6186.63 4410.93 48050.1 27806.2 28236.6 8420.08 12218 62265.5 459562 120894 311769 3901.84 240409 376585 8272.53 459472 6653.49 95037.1 890.63 264452 5910.31 5810.06 1101.45 5335.1 2554.14 1244.13 194262 8882.74 47340.2 13793.5 5798.27 3862.48 1651.86 1012.75 3371.87 1963.22 417.819 17497.2 9657.98 65854.9 1065.36 21136.6 2404.64 1925.48 9705.65 7904.77 4121.38 4158.2 52167.6 7516.81 2070.24 10583.8 4067.21 42869.5 39348.4
internal_count=1242035 119351 1122684 13611 105740 333440 789244 12804 251035 73007 32733 82405 807 240083 53914 18390 76967 334572 51868 454672 5219 14343 19093 318616 7585 2046 13930 10952 13056 3121 39414 4715 5438 15972 9949 2626 4668 16922 239457 94365 874 1695 413 179 6023 145718 4434 9578 186663 10245 2870 131953 12870 628 8302 3524 2862 1634 306 1228 3100 32331 28943 2513 92260 226545 1244 1796 15956 37553 6284 1228 1617 1468 19537 11186 11555 3361 4568 26244 215215 53183 145662 1198 109211 172958 2811 213264 2699 41182 309 122411 2490 1992 371 1364 876 381 87400 3533 20340 5836 2453 1261 533 309 896 468 78 6492 3525 27859 422 8350 802 625 3236 2602 1569 1459 22758 3099 662 3753 1288 18424 17213
is_linear=0
shrinkage=1


Tree=1
num_leaves=128
num_cat=0
split_feature=23 53 23 77 14 53 23 23 77 23 24 23 24 24 23 24 24 14 87 23 23 23 24 23 23 78 77 23 80 134 76 73 24 80 78 80 80 24 77 23 14 23 80 24 67 42 24 134 67 77 40 32 42 117 101 24 78 80 24 80 67 37 26 87 14 73 23 80 25 84 20 67 23 74 67 104 134 24 32 20 117 23 24 12 67 31 136 24 104 36 101 23 67 40 11 24 24 73 24 24 15 54 85 26 28 80 24 24 24 52 24 24 23 5 24 23 14 67 15 23 74 23 67 32 24 24 23
split_gain=576492 147108 103294 42084.6 29672.9 15317.1 14449.2 10562.1 8357.58 8251.69 7230.47 6427.21 5192.34 5063.85 4787.26 4175.54 3368.74 2920.41 2806.62 2551.68 2016.55 1953.06 1947 1917.26 1817.16 1751.62 1707.45 1661.14 1415.28 1402.42 1205.6 1179.78 1174.24 1135.24 1102.43 1052.05 1028.41 1004.62 975.802 923.591 853.968 813.662 809.438 791.042 786.71 784.912 770.897 768.215 759.213 736.861 782.025 728.493 718.737 702.504 642.336 637.802 636.237 632.813 606.605 595.037 591.391 559.747 556.245 551.579 547.905 546.333 543.017 541.452 538.661 536.817 522.189 518.946 566.391 518.036 517.604 511.768 489.873 467.329 442.292 441.723 432.535 431.577 430.78 430.587 429.824 426.847 424.375 423.707 414.576 414.321 411.865 408.004 512.099 401.056 389.768 386.238 378.305 375.895 371.144 370.23 374.026 364.924 363.13 361.973 361.871 357.764 351.689 597.914 448.909 348.974 343.792 399.38 343.14 341.09 339.906 327.219 324.18 323.878 323.113 321.969 319.564 312.294 393.843 305.795 300.616 298.316 297.16
threshold=2.7412109375000004 8.9296875000000018 1.2729492187500002 28.281250000000004 4.2148437500000009 2.3564453125000004 0.73315429687500011 6.8964843750000009 53.296875000000007 4.3964843750000009 345.00000000000006 4.1386718750000009 345.00000000000006 345.00000000000006 1.8588867187500002 350.50000000000006 350.50000000000006 13.785156250000002 2.0712890625000004 2.0458984375000004 0.44348144531250006 1.0122070312500002 347.00000000000006 4.8457031250000009 6.0566406250000009 2.5000000000000004 111.00000000000001 6.1855468750000009 26.500000000000004 1.5000000000000002 2.3593750000000004 13.785156250000002 345.00000000000006 51.500000000000007 3.9287109375000004 30.500000000000004 67.500000000000014 353.00000000000006 19.648437500000004 1.7270507812500002 12.640625000000002 1.9946289062500002 56.500000000000007 350.50000000000006 0.27941894531250006 1.1577148437500002 353.00000000000006 1.0000000180025095e-35 0.37365722656250006 6.0722656250000009 0.78564453125000011 1.6782226562500002 2.3974609375000004 0.33911132812500006 1.5000000000000002 338.00000000000006 1.0712890625000002 51.500000000000007 83.000000000000014 65.500000000000014 0.11331176757812501 2.0861625671386721e-07 1.7856445312500002 4.9277343750000009 0.92846679687500011 6.6425781250000009 8.1328125000000018 21.500000000000004 2.0861625671386721e-07 1.0986328125000002 1.5000000000000002 0.23815917968750003 1.0034179687500002 1.0712890625000002 0.43054199218750006 0.87622070312500011 1.5000000000000002 338.00000000000006 0.82128906250000011 1.5000000000000002 0.39526367187500006 0.86840820312500011 331.00000000000006 0.82128906250000011 0.66284179687500011 1.0312500000000002 1.0000000180025095e-35 294.50000000000006 1.0483398437500002 6.4648437500000009 1.5000000000000002 0.61157226562500011 0.21893310546875003 3.2138671875000004 4.2148437500000009 338.00000000000006 140.50000000000003 6.2148437500000009 5.5000000000000009 46.000000000000007 15.359375000000002 324.50000000000006 8.2773437500000018 10.070312500000002 0.21423339843750003 25.500000000000004 107.00000000000001 238.50000000000003 343.50000000000006 1.5000000000000002 100.00000000000001 238.50000000000003 3.4052734375000004 1.0000000180025095e-35 233.00000000000003 3.6279296875000004 1.3574218750000002 0.58178710937500011 4.6425781250000009 1.8178710937500002 1.9287109375000002 0.26843261718750006 0.054412841796875007 2.3925781250000004 107.00000000000001 353.00000000000006 1.5942382812500002
decision_type=2 2 2 2 2 2 2 2 2 2 2 2 2 2 2 2 2 2 2 2 2 2 2 2 2 2 2 2 2 2 2 2 2 2 2 2 2 2 2 2 2 2 2 2 2 2 2 2 2 2 2 2 2 2 2 2 2 2 2 2 2 2 2 2 2 2 2 2 2 2 2 2 2 2 2 2 2 2 2 2 2 2 2 2 2 2 2 2 2 2 2 2 2 2 2 2 2 2 2 2 2 2 2 2 2 2 2 2 2 2 2 2 2 2 2 2 2 2 2 2 2 2 2 2 2 2 2
left_child=2 4 6 7 11 10 20 23 66 15 14 13 19 25 47 35 21 63 30 76 121 44 24 58 65 59 -10 36 46 79 75 -19 40 -24 -21 82 55 -31 77 74 110 -14 45 60 -8 69 -15 117 -23 50 -37 96 88 -43 -49 61 90 109 -3 68 -22 -13 -27 -9 -56 -20 -5 101 -2 -29 -30 -18 -73 -50 -39 -11 114 103 -36 119 -70 -46 98 -63 -41 -85 -26 -28 -51 -47 -16 -62 -93 -52 -60 123 -42 -88 -6 -40 -101 -17 -44 -33 -58 -55 -65 113 -109 -57 -25 -112 -64 -108 -7 -96 -61 -4 -54 -12 -38 -1 -123 -68 -100 -111 -119
right_child=1 3 5 8 9 12 16 17 26 18 29 27 41 28 56 67 71 31 22 34 43 48 33 32 86 62 87 42 70 37 -32 38 -34 -35 78 49 120 39 99 84 51 53 102 -45 81 89 -48 54 73 52 93 -53 118 105 64 57 104 -59 94 116 91 83 112 106 -66 -67 95 -69 80 -71 -72 72 -74 -75 -76 -77 -78 -79 -80 -81 -82 -83 -84 85 -86 -87 97 -89 -90 -91 -92 92 -94 -95 115 -97 -98 -99 124 100 -102 -103 -104 -105 -106 -107 107 108 -110 125 111 -113 -114 -115 -116 -117 -118 126 -120 -121 -122 122 -124 -125 -126 -127 -128
leaf_value=-0.054889787875404855 0.066222936408511721 0.10877706407129305 0.012093031336421898 0.2326026753365199 0.16883024620272843 0.029576140252157671 -0.019023372888511074 0.3567213290589647 0.55520059659771492 0.43974068896387952 0.014293138565464309 0.10299271644753255 0.062927812741065459 0.107659328175331 0.029616704660028016 0.24988390348721157 0.043540893467708348 0.66646784469402631 0.11410600411889538 0.033299118731549747 -0.021676939975863618 -0.0014804385059006872 0.23776771877611563 0.1450021597791753 0.20064797853325894 0.08433522859024975 0.68303921007325519 0.20650702193525405 0.10350873444623732 0.03199434377549349 0.51382629223212473 0.3610034410488695 0.27504424871339961 0.11647552396820358 0.075636313969280528 0.33064000529260423 0.004009529453818674 0.13443256512781981 0.25176621481204198 0.17459258876715353 0.19311957921955378 0.21675975536930317 0.08684024330797592 -0.024926674528267512 -0.035918312105395284 0.11157996803783735 0.18901220373280236 0.012531279857761002 -0.024517394362787097 0.35098066587413568 0.11953773667559056 0.1976802958550142 0.15418862519186882 0.11946461393440955 -0.017623208683328669 0.044353256224981291 0.053163459866737622 0.061685302522990239 0.34725980668439743 -0.0036370685905642085 -0.044325829072058662 0.044786994643526035 0.048086765195256551 0.19093492220383684 -0.0078246342362939727 0.13855927841836865 0.46129417163225944 0.15260001240604903 -0.0044842245207564009 0.48826091760492868 0.038214423483448424 -0.010902924974976327 0.01256998123619793 -0.015264694820037389 0.047304648885539896 0.22157054177004554 0.008127000405853603 0.34775299568049312 0.048716639502454348 -0.011347245299403876 0.037256303823462088 -0.028968938248184296 0.11697970644076833 0.30499200777496061 0.093166054816612096 0.078431519082794332 0.13546598733361262 0.80663139895942049 0.1685923690987447 0.17860754030307427 0.0026929182912292043 -0.027991857838928765 -0.040719649186496315 0.082377686018526602 0.11816193573823826 0.54410813063231245 0.29068326910685743 0.16850480138076282 0.048088798240960247 0.41036456950504069 0.32330465152084775 0.16953706461025111 0.19781757875229788 0.26106152596040283 0.015073348351177627 0.079757796287368357 0.4278408247984703 0.19644010931430708 0.26860403703315466 0.14682491634488556 0.20024966722151716 0.16216158340993667 0.064139661179842752 0.25664638205001528 0.010285478238285503 0.16917943557918647 0.032751122183615672 -0.0081191284260753675 0.10579158520399197 0.047532065526246191 0.060317872557239097 -0.029357103569718643 -0.048981702762136266 0.38330743740744788 0.073867022235729038 0.23384200119996038 0.0025199902840562513
leaf_weight=94745.46103811264 6318.0164678096771 3136.7078838348389 15439.105579137802 184.95531320571899 353.19627356529236 29927.258769750595 50862.805601358414 322.05732989311218 1147.0047664642334 113.41864657402039 7250.028977394104 8880.0214121341705 8460.2188222408295 1957.3288705348969 6117.2913024425507 1342.3615305423737 2832.9083080291748 84.052767515182495 22819.525063991547 60584.898597717285 15440.559378623962 20719.729221105576 3085.4551682472229 2847.3788938522339 2543.7677438259125 6634.9633986949921 833.11249256134033 1030.1269519329071 3731.0534310340881 10616.716467857361 164.29961514472961 378.33913683891296 1775.6305549144745 1029.0019557476044 8923.375461101532 132.09007596969604 2084.5119013786316 734.86291027069092 632.90043997764587 744.402099609375 525.22242879867554 535.35118174552917 4638.3065633773804 33136.543539524078 172319.8259241581 3206.4734072685242 2876.7197613716125 10901.687558174133 176596.36216592789 175.52216148376465 3291.4783663749695 5119.0912601947784 1526.4627485275269 4377.4929776191711 105264.56900548935 229.35397911071777 2548.3013298511505 955.72388577461243 110.76610350608826 5600.7455575466156 245425.15015530586 4200.8999168872833 37578.409322738647 2523.7617292404175 124631.90912818909 15237.393000841141 638.74987363815308 3202.3691577911377 2572.7690908908844 72.372590780258179 1823.4325811862946 23615.291170597076 18203.937563657761 92049.625763654709 9450.1205976009369 2066.7636747360229 38143.11757516861 743.89156055450439 19312.987414360046 3818.7832791805267 70828.917593479156 185634.75323081017 1895.1430628299713 83.404179096221924 5020.1962203979492 28165.667150497437 5423.2944898605347 415.83876800537109 429.79540729522705 1294.5299468040466 79803.085097312927 39153.138689756393 164119.11498308182 24695.380347490311 1598.267692565918 198.00004577636719 1633.5093667507172 9433.8844060897827 6719.2440121173859 554.81171631813049 4463.6657478809357 976.49183988571167 314.86009526252747 8598.3816931247711 117459.25553750992 4711.4422538280487 119.87888765335083 4285.9646167755127 1079.0466551780701 1200.5079152584076 6414.8268294334412 4822.7601306438446 20623.598473072052 3991.1096048355103 13146.491851806641 5891.0427348613739 4349.7484178543091 59261.403980493546 14326.847293376923 4872.908848285675 1951.4263205528259 10754.933844566345 208081.97362089157 2362.2052733898163 13845.564850330353 586.42291235923767 47133.07001042366
leaf_count=46843 2500 1093 6839 43 121 12589 23592 66 118 22 3129 3217 3325 722 2616 353 1210 7 7977 25163 7297 9382 805 905 742 2560 56 305 1359 4520 23 77 416 351 3437 33 912 262 154 242 143 155 1671 15541 82219 1098 850 4765 82400 44 1171 1454 510 1533 48392 86 1055 369 25 2454 119016 1658 15139 710 56288 5009 94 1018 1112 13 742 10667 7955 42311 3841 585 16644 147 7770 1682 29199 87484 671 24 1843 10617 1790 17 137 405 35258 18533 78951 9232 540 24 381 2894 2628 97 910 293 97 2070 50718 1772 22 1192 253 402 1829 1480 7997 981 5672 1820 1827 26784 5053 2009 759 5142 101735 403 5256 164 20951
internal_value=0 0.10686 -0.0195563 0.242369 0.08138 0.00965791 -0.0345835 0.218181 0.500384 0.118439 0.00197653 0.0590528 0.0346089 0.0489248 -0.000997783 0.0956415 -0.024508 0.263889 0.145285 0.0291909 -0.0438138 -0.0262111 0.141061 0.1807 0.136137 0.0443808 0.64329 0.0874096 0.116507 0.041759 0.252606 0.292839 0.196906 0.207433 0.0409048 0.0887918 0.0795612 0.0558293 0.290796 0.0716949 0.190411 0.0855514 0.123347 -0.0398536 -0.0306608 0.149381 0.156072 -0.00791259 -0.0199245 0.09773 0.0878937 0.218226 0.114535 0.105439 -0.0111865 0.0839637 0.0111789 0.128708 0.145776 0.0353269 -0.0409193 0.0807461 0.0569023 0.227574 -0.0123112 0.123897 0.3992 0.179248 0.0382049 0.225003 0.0820738 0.00212072 -0.000685154 -0.021347 0.0535911 0.23292 0.0163801 0.271586 0.0572239 0.0183112 0.0357933 -0.0323144 0.0713262 0.0746583 0.103681 0.0791004 0.162907 0.724189 0.221479 0.130858 0.00460982 -0.0415815 -0.0382681 0.086748 0.161046 0.408832 0.266946 0.156445 0.06719 0.32384 0.332929 0.216049 0.0938948 0.265274 0.0158822 0.0988817 0.224108 0.232943 0.210954 0.160477 0.176039 0.183904 0.053775 0.261639 0.0236885 0.158292 0.0122696 -0.00144189 0.110452 0.0276538 0.0312353 -0.0500937 -0.0480172 0.399907 0.0654444 0.175382 -0.00340597
internal_weight=0 426052 2.35288e+06 67432.9 358619 799190 1.55369e+06 61653.1 5779.87 134829 611068 223790 188123 164896 568560 72911.9 742835 27777.9 61916.8 170038 810857 698183 59572.3 33875.2 55457.9 154507 2395.96 58894.6 10388.5 42508 2344.48 15456 23138.4 4114.46 88821.3 67390.7 48337.9 26566.3 15372 15949.6 21362.8 18084.5 10556.7 497275 408817 5603.5 4834.05 362632 289366 44577.6 28118.9 7277.82 16458.6 9624.29 240798 44302 205928 2972.01 10736.8 89670.2 464138 41330 64837 12321.8 229896 38056.9 3383.91 5521.22 79719.7 1102.5 5554.49 44652.1 41819.2 268646 10185 2180.18 81216.9 9720.61 28236.4 15941.7 73401.7 357955 22813.1 32450 5764.6 28249.1 17400.9 1248.95 605.318 4501 85920.4 448697 203272 27986.9 7600.08 3198.96 2158.73 14857.2 20918 5651.38 5018.48 2318.85 4953.17 8976.72 120008 9088.94 11999.8 9476 5365.01 2016.28 14085 11237.6 58202 4110.99 43073.8 7489.31 9950.49 121834 15853.3 12122.9 4035.94 313582 218837 3000.96 20564.8 1786.93 106394
internal_count=1242035 152503 1089532 17527 134976 349254 740278 16772 755 46718 271194 88258 78060 66461 253666 26520 347220 6686 20198 71275 393058 327388 19568 10086 18412 62788 191 21797 3673 17528 630 3462 6608 1156 36370 24856 18208 10708 3455 6188 6192 6785 3589 239338 193295 1821 1572 164019 134093 16180 10436 1978 5744 3460 109445 16537 89647 1021 3478 37092 223797 15516 25696 3224 104680 12986 564 1664 32811 318 2101 19832 18622 124711 4103 607 34905 2294 11207 6820 30311 169703 8676 12299 2085 10641 5426 73 181 1503 37874 216500 97484 10403 2385 521 524 4684 8005 1161 1007 646 1768 2147 51773 3305 3158 2448 1445 652 4214 3309 23136 1003 18261 2360 4281 54574 5563 5138 1671 153720 106877 497 7884 566 47735
is_linear=0
shrinkage=0.1


Tree=2
num_leaves=128
num_cat=0
split_feature=23 78 23 77 14 53 23 23 23 24 23 24 23 24 38 24 24 23 23 77 87 23 78 23 24 132 136 132 82 134 23 24 71 134 134 20 24 67 23 23 24 24 24 67 67 77 77 67 87 24 24 101 20 23 134 24 67 134 62 23 24 87 4 20 57 20 53 24 104 53 67 23 24 20 24 24 20 67 20 79 123 46 134 23 24 82 32 74 9 14 24 20 23 69 67 77 32 24 67 136 2 134 134 67 78 138 23 67 77 134 24 14 37 24 101 134 67 24 1 14 2 20 15 76 114 126 134
split_gain=438479 100050 77917.3 27593 20509.4 11976.9 9892.67 9542.76 5762.87 4913.36 4897.1 3980.33 3923.89 3915.81 3509.7 3242.24 2442.03 2099.56 2085.93 2035.64 1509.09 1453.56 1323.32 1313.56 1258.81 1200.49 1144.74 1146.78 1115.13 1044.45 1030.06 960.958 932.925 846.972 844.628 755.53 750.403 742.322 728.388 719.809 718.837 714.884 991.581 689.88 680.637 678.558 674.014 671.198 669.856 637.755 942.743 612.246 595.962 588.658 573.798 561.766 549.578 530.815 551.877 510.267 500.843 497.785 484.382 484.289 476.649 468.969 457.406 450.472 449.786 439.439 422.83 429.529 416.278 415.439 410.121 549.569 580.406 408.96 400.874 419.983 399.6 397.619 460.892 388.747 373.37 369.616 364.829 362.806 355.679 350.062 346.985 344.942 362.098 344.214 343.971 341.711 340.917 339.202 349.514 336.313 333.725 329.741 329.737 320.909 318.471 313.824 309.817 502.815 305.376 291.945 289.953 288.942 286.617 284.132 282.466 295.798 301.35 280.867 279.965 276.478 276.223 275.808 269.235 269.151 264.381 253.218 253.103
threshold=2.5869140625000004 8.3593750000000018 1.1713867187500002 36.640625000000007 3.9287109375000004 2.0712890625000004 0.67309570312500011 7.7089843750000009 4.2578125000000009 345.00000000000006 4.1386718750000009 345.00000000000006 1.6762695312500002 345.00000000000006 101.50000000000001 345.00000000000006 345.00000000000006 1.7719726562500002 5.8046875000000009 20.648437500000004 2.2138671875000004 0.91821289062500011 2.0712890625000004 0.39196777343750006 350.50000000000006 3.3564453125000004 1.0000000180025095e-35 1.7856445312500002 47.500000000000007 1.5000000000000002 5.6914062500000009 119.50000000000001 1.0000000180025095e-35 1.5000000000000002 1.5000000000000002 1.5000000000000002 280.50000000000006 0.23480224609375003 1.6762695312500002 1.6547851562500002 338.00000000000006 231.50000000000003 112.50000000000001 0.37609863281250006 0.093078613281250014 12.500000000000002 8.5000000000000018 0.72241210937500011 0.92846679687500011 349.00000000000006 202.00000000000003 1.5000000000000002 1.5000000000000002 2.0380859375000004 1.0000000180025095e-35 353.00000000000006 1.2172851562500002 1.0000000180025095e-35 1.0000000180025095e-35 6.8964843750000009 350.50000000000006 2.5000000000000004 0.43298339843750006 1.5000000000000002 5.3203125000000009 1.5000000000000002 5.6425781250000009 44.000000000000007 1.1918945312500002 2.3564453125000004 0.21319580078125003 0.92993164062500011 353.00000000000006 1.5000000000000002 98.500000000000014 226.00000000000003 1.5000000000000002 1.1870117187500002 1.5000000000000002 2.5000000000000004 4.1796875000000009 0.38525390625000006 1.5000000000000002 3.4521484375000004 39.000000000000007 1.0000000180025095e-35 1.1069335937500002 0.92846679687500011 1.0000000180025095e-35 11.640625000000002 5.5000000000000009 1.5000000000000002 3.4052734375000004 8.7734375000000018 1.0551757812500002 48.562500000000007 0.67871093750000011 353.00000000000006 0.51196289062500011 1.0000000180025095e-35 0.41723632812500006 1.5000000000000002 1.0000000180025095e-35 4.0234375000000009 0.78564453125000011 7.4505805969238292e-07 0.52709960937500011 0.18511962890625003 17.789062500000004 1.5000000000000002 231.50000000000003 6.0722656250000009 2.1621093750000004 154.50000000000003 1.5000000000000002 1.0000000180025095e-35 0.87182617187500011 360.00000000000006 1.5000000000000002 0.78564453125000011 0.59936523437500011 1.5000000000000002 14.500000000000002 2.3593750000000004 0.40075683593750006 1.3930664062500002 1.0000000180025095e-35
decision_type=2 2 2 2 2 2 2 2 2 2 2 2 2 2 2 2 2 2 2 2 2 2 2 2 2 2 2 2 2 2 2 2 2 2 2 2 2 2 2 2 2 2 2 2 2 2 2 2 2 2 2 2 2 2 2 2 2 2 2 2 2 2 2 2 2 2 2 2 2 2 2 2 2 2 2 2 2 2 2 2 2 2 2 2 2 2 2 2 2 2 2 2 2 2 2 2 2 2 2 2 2 2 2 2 2 2 2 2 2 2 2 2 2 2 2 2 2 2 2 2 2 2 2 2 2 2 2
left_child=2 4 6 7 10 9 23 18 15 12 13 17 51 22 95 34 21 101 31 28 46 37 57 -1 30 -19 27 59 45 52 74 80 62 102 41 117 -16 -8 -13 97 64 42 61 -23 -25 99 66 112 -24 50 78 -4 -15 126 -53 -31 -17 58 123 63 106 100 -29 84 73 94 -10 -21 88 -28 -18 -72 -41 -20 -22 76 -76 -57 -33 -80 -3 -59 -83 -50 -12 -32 121 -56 -61 -47 -36 92 -58 -63 -44 -5 -67 -35 -99 -9 -6 -7 -11 -52 -45 -68 -46 -108 -66 -49 -75 -87 -40 -92 -55 -116 -117 -26 -113 -39 -42 -27 -69 -2 -77 -115 -14
right_child=1 3 5 14 8 11 16 19 20 33 26 38 53 29 36 56 70 25 40 67 24 43 48 44 35 86 69 32 -30 55 85 49 -34 39 90 -37 -38 119 47 72 120 -43 65 104 60 89 -48 109 83 -51 103 54 -54 114 87 77 91 81 -60 68 -62 93 -64 -65 108 96 105 122 -70 -71 71 -73 -74 110 75 124 -78 -79 79 -81 -82 82 -84 -85 -86 111 -88 -89 -90 -91 113 -93 -94 -95 -96 -97 -98 98 -100 -101 -102 -103 -104 -105 -106 -107 107 -109 -110 -111 -112 118 -114 125 115 116 -118 -119 -120 -121 -122 -123 -124 -125 -126 -127 -128
leaf_value=-0.048463198936648952 0.052149623955265838 0.29759762299937254 0.006765218187500581 0.32254298577456131 0.24700411412579651 0.013126577977239746 -0.017961653107903403 0.23988708341200052 0.14957839354256294 0.016421110138270169 0.10385281621104002 0.037016087408586022 0.0059233575510729136 0.081794986604835529 0.49912107131839439 0.27730452948694417 0.026486251969454346 0.020236368658242094 0.15755252995075211 0.18437148679978935 0.07642626472192024 -0.010176768050243175 0.086195717801524074 -0.017453367168089817 0.20967350640004173 0.041222759326806566 0.038027690365040556 0.17838441160520963 0.4749476337439873 0.084385383751397869 0.159084362868262 0.12936578407230043 0.077407375254631761 0.011051376927609857 0.13793998574489977 0.081076153864641495 0.64549787857257424 -0.034697133511784599 0.18902071200522585 0.036936441389765783 0.24429166572577143 0.060468882406561703 0.29386147739449175 -0.027173691984871701 -0.043921677700364752 0.37070467678662655 0.42763447256072501 0.053212273428151657 0.037669204642986898 0.19039807662311878 0.10453827336825394 -0.0063060117220219529 0.013737220912172131 0.030393973336695371 -0.019098667046375417 0.22018808928464947 0.11516255582687998 -0.010157638104166837 0.027967071525927631 0.3592273066503211 -0.027195360411237841 0.054332910310952255 0.11730223795562084 0.035263947531639049 0.14531437278154138 0.13724860610416109 0.38983295283956032 0.35339243970181056 0.097360522403021219 0.06548267055191602 -0.016031164754354753 0.0014099736678891328 0.078181577549026951 0.21193294660499237 0.10533383518658404 0.05061640355979305 0.15310895399194083 0.13035488032867734 0.27528569628810468 0.16921836661141154 0.095497248737641455 9.9407706344159614e-05 0.026773816955519305 0.052615659042625412 0.061904862988335065 0.10480915830946845 0.033029848839833828 -0.011203730149743628 0.091427385174726733 0.21018515671652224 0.038445389457168036 0.072984623669300849 0.1591443372697563 0.30331362205085172 0.084150463376636064 0.39360651280412035 0.09728465360826101 0.079865641124987466 0.031335187014737274 0.16729824724907441 0.10079968190120175 -0.00012181027287586958 -0.025704672044222384 0.13676103781832255 -0.020103413765308973 0.21002044233814271 -0.029278847582185949 -0.040752247623796783 0.19872223709261469 0.081897677612276967 0.12022405143217477 0.16017954098147066 0.049852097799531696 0.13749774672241519 0.01562793211683626 -0.025466095396381373 0.0062863903970671407 0.14441910203441685 0.12129327596134876 -0.028172409845757931 0.16681242981975186 0.066054513340956647 0.26370897123819725 0.19338162124586208 0.093770769589012593 0.058231322403155032 -0.0029141338208698471
leaf_weight=227572.67450428009 10825.338757276535 99.040295362472534 17200.553775072098 1228.7582206726074 194.20713806152344 37270.09132194519 36757.087749242783 704.19525980949402 2804.4361805915833 13973.51992559433 2950.7186908721924 7027.3556785583496 53679.175554990768 4758.7022428512573 996.90467834472656 254.82286977767944 3686.4617431163788 84238.464292287827 3913.6117503643036 704.92748355865479 8028.7725331783295 42036.343573570251 3523.092057466507 14029.127753257751 2034.242472410202 11390.262954473495 8541.2043423652649 1702.9433822631836 146.3862476348877 2630.5857071876526 2540.0719454288483 2583.0792229175568 5624.6625382900238 7307.2006194591522 479.57773184776306 836.38422036170959 539.90332221984863 241496.29261851311 706.75352787971497 4191.1770787239075 1549.5343384742737 19867.619257926941 78.657219409942627 141656.24883294106 174648.4525103569 137.32385087013245 103.03291320800781 5830.7842662334442 64096.754338741302 2108.3162615299225 8247.3793473243713 101553.63180685043 1763.4623208045959 6725.5512502193451 121354.39322519302 599.7600519657135 4030.4546775817871 4185.1734240055084 32541.40912771225 123.0260808467865 29242.064303636551 11326.242986917496 5463.0488073825836 4769.5377786159515 12394.426522731781 3830.3380286693573 114.34566736221313 352.79714107513428 2409.9496848583221 18364.818281412125 32486.206773281097 24976.330016136169 5880.155588388443 3654.3504571914673 11184.180408000946 1551.7707016468048 3291.2021331787109 3268.3125855922699 407.67516589164734 4428.4402797222137 8035.0955035686493 7861.6244888305664 36792.106214284897 23886.623426675797 7553.8808193206787 8706.2552409172058 28618.651779651642 111860.90379166603 83.090992212295532 12738.816236019135 9532.614156961441 996.65736889839172 3495.1863868236542 55.799703359603882 13851.675504207611 1505.942524433136 4821.5260195732117 1737.9445731639862 10156.41978764534 6817.8194334506989 796.14970564842224 37881.02294421196 2143.0834972858429 4943.1384978294373 115778.48110437393 642.11392402648926 48404.629754304886 181119.88789451122 1171.8106465339661 9062.1973934173584 380.66120195388794 2292.5657706260681 187.17817163467407 413.85802865028381 41457.615738153458 3165.8821001052856 53476.55567574501 976.09938836097717 9622.3125429153442 88832.688639640808 654.4911675453186 7365.2591581344604 6539.8662996292114 136.6395959854126 16673.395171880722 15375.100035667419 81777.696925878525
leaf_count=116659 4218 21 7591 156 47 15947 17497 144 755 5915 950 2771 23605 1633 59 54 1605 35144 982 139 2645 19622 1289 6846 453 4511 3191 475 15 923 693 711 1929 3169 150 271 20 118744 199 1710 297 7053 19 68200 88416 21 13 2160 25229 478 2418 46220 718 2805 56943 146 1183 1814 13207 22 14163 4041 1744 1858 3153 1205 17 46 752 6443 15182 11161 2027 773 3535 527 965 917 89 1142 2480 3386 14996 8947 2698 2649 11488 51340 23 2560 3598 331 924 13 4789 131 1622 640 4100 1590 266 16759 971 1340 54794 142 23772 90727 248 3135 98 606 68 134 17766 1428 23133 239 2733 43168 144 2755 1026 45 5363 5592 36718
internal_value=0 0.0842669 -0.0189906 0.181786 0.0638394 0.00457246 -0.0335582 0.168987 0.0917956 -0.0024791 0.0461727 0.0241578 -0.0049092 0.0386697 0.429628 0.0748773 -0.02547 0.019784 0.144595 0.216286 0.112979 -0.0272246 0.0349164 -0.0422777 0.109598 0.0273986 0.0718229 0.0850262 0.19993 0.0916644 0.106253 0.127452 0.107891 0.0292295 0.0685939 0.165155 0.550545 -0.0314424 0.0637973 0.0393653 0.166893 0.0756156 0.0842248 -0.0220544 -0.0391317 0.197957 0.175488 0.0757187 0.0434391 0.138013 0.132654 -0.0116345 0.0633935 0.00494216 -0.0125799 0.120038 0.132595 0.0264709 0.0345042 0.0686789 -0.0398334 0.0614702 0.131818 0.0616896 0.161321 0.0966916 0.168192 0.260512 0.109487 0.0567672 -0.0063441 -0.0084503 0.0610174 0.180766 0.0966777 0.10165 0.116196 0.144284 0.161171 0.17816 0.097958 0.0193152 0.0220776 0.041727 0.0736879 0.123091 0.040134 -0.0153119 0.25127 0.211897 0.0536742 0.128268 0.135589 0.0555535 0.0853346 0.361676 0.114977 0.0280087 0.0384262 0.174094 0.12947 0.00644853 0.0108195 0.116614 -0.0239939 0.237201 -0.0407477 -0.0383326 0.149928 0.070667 0.203281 0.118657 0.159881 0.0520782 0.0105686 0.00920946 0.00451167 0.188515 0.128775 -0.0329425 0.221284 0.0509741 0.268299 0.0539101 0.0900964 0.060309 0.000588009
internal_weight=0 502243 2.26994e+06 86984.7 415258 867219 1.40272e+06 82713.2 160802 637641 254456 229578 592252 196870 4271.51 89400.5 727706 206764 54571.1 28142.1 71401.2 666557 183849 675017 67737.3 131613 57586.9 30680.9 20544.5 13020.8 63890.5 30852.2 12790.7 45389.5 80623.4 3846.73 1536.81 367086 22814.3 29272.9 23718.9 54822.2 34954.6 299471 447444 20398.2 3663.93 15786.9 91506.5 22718 20609.7 351969 6522.16 240282 334769 6498.66 8777.12 92342.3 43503.4 17890.2 433415 12372.4 7165.99 15274.1 21514.9 22582.2 3560.9 7597.59 2616.07 26906 61149 57462.5 10071.3 7948.62 40729.3 32700.5 14475.4 3868.07 7419.19 4836.12 8134.14 48838.9 44653.7 87983.4 10504.6 23161.2 47374.2 233215 206.117 12876.1 25801.1 8522.3 7525.64 11382 13930.3 2734.7 8651.86 19201.6 11894.4 7522.01 990.357 75151.1 16116.6 13190.5 257435 756.46 404173 229525 13566.2 14893 4035.01 20621.1 893.932 25321.6 104826 98100.1 56642.4 3010.34 11914.9 330329 2204.03 18755.5 6892.66 10962 18225.2 15789 135457
internal_count=1242035 170461 1071574 20281 150180 381018 690556 19915 52627 286081 97553 94937 267549 77468 366 31021 349973 86604 14374 5541 21606 322025 73131 340583 20679 53898 20085 10451 4330 4337 19716 8679 4148 18532 28529 963 79 179409 8333 11646 5695 19055 12002 142616 223924 4315 927 5562 35465 6178 5700 162094 2351 105455 154503 1986 2492 37666 17470 6303 217078 4367 2219 5506 5254 7635 914 1211 797 9634 27948 26343 3737 1853 13035 10390 4500 1063 1942 1231 2501 20196 18382 34176 3648 6681 18754 108283 45 2581 9474 2438 2107 4054 4808 287 2827 7909 4740 1734 313 32706 6886 3758 122994 159 202915 114499 3401 5295 871 5988 267 9324 45132 42327 24561 692 3339 161912 441 7266 1072 4263 5890 5726 60323
is_linear=0
shrinkage=0.1


Tree=3
num_leaves=128
num_cat=0
split_feature=23 132 23 77 23 74 23 23 77 74 8 78 23 8 8 23 48 8 53 8 23 8 80 8 23 134 21 96 23 96 132 40 77 73 134 40 80 23 67 73 96 96 134 54 52 53 67 134 96 132 54 101 96 134 48 101 8 8 67 25 37 8 67 54 67 123 46 23 134 33 55 29 54 67 134 8 80 67 8 26 23 37 3 20 19 37 53 8 32 117 20 23 67 134 8 8 20 20 67 23 80 32 23 20 8 50 23 32 67 37 23 80 69 8 8 50 114 23 20 84 66 23 67 48 8 20 96
split_gain=339421 74783.7 55676.6 19240.9 11798.3 8186.31 7513.95 6214.15 4906.53 4378.73 2984.77 2920.03 2372.24 1951.17 1903.85 1882.27 1624.79 1490 1484.48 1442.56 1241.43 1184.91 1105.29 1058.17 1044.85 1029.88 914.657 909.444 902.762 827.922 823.166 807.09 753.989 748.884 700.859 641.677 633.755 631.457 622.906 620.324 611.817 605.071 580.574 564.642 548.073 542.252 536.368 503.316 493.482 484.977 483.048 457.179 437.002 434.635 428.441 419.178 415.127 606.754 417.096 405.844 403.801 399.718 396.874 395.38 387.787 377.241 377.219 374.316 374.088 366.66 678.932 366.562 362.752 355.825 352.523 348.493 348.858 346.936 342.975 334.232 329.663 327.476 318.691 318.268 391.497 317.032 349.553 314.899 306.757 305.172 302.321 294.596 532.151 293.141 288.413 287.639 642.099 312.93 285.127 284.636 283.799 274.853 274.698 271.229 270.673 269.78 265.802 263.74 262.423 254.762 251.469 247.853 246.906 245.254 470.97 242.74 240.396 239.838 234.9 234.651 233.009 254.444 228.283 227.111 226.61 255.12 220.706
threshold=2.3837890625000004 6.7851562500000009 1.1186523437500002 23.648437500000004 3.7148437500000004 1.6425781250000002 0.64965820312500011 6.1855468750000009 91.843750000000014 3.2138671875000004 11.500000000000002 3.2138671875000004 1.5708007812500002 11.500000000000002 11.500000000000002 1.7329101562500002 1.0000000180025095e-35 11.500000000000002 12.640625000000002 11.500000000000002 4.2578125000000009 11.500000000000002 65.500000000000014 11.500000000000002 0.39196777343750006 1.5000000000000002 4.4703483581542974e-07 19.500000000000004 5.4589843750000009 16.500000000000004 3.3564453125000004 0.92846679687500011 44.359375000000007 4.9277343750000009 1.5000000000000002 4.0722656250000009 24.500000000000004 0.85131835937500011 0.10018920898437501 12.640625000000002 19.500000000000004 19.500000000000004 1.0000000180025095e-35 280.50000000000006 1.5000000000000002 10.500000000000002 0.59350585937500011 1.5000000000000002 19.500000000000004 0.78564453125000011 154.50000000000003 1.5000000000000002 19.500000000000004 1.0000000180025095e-35 1.0000000180025095e-35 1.5000000000000002 8.5000000000000018 4.5000000000000009 0.79614257812500011 3.1552734375000004 3.2050781250000004 11.500000000000002 8.6445312500000018 182.50000000000003 0.21319580078125003 0.96435546875000011 0.50854492187500011 6.8964843750000009 1.0000000180025095e-35 1.7700195312500002 1.2143554687500002 0.53564453125000011 256.50000000000006 9.6250000000000018 1.5000000000000002 11.500000000000002 62.500000000000007 1.4760742187500002 3.5000000000000004 2.0712890625000004 10.355468750000002 1.4672851562500002 0.43298339843750006 1.5000000000000002 0.24993896484375003 2.0861625671386721e-07 1.6425781250000002 3.5000000000000004 1.2500000000000002 0.39221191406250006 1.5000000000000002 0.50366210937500011 0.16937255859375003 1.5000000000000002 4.5000000000000009 8.5000000000000018 1.5000000000000002 1.5000000000000002 0.39855957031250006 5.2089843750000009 51.500000000000007 0.32141113281250006 8.1328125000000018 1.5000000000000002 8.5000000000000018 4.5000000000000009 10.355468750000002 0.53564453125000011 0.31262207031250006 2.0861625671386721e-07 0.90063476562500011 22.500000000000004 1.698732376098633e-06 8.5000000000000018 4.5000000000000009 4.5000000000000009 0.60815429687500011 1.6469726562500002 1.5000000000000002 3.7910156250000004 12.964843750000002 8.1328125000000018 0.22320556640625003 30.500000000000004 4.5000000000000009 1.5000000000000002 19.500000000000004
decision_type=2 2 2 2 2 2 2 2 2 2 2 2 2 2 2 2 2 2 2 2 2 2 2 2 2 2 2 2 2 2 2 2 2 2 2 2 2 2 2 2 2 2 2 2 2 2 2 2 2 2 2 2 2 2 2 2 2 2 2 2 2 2 2 2 2 2 2 2 2 2 2 2 2 2 2 2 2 2 2 2 2 2 2 2 2 2 2 2 2 2 2 2 2 2 2 2 2 2 2 2 2 2 2 2 2 2 2 2 2 2 2 2 2 2 2 2 2 2 2 2 2 2 2 2 2 2 2
left_child=2 4 6 7 9 12 24 19 32 14 15 22 21 36 42 47 31 25 35 20 60 51 28 55 -1 49 -10 -12 54 -16 93 44 80 87 103 116 -11 122 -26 -20 -15 -19 46 50 -13 59 -2 101 -23 -8 117 -4 -25 -53 65 -14 57 79 -59 -22 -3 99 83 -52 -43 109 81 77 -57 70 -24 89 -36 78 -54 106 -77 -33 -37 -38 120 -42 -67 84 -30 -48 -87 -18 119 -44 -60 -40 -93 104 -62 96 -80 -97 -50 -35 126 118 -46 -31 124 -45 113 -32 -39 -6 -66 -91 -64 114 -41 -68 -9 -29 -7 -47 121 -5 -27 -34 -17 -126 -63
right_child=1 3 5 8 11 10 17 18 26 13 27 16 23 40 29 30 33 41 39 -21 45 48 69 52 38 37 -28 43 62 34 107 67 123 61 72 73 56 108 91 75 66 64 71 105 102 88 85 -49 98 -51 63 53 74 -55 -56 68 -58 58 90 -61 94 100 112 -65 110 82 115 -69 -70 -71 -72 -73 -74 -75 -76 76 -78 -79 95 -81 -82 -83 -84 -85 -86 86 -88 -89 -90 111 -92 92 -94 -95 -96 97 -98 -99 -100 -101 -102 -103 -104 -105 -106 -107 -108 -109 -110 -111 -112 -113 -114 -115 -116 -117 -118 -119 -120 -121 -122 -123 -124 -125 125 -127 -128
leaf_value=-0.045535905872551394 0.2684241910910154 0.09795789903716956 0.0040450416135294157 0.15274588906242401 0.064251058100227396 0.0082252674534438949 -0.024127247932279484 0.26907001356449561 0.47957509669027942 0.034508224489752708 0.023894460055712149 0.33293262387246536 0.017749431192099641 0.064239962193057595 0.036920871245754827 0.014105478455579036 0.042576544212750672 -0.019849765551925809 0.35698279551296502 0.14082939500541825 0.1340768143955107 -0.0044300966785158014 -0.020509152775697828 0.011324332484511907 -0.019772948594596822 -0.021702511984487329 0.34258822407473111 0.039998182168644619 0.11719070488095906 0.062521095602100049 0.044896012283229439 0.29371485714631412 0.36699038628972991 0.072648267523058502 0.12268429503877992 0.095398003738632289 0.093323974111270913 -0.012669875475654955 -0.041432255291171616 0.13280462485926484 0.21638933668821206 0.031404169672408902 -0.036036848113459481 0.04954936835268945 0.13279071728844175 0.28687503330858044 0.040819975235701446 -0.0047630581431674984 0.063951921828061198 -0.013307861503940999 0.15261932069057665 -0.0085811957044279515 0.015630447055209187 -0.017273960705216734 0.039468784552462048 0.0036557808069111204 0.039891720093375126 0.26862522282069379 0.057293513468980664 0.093526177481121339 0.048296694163133508 0.10306172988995782 0.24036545831532671 0.060034971526998507 -0.013233396067753976 0.10017706616781204 0.10566804511659048 0.13635663166805603 -0.0053359146668840469 0.012579481397768764 0.38700356727087837 0.020473148324271565 0.067977777695243186 0.15771723846048874 0.056881185385988568 0.21779895781774106 0.1209320400002315 0.092343829179507189 0.12295894920793718 0.038140913970179553 0.23221786272785583 0.1198110349077845 0.06209040335190559 0.056166080569006294 0.070163825253150222 0.017539839478546738 0.032361193343574617 0.067715616197729978 0.1128826818370271 0.020315023502402711 0.078684109130793101 -0.025574140798464363 -0.037922680995694881 0.0085183829874781927 0.076999600199557774 0.12840272770067046 0.18035952438990099 0.091544589211269956 0.014778943716687993 0.091552591999807184 0.067308095838149104 0.0023621753567652551 0.23617098274040227 0.0063873784709109057 0.0083414458336291668 0.015753100799255258 0.18586923182442353 0.025854596232788702 -0.026368406006008333 0.030530120497819471 0.0040272093657628604 -0.010819585870329189 0.11435407532092411 0.13667826959708668 0.17278743396592644 0.057469396770425979 0.17055795445024485 0.073013736028431434 0.028966420156091945 0.14244778500672881 0.14822242820780593 0.21800246012916624 -0.034073507922977968 0.26514919099392686 0.023567149177120789 0.047636283881666991 0.15177963157759691
leaf_weight=218469.98612499237 93.83720850944519 6130.856098651886 13592.095867276192 776.52238535881042 3573.2166619300842 13445.443414449692 112150.66383588314 375.86113691329956 725.70544338226318 30153.08596777916 19633.73660826683 183.96861290931702 11548.88942527771 6725.1150341033936 11298.772399663925 14038.125052928925 5980.6240530014038 48507.02948975563 163.41922521591187 7772.4534237384796 2737.781919002533 22285.920184016228 90.619058609008789 14854.910096406937 20126.278742074966 16167.402388930321 1484.4211807250977 3666.2391991615295 2790.2529666423798 3271.6612527370453 10504.466435194016 86.110905408859253 252.65274429321289 21532.371098518372 3200.4788177013397 4004.4383628368378 1183.6116859912872 15017.174493908882 141293.50994205475 4196.693124294281 402.69726157188416 3021.5764443874359 1791.1138889789581 6144.8616771697998 1425.5550544261932 116.28411602973938 18328.856297969818 65634.729927062988 1288.8777692317963 65701.000497102737 1136.8806526660919 81217.713540315628 3546.7722511291504 197118.87791931629 19692.720137357712 75455.54978966713 19302.145010709763 101.68255376815796 16770.597193717957 25056.356799602509 5154.0353767871857 2266.2724492549896 180.53440523147583 776.15316987037659 20007.121793985367 2597.1454858779907 2668.445258140564 2422.3972697257996 119619.18328261375 7024.2767369747162 74.489187479019165 83402.795608282089 1950.9399251937866 3176.1311042308807 4981.2734797000885 1859.1947357654572 464.72156500816345 13302.800988435745 6430.092467546463 15100.199884653091 3287.9427185058594 2739.6879556179047 14258.264285802841 5726.6282970905304 4842.6232922077179 28133.077629566193 36632.043101072311 29865.235323429108 9750.2240951061249 6745.4833791255951 10902.731858730316 42823.84065759182 188564.06837463379 52082.637849330902 10913.59090423584 6884.4809834957123 2796.3026032447815 3461.6924369335175 13856.30610704422 12640.179128408432 1198.008029460907 33237.580374479294 313.56373691558838 1168.101940870285 15993.916533708572 3836.7214250564575 2940.6544783115387 23653.508718013763 203416.1514878273 6006.7899641990662 14600.028787136078 4117.6548411846161 1121.0356373786926 5964.0024087429047 9886.3790044784546 1717.3733286857605 726.54820489883423 5502.8209192752838 9194.131255865097 3450.2761285305023 1011.1922569274902 2591.8586058616638 192772.78164792061 1642.6523351669312 15461.814762115479 6157.5255441665649 1576.9694728851318
leaf_count=116659 24 1803 6038 135 1198 5854 55584 60 26 11136 8027 26 4871 2243 4347 5842 1992 23676 14 1733 689 10166 36 6384 10076 7897 73 1412 759 1093 3945 17 20 6734 837 976 385 7132 74163 840 78 1284 811 2219 370 18 7017 29573 472 31771 324 37593 1459 93602 7027 33083 6958 26 5844 6799 1696 602 35 281 9366 826 736 587 54130 2820 16 33454 575 650 1678 272 85 3966 1452 5443 398 698 4911 1881 1502 11440 14198 9585 2378 2738 3578 21582 97607 22150 3277 1549 553 825 5696 3489 354 14548 57 475 6735 1432 488 9382 100200 2234 6409 1797 301 1152 1711 499 139 1837 3859 727 150 324 97972 132 6379 2461 326
internal_value=0 0.0658629 -0.0188804 0.131093 0.0469087 0.00087542 -0.0319151 0.11953 0.253283 0.0354437 0.0141997 0.0688657 -0.00627308 0.0516949 0.0266929 0.0102495 0.0804006 -0.0247736 0.145332 0.100172 0.0951802 -0.0117152 0.05312 0.00151977 -0.0399922 -0.026525 0.387569 0.039378 0.0575052 0.0552629 0.0182459 0.107624 0.222247 0.0739686 0.0768704 0.129377 0.0464417 -0.029186 -0.0369089 0.162778 0.0861604 -0.0124679 0.0233632 0.0538104 0.168793 0.10547 0.0294788 0.00117523 0.00503536 -0.0201304 0.0693489 -0.0138629 0.0216825 -0.0147374 0.0506349 -0.000761978 0.0521208 0.0574783 0.0664638 0.0975205 0.0761237 0.0835187 0.0791211 0.115056 -0.00295186 0.058953 0.105742 0.100184 -0.0018579 0.0160418 0.163342 0.0180669 0.101966 0.126296 0.0397252 0.161524 0.198428 0.0936389 0.122063 0.042152 0.208287 0.132188 0.0679589 0.0739856 0.0873548 0.029209 0.025923 0.0635213 0.122062 0.00220773 0.065721 -0.0378343 -0.0356373 0.0138122 0.0677925 0.127518 0.140356 0.11607 0.0189636 0.0796408 0.109805 0.00815049 0.15143 0.0477523 0.0191503 0.0365588 0.157793 0.0317103 -0.0254266 0.0431076 -0.00595151 0.0085135 0.131832 0.153675 0.160873 0.0867947 0.204145 0.0598125 0.0166484 0.147157 0.190321 0.202959 -0.0331163 0.278725 0.0239985 0.0304224 0.123052
internal_weight=0 604860 2.16211e+06 136185 468675 859468 1.30264e+06 124412 11772.9 307902 300101 160773 559366 107767 200135 259404 92794.1 691361 53330.6 71081.9 63309.4 329360 67978.6 230007 611278 605225 2210.13 40697.4 60789.2 20890 137892 17734.4 9562.82 75059.7 9591.18 27855.5 93514.1 427374 392808 25475.1 14253.3 86135.8 179245 21063.7 1923.09 41110.9 83187.8 121512 37431.1 177852 11082.1 291929 23383 278337 46128.1 206624 63361 44058.8 27775 27794.1 22198.5 39213.8 14661.1 1913.03 37628.7 26435.4 7528.2 15811.3 195075 7189.38 165.108 96057 5151.42 26753.1 8528.05 25311.6 2323.92 13388.9 23577 16283.8 7667.52 3142.39 16855.4 13359.5 7632.88 83094 64765.1 35845.9 13316.8 12654.3 27673.3 372681 231388 103734 16067.6 19572.6 9226.4 10346.2 15145.2 34172.6 5041.25 55877.2 1739.12 4439.76 51651.4 9981.58 22987.7 34158 218433 9580.01 34607.2 10863.1 1301.57 20047.1 14083.1 4385.82 1102.41 9169.06 22639.6 3566.56 4379.57 3368.38 208940 1895.31 35657.5 21619.3 3843.24
internal_count=1242035 199225 1042810 31144 168081 381432 661378 29886 1258 116430 126260 51651 255172 37624 78806 110728 28105 341291 10766 19120 17387 153567 23546 101605 320087 300556 99 15532 20674 7327 56894 5023 1159 23082 2980 6204 33370 213201 203428 4562 4254 40735 71479 7505 453 10611 32679 53834 16334 87355 3854 137233 9521 131195 16196 92084 22234 15276 9448 7488 6776 11505 4478 605 17059 9169 2011 4570 87213 2872 52 38800 1412 6005 3137 4548 357 3983 5355 5828 1007 776 5737 4142 2261 32655 25638 11577 3123 5346 9422 193352 119189 43567 4973 4379 2005 2374 6168 10223 1282 24261 427 1568 21417 3651 4191 13327 107332 3432 15775 4535 336 3703 2551 1235 199 3249 9713 745 609 459 105869 152 14682 8840 928
is_linear=0
shrinkage=0.1


Tree=4
num_leaves=128
num_cat=0
split_feature=23 53 23 77 23 23 23 24 77 23 78 24 78 24 53 24 87 77 33 23 78 23 134 24 6 134 20 24 8 24 77 52 53 23 28 77 134 24 134 134 24 24 24 53 80 24 24 134 23 13 48 6 24 54 117 24 24 29 104 80 80 101 134 24 24 46 52 24 20 24 24 74 53 54 46 87 48 24 101 134 85 80 32 37 56 24 89 32 24 76 107 24 120 32 11 24 24 54 134 4 101 69 24 80 44 24 88 120 71 134 24 101 134 111 90 23 23 25 24 31 13 24 24 80 24 24 20
split_gain=265624 57405.1 39224 11638.5 11522.7 5408.28 5380.93 4546.95 3931.48 3119.1 2948.09 2916.67 2577.51 2047.68 1616.08 1424.96 1121.22 1048.35 1001.19 959.741 855.457 852.631 813.752 803.925 779.316 710.595 686.027 833.715 779.804 645.166 624.228 616.656 613.656 583.991 581.703 547.948 513.225 509.192 488.138 485.38 551.976 492.829 617.539 482.399 478.478 506.405 518.264 465.408 460.701 458.791 448.923 444.188 438.367 421.565 410.678 403.597 891.999 702.578 397.638 386.227 386.048 385.143 376.723 374.759 348.18 346.418 324.739 319.072 316.862 312.413 326.798 310.423 302.243 300.76 300.254 289.77 288.093 303.629 286.783 286.137 282.607 277.324 274.863 277.548 274.402 271.728 267.618 266.497 262.491 257.324 249.551 247.8 311.137 246.31 245.345 244.451 243.311 241.076 237.076 236.299 236.286 235.195 233.823 228.446 227.382 226.217 225.896 225.176 223.393 223.037 237.613 221.231 220.238 218.816 214.004 240.882 213.651 212.428 206.985 203.544 202.957 202.749 403.333 431.747 201.636 236.96 209.31
threshold=2.1630859375000004 6.7851562500000009 1.0463867187500002 18.648437500000004 3.4873046875000004 1.5131835937500002 0.62768554687500011 345.00000000000006 53.296875000000007 5.8046875000000009 2.9287109375000004 345.00000000000006 3.7861328125000004 345.00000000000006 1.6425781250000002 345.00000000000006 2.7861328125000004 161.93750000000003 5.7167968750000009 3.6279296875000004 1.2143554687500002 0.36047363281250006 1.5000000000000002 353.00000000000006 9.3906250000000018 1.5000000000000002 1.5000000000000002 338.00000000000006 1.5000000000000002 343.50000000000006 11.359375000000002 1.5000000000000002 1.2143554687500002 5.0019531250000009 0.64282226562500011 7.9277343750000009 1.0000000180025095e-35 353.00000000000006 1.5000000000000002 1.5000000000000002 5.5000000000000009 231.50000000000003 112.50000000000001 3.0712890625000004 30.500000000000004 230.00000000000003 119.50000000000001 1.5000000000000002 0.82885742187500011 3.1298828125000004 3.5000000000000004 4.3457031250000009 349.00000000000006 344.50000000000006 0.45617675781250006 91.500000000000014 240.00000000000003 0.82128906250000011 0.34289550781250006 51.500000000000007 64.500000000000014 1.5000000000000002 1.0000000180025095e-35 25.000000000000004 353.00000000000006 0.63745117187500011 1.5000000000000002 275.00000000000006 1.5000000000000002 98.500000000000014 231.50000000000003 0.78564453125000011 4.5000000000000009 280.50000000000006 0.22869873046875003 1.7856445312500002 1.5000000000000002 55.000000000000007 1.5000000000000002 1.5000000000000002 1.2807617187500002 24.500000000000004 0.89282226562500011 19.929687500000004 6.4785156250000009 353.00000000000006 1.5473632812500002 0.24993896484375003 135.00000000000003 2.3593750000000004 7.5097656250000009 329.50000000000006 1.0000000180025095e-35 1.2500000000000002 15.785156250000002 4.0000000000000009 345.00000000000006 154.50000000000003 1.0000000180025095e-35 1.4901161193847659e-07 14.500000000000002 8.7734375000000018 98.500000000000014 47.500000000000007 15.500000000000002 193.00000000000003 0.10711669921875001 0.59521484375000011 20.500000000000004 1.5000000000000002 5.5000000000000009 1.5000000000000002 1.0000000180025095e-35 0.52124023437500011 2.8017578125000004 2.7548828125000004 2.7724609375000004 6.8545341491699229e-07 4.0000000000000009 0.72192382812500011 1.8164062500000002 91.500000000000014 226.00000000000003 51.500000000000007 226.00000000000003 119.50000000000001 1.5000000000000002
decision_type=2 2 2 2 2 2 2 2 2 2 2 2 2 2 2 2 2 2 2 2 2 2 2 2 2 2 2 2 2 2 2 2 2 2 2 2 2 2 2 2 2 2 2 2 2 2 2 2 2 2 2 2 2 2 2 2 2 2 2 2 2 2 2 2 2 2 2 2 2 2 2 2 2 2 2 2 2 2 2 2 2 2 2 2 2 2 2 2 2 2 2 2 2 2 2 2 2 2 2 2 2 2 2 2 2 2 2 2 2 2 2 2 2 2 2 2 2 2 2 2 2 2 2 2 2 2 2
left_child=2 4 6 9 7 13 21 10 51 19 32 14 18 20 61 25 35 103 26 84 62 -1 36 44 30 71 27 28 31 33 50 63 54 69 -34 72 -9 -24 87 41 -41 42 75 109 -21 46 86 112 -27 89 -11 94 79 100 99 -28 57 -57 -59 -31 117 -7 -4 -6 -49 85 -29 -47 -44 101 81 -8 -14 97 119 -12 -32 -78 -64 -23 113 -71 90 -84 -3 -15 -46 -22 -42 -30 -53 92 -20 -48 -5 -40 -52 -66 -63 114 107 -18 -36 -10 -25 -70 -87 -39 -85 124 -111 -50 -13 -74 -2 -116 -104 -56 -113 -17 -119 -35 123 -123 125 -16 -127
right_child=1 3 5 8 12 11 15 22 17 24 39 47 16 65 43 74 29 -19 91 23 38 52 37 104 -26 48 55 66 49 59 76 -33 34 121 102 -37 -38 53 95 40 88 -43 68 -45 45 67 93 64 111 -51 96 82 -54 -55 60 56 -58 58 -60 -61 -62 98 78 -65 73 -67 -68 -69 105 70 -72 -73 80 -75 -76 -77 77 -79 -80 -81 -82 -83 83 108 -86 106 -88 -89 -90 -91 -92 -93 -94 -95 -96 -97 -98 -99 -100 -101 -102 -103 116 -105 -106 -107 -108 -109 -110 110 -112 118 -114 -115 115 -117 -118 120 -120 -121 -122 122 -124 -125 -126 126 -128
leaf_value=-0.043546666012092998 0.011111276045612068 0.063916914287925147 -0.0093474322459886489 0.18034178165617615 0.11941251097899799 0.0154172763501809 -0.023238477809668874 0.0522440404223036 0.25100328132578115 0.12559893056271126 0.079836272076704545 0.02362280233705016 0.081182027746014296 0.0045346482765720262 0.0068188357238527092 -0.0040786071963705229 0.038055447970632171 0.35751428899763082 0.088153106220743654 0.064590647513939711 0.0093688249902685906 -0.03113434066091075 0.054022973142463765 0.14204091267163629 0.33151000624849747 -0.03113840135177369 0.009288325820299417 0.010568051390537124 0.032332936600690643 0.1048302085806119 0.16787440210986271 0.063947417938859177 0.04605346061289977 0.057096352290529784 0.010709475991301766 0.35687275925766559 -0.013084335565612313 0.14585934864370423 0.031417996428389834 0.11206849525579979 0.015972180967771612 0.030414134625131862 0.04806269719755283 0.020797703543378152 0.15717038805163916 0.059335527475586507 0.12237080892586075 0.025691303618962415 -0.0077083647867870822 0.052089873510461862 0.092111827415573624 0.16594470345175419 -0.02355004876085124 0.063493881137956898 0.029420626701687047 0.010245952208618616 0.01421875905367377 0.29976929488379334 0.075411452861675818 0.052114963423726401 -0.0058980861456949677 0.0012275395702039361 0.0004589961974786358 0.27822566729062287 0.055671871352407136 -0.0033858284813225443 0.095358963617991857 0.090038824508335974 0.080020475764498514 0.048416782523445723 0.05071494790085182 -0.014014448492874091 0.29170658339273303 0.03635017122441344 -0.012848580138812533 0.027831320932170535 0.08532688243299312 0.12264385224716337 -0.018277802860466302 -0.037724801613336183 0.10829433267951215 0.076131946586520574 0.15096382718684445 0.27289162041869924 0.02575573074099502 0.065847269847636836 0.073243367138198498 -0.0042135779051223673 0.032043778303857316 0.1495142385698357 0.23179610886224777 0.11094983926707971 0.05638623961173303 0.097482588621890978 0.12086202497139352 -0.011167977439841173 0.1308393989227348 0.096241021642309688 -0.0059294155406344291 -0.018706468879532655 0.13121687624410208 0.23128433305200735 0.01771011224890659 0.19084708441705775 0.072872690764006195 0.050364371296192451 0.02203406151250804 0.084685470459175197 0.17575251133255188 0.067899869727758119 0.003184927756109682 0.0119236822399296 -0.019900488011339701 0.13831770096303919 0.043600433490070784 0.29314782829558461 0.027300489884000981 0.0078059744913379098 -0.025396161037464862 0.023081914266201962 0.020763092071182182 0.079755041469696586 0.0654885999253558 0.12586916795996814 0.0050366871246659423 0.017306348808007656 0.039132046246847067
leaf_weight=173569.70027565956 1439.5489730834961 12526.249695062637 80254.584025025368 816.54922556877136 705.98566484451294 11674.138049125671 107485.74611365795 11601.353805065155 2426.2388191223145 6006.3129589557648 1155.5493733882904 10539.917212247849 5445.3399453163147 9956.094743013382 12723.336332559586 8472.3870674371719 9605.6005358695984 893.94718170166016 4190.1782121658325 10407.182814121246 24103.948904871941 87627.695736289024 5535.2185318470001 3182.8407351970673 161.41423320770264 213189.90181267262 8124.7512195110321 503.12863373756409 34609.850347042084 5870.068731546402 1289.6396434307098 6135.2894859313965 8421.5852236747742 5856.5044777393341 27289.704514741898 82.042685985565186 1341.6201171875 694.35756993293762 1369.5394141674042 772.15643763542175 15059.225138664246 26497.664861679077 18683.364591360092 39384.702315330505 398.56891894340515 7466.6379635334015 6665.4179716110229 7118.2759320735931 7608.030656337738 19621.114786148071 21883.765203237534 1301.3301739692688 30271.947364091873 3710.5361778736115 8855.4852094650269 2034.5789377689362 8573.7591500282288 80.095653295516968 5753.7875044345856 1821.0195543766022 10224.880584001541 73600.119882106781 8537.058545589447 188.19496512413025 5678.7430956363678 10538.138222813606 4417.5284922122955 6191.204597234726 7151.2775330543518 4877.3432049751282 20706.091838121414 55233.190693020821 149.80847358703613 6085.9825406074524 42098.191677093506 14718.084639072418 2376.5717010498047 26411.060799121857 189415.17104935646 265422.42982029915 4530.9174058437347 13898.582471847534 8949.4309804439545 326.07196998596191 2217.8987052440643 1263.4198260307312 8127.7843234539032 36052.026430249214 31252.302444219589 188.41760683059692 1031.7387900352478 1254.3280901908875 11670.766329288483 9856.7882308959961 4601.528776884079 85323.340226531029 1752.1532196998596 1973.8783376216888 124707.4847548008 7135.9383850097656 2320.6831731796265 63.407723665237427 64940.297001123428 853.30237197875977 558.69973468780518 4016.9755389690399 17162.643404245377 4509.7861003875732 864.20170021057129 572.78332090377808 59949.126897096634 1498.0071798563004 1306.802129983902 245.25938200950623 112.69058632850647 58.897761106491089 36165.535439491272 32293.551979541779 187581.17718625069 4091.744935631752 19322.051674842834 7167.5042915344238 11740.152776956558 2832.7185242176056 21290.255163192749 13859.077796936035 6433.7015602588654
leaf_count=96488 605 3663 37810 119 183 4888 54610 3782 109 1189 375 4055 1508 4398 5358 3990 3100 25 1158 2800 10709 46695 1817 579 12 111321 2965 166 12111 1291 203 1877 3190 1628 10885 7 538 141 607 241 5627 9511 6454 15700 85 1940 1445 2772 3712 6467 4770 163 15654 999 3454 800 3140 15 1919 530 4438 32457 3858 41 1859 4514 1243 1512 2227 1543 6459 27226 19 2071 19976 5300 479 4583 92254 143150 1067 4076 1130 32 686 453 2156 16396 11363 40 97 356 3665 2356 691 39898 312 565 57243 3158 521 12 26189 57 114 1317 6848 1139 85 228 26073 726 565 45 44 16 13775 13399 94798 1801 7833 1877 3216 694 9052 5755 2554
internal_value=0 0.0519385 -0.0187691 0.107065 0.0374305 -0.00252632 -0.0305776 0.0268162 0.174121 0.0954585 0.0234962 0.00604342 0.0565353 -0.00985713 0.0034746 -0.0242259 0.0685611 0.261518 0.0459741 0.0807365 -0.0118674 -0.0377318 0.06431 0.0870297 0.112078 -0.0256985 0.0417981 0.0470824 0.0439108 0.0647365 0.111485 0.0752546 0.0165343 0.0619694 0.0205935 0.0994549 0.0454723 0.0788482 -0.00569254 0.0361155 0.0282158 0.0412655 0.0475539 0.0112477 0.0836257 0.0887438 0.0971899 0.0346505 -0.0279182 0.0398621 0.101186 0.153733 -0.0350988 0.0910786 0.00954371 0.027522 0.0365319 0.0608452 0.0784917 0.0923488 0.0120728 -0.00223406 -0.0151267 0.152837 0.0436412 0.0120971 0.0866892 0.0732536 0.0560283 0.055433 0.0593784 -0.0201075 0.0974186 0.0529414 -0.0087997 0.0316171 0.121635 0.119563 -0.0174697 -0.036089 0.115367 0.0689325 0.164118 0.156997 0.0581765 0.0178458 0.0771666 0.00122877 0.0268177 0.0329674 0.195066 0.0681622 0.0647785 0.107523 0.129826 -0.0104952 0.0949827 0.0661361 -0.00327317 -0.0108967 0.104681 0.0393226 0.0189235 0.235351 0.131712 0.0693538 0.0250382 0.0928475 0.202363 0.00797217 0.00379739 -0.0244277 0.0188218 0.196482 0.023694 0.129258 0.0211406 0.0151114 -0.0251005 0.00476673 0.0126564 0.0736108 0.0780595 0.0928176 0.0126248 0.0175179 0.0242261
internal_weight=0 717769 2.04502e+06 149545 568224 860874 1.18415e+06 365280 22064.3 127480 335567 396898 202944 463976 364195 627258 94892.4 4173.49 108052 67599.3 425056 556892 29713.6 52855.1 59880.9 572596 90936.5 66369.5 61448.9 84439 59719.5 7029.47 216260 76747.9 136817 10453.4 12943 16770.6 146849 119307 47083.7 72222.9 45725.3 154213 49113.6 38706.4 25048.6 32703.6 409877 54419.4 29642.2 17890.9 383322 11235.4 79443 24567 16442.2 7868.46 5833.88 7691.09 70696 209982 278207 894.181 20856.9 38920.3 4920.66 13657.8 29851.6 49151 39482 162719 10371.3 13738.6 54662.3 15873.6 30077.3 28787.6 197952 353050 4925.99 18775.9 12472.8 10139.7 14744.1 28382.2 8526.35 60156 46311.5 34798.3 2333.07 17115.3 15860.9 16522.2 5418.08 86692.9 23635.9 7652.62 198308 8747.08 7524.83 9669.01 128396 3279.54 3741.54 11168.3 18426.1 5204.14 1190.27 114828 60521.9 196687 11846.7 395.068 1611.14 171.588 101106 60471.1 189079 12564.1 51615.6 27596.9 21740.4 10000.2 54306.4 33016.1 20292.8
internal_count=1242035 232948 1009087 31392 201556 388940 620147 138338 2508 28884 129401 171195 63218 217745 159308 318160 27072 191 36146 17336 201532 301987 8937 12987 11548 292393 30967 22128 20719 24426 11536 2101 86986 22605 54039 2646 4320 4617 67610 42415 17231 25184 15673 64720 12294 9494 6042 11887 210557 18618 6271 2317 205499 2800 32947 8839 5874 2734 1934 1821 29124 94588 133922 224 7267 16213 1409 3452 9998 15190 12078 81836 2639 4495 25767 5675 5265 5062 96112 189845 1131 5619 1507 1247 4349 11699 2241 27105 16990 12151 260 5179 4823 3801 810 40505 5082 2424 89700 3823 1801 3112 50849 166 693 3544 7301 1280 117 49020 26301 99236 4620 64 665 60 39964 24686 95524 5791 21232 7415 5787 2571 22719 13667 8309
is_linear=0
shrinkage=0.1


Tree=5
num_leaves=128
num_cat=0
split_feature=23 53 23 23 23 23 23 80 23 24 24 24 23 24 53 78 24 53 77 14 78 67 23 120 24 23 20 24 67 124 80 67 67 134 32 53 67 134 80 24 24 24 24 24 20 24 23 101 24 24 20 24 71 14 30 107 101 24 87 67 87 67 67 24 24 85 61 20 80 104 104 138 24 13 134 20 24 80 24 24 24 53 80 67 80 25 23 46 24 54 34 32 24 80 24 117 23 67 24 61 24 24 98 80 17 134 67 61 61 117 87 24 46 14 29 23 33 80 54 33 24 32 23 24 52 32 24
split_gain=209334 41493.9 32549 10946.7 5668.49 4821.91 4249.52 3573.86 2768.16 2600.01 2474.41 1538.64 1481.14 1409.55 1396.4 1347.53 1198.19 1120.94 771.081 732.972 679.69 671.049 852.609 661.055 650.809 639.521 617.018 595.992 593.786 543.69 500.165 496.989 436.881 433.862 412.516 401.643 390.862 390.568 384.938 518.351 502.795 374.044 373.609 520.558 505.263 581.176 365.164 361.904 357.965 516.799 412.676 440.089 357.563 369.482 633.42 368.856 345.007 342.733 338.23 334.105 334.052 328.999 292.353 290.056 795.306 288.452 285.7 285.087 280.859 411.394 278.442 330.882 275.864 275.596 275.339 274.001 271.647 270.273 265.882 265.499 265.054 279.599 260.925 257.034 255.267 250.878 250.767 243.371 239.599 238.769 237.831 234.818 234.238 230.537 226.463 226.267 224.53 392.308 220.595 220.198 214.597 352.457 229.686 396.315 213.113 210.524 203.942 201.972 199.06 198.975 196.774 193.539 194.039 193.528 193.521 190.915 189.676 187.374 186.787 186.361 185.906 188.692 217.142 184.814 242.806 184.437 182.74
threshold=2.1416015625000004 5.2148437500000009 1.0122070312500002 8.1328125000000018 3.1894531250000004 1.4448242187500002 0.59252929687500011 8.5000000000000018 4.2578125000000009 350.50000000000006 345.00000000000006 353.00000000000006 5.0019531250000009 345.00000000000006 1.6425781250000002 1.9287109375000002 353.00000000000006 10.640625000000002 22.210937500000004 2.5000000000000004 1.5000000000000002 0.19390869140625003 0.76489257812500011 162.12500000000003 343.50000000000006 0.31921386718750006 1.5000000000000002 340.00000000000006 0.073699951171875014 1.7470703125000002 51.500000000000007 0.32434082031250006 0.38293457031250006 1.5000000000000002 0.24993896484375003 3.0712890625000004 0.42199707031250006 1.5000000000000002 24.500000000000004 233.00000000000003 112.50000000000001 338.00000000000006 112.50000000000001 226.00000000000003 1.5000000000000002 219.00000000000003 7.1972656250000009 1.5000000000000002 91.500000000000014 231.50000000000003 1.5000000000000002 353.00000000000006 1.0000000180025095e-35 0.78564453125000011 0.51135253906250011 1.0156250000000002 1.5000000000000002 324.00000000000006 1.0712890625000002 0.43786621093750006 2.0712890625000004 0.18511962890625003 0.39855957031250006 84.500000000000014 163.00000000000003 1.8671875000000002 2020.5000000000002 1.5000000000000002 51.500000000000007 0.33007812500000006 1.1020507812500002 1.1230468750000002 342.00000000000006 3.0615234375000004 1.0000000180025095e-35 1.5000000000000002 114.00000000000001 25.500000000000004 349.00000000000006 353.00000000000006 30.000000000000004 0.78564453125000011 23.500000000000004 0.085296630859375014 55.500000000000007 9.8476562500000018 1.2465820312500002 0.50854492187500011 119.50000000000001 280.50000000000006 0.36523437500000006 1.5356445312500002 231.50000000000003 51.500000000000007 91.500000000000014 0.45617675781250006 0.44689941406250006 0.13958740234375003 4.0000000000000009 2017.5000000000002 5.5000000000000009 6.5000000000000009 9.5000000000000018 67.500000000000014 7.5976562500000009 1.5000000000000002 0.60717773437500011 2017.5000000000002 2020.5000000000002 0.38183593750000006 1.0712890625000002 353.00000000000006 0.50854492187500011 0.78564453125000011 3.5361328125000004 0.74877929687500011 0.89184570312500011 52.500000000000007 280.50000000000006 1.2060546875000002 338.00000000000006 2.2500000000000004 10.355468750000002 39.000000000000007 1.5000000000000002 0.10711669921875001 282.00000000000006
decision_type=2 2 2 2 2 2 2 2 2 2 2 2 2 2 2 2 2 2 2 2 2 2 2 2 2 2 2 2 2 2 2 2 2 2 2 2 2 2 2 2 2 2 2 2 2 2 2 2 2 2 2 2 2 2 2 2 2 2 2 2 2 2 2 2 2 2 2 2 2 2 2 2 2 2 2 2 2 2 2 2 2 2 2 2 2 2 2 2 2 2 2 2 2 2 2 2 2 2 2 2 2 2 2 2 2 2 2 2 2 2 2 2 2 2 2 2 2 2 2 2 2 2 2 2 2 2 2
left_child=2 4 6 8 9 11 25 23 24 15 14 20 13 19 47 56 21 27 48 52 32 83 -23 99 34 -1 77 29 -27 -10 46 -24 -4 67 68 62 109 -12 -31 40 -40 100 58 44 45 82 72 -7 -9 75 51 85 53 73 -55 -54 -2 -45 -17 -22 -21 -18 -16 -32 88 80 74 -11 69 -3 71 -48 123 -6 107 104 -36 111 96 -39 -58 95 -44 -8 -41 -51 -34 90 -65 -35 -81 -46 -78 -29 119 -82 -30 -98 -60 -5 -19 -102 103 -103 -50 -38 -88 -49 -66 -13 -64 -15 -113 -33 117 -85 -67 -96 -43 -62 121 -20 -123 124 -14 -37 -94
right_child=1 3 5 7 12 10 16 18 17 33 37 36 30 26 35 42 61 41 120 60 59 22 31 -25 -26 28 -28 93 78 38 63 113 86 89 76 125 105 79 39 84 -42 118 43 57 91 -47 70 66 49 50 -52 -53 55 54 -56 -57 65 -59 98 -61 94 -63 110 64 108 116 -68 -69 -70 -71 -72 -73 -74 -75 -76 -77 92 -79 -80 87 81 -83 -84 115 -86 -87 106 -89 -90 -91 -92 -93 126 -95 114 -97 97 -99 -100 -101 101 102 -104 -105 -106 -107 -108 -109 -110 -111 -112 112 -114 -115 -116 -117 -118 -119 -120 -121 -122 122 -124 -125 -126 -127 -128
leaf_value=-0.041985515105042115 0.028604211375933483 0.15334590639791801 -0.00020659586082872775 0.21117514738760051 0.015707991235336706 0.012964128833673195 0.071122226673706906 0.081746427040669853 0.15501628836014258 0.047161641950493473 0.014932524695054071 0.063101570092628165 0.17092374184021983 0.072800699771253696 0.11897779387555274 0.049623576160459426 0.028912322769620677 0.1776006413806463 0.15896089884393233 0.056306505003513502 0.01345769556889248 -0.029900947710754574 -0.013933206126176956 0.31233360514460945 0.081751414541397685 -0.014394852297265504 0.018063220529251037 0.10353350710425918 -0.038632606148306978 0.050855543084540669 0.027383775632610449 -0.025820675564117379 -0.017208196404701715 0.080194004547606168 0.033067251432635426 0.029453118571730011 -0.0083090786613730493 0.021712337909790158 0.063471866093348289 0.066077172728502137 0.086892880127015681 0.14867295248801152 0.015643122267026615 0.017048387455078317 0.060854101154540444 0.068759364468479897 0.091678912511198585 0.0076721690377993023 0.10317664044145954 0.098948168781402168 0.073531753237918204 0.18624287919289639 0.19507872870943033 0.07409031352002908 0.032559760324757346 0.017382521881613579 0.020622343965585703 0.033773377264716534 0.061034297695986339 -0.006289766055471809 0.19981041901993202 -0.0082064759101420602 0.019663025818603096 0.065941235603757573 0.028363300296241192 0.20971436059162929 0.0027549495542610078 -0.00070299332984655107 0.077810530333197445 0.045251853336127267 0.085055946679045091 0.28721579981947726 0.10524716942826894 0.048838828491829023 -0.0086117370620623149 0.14816750578694524 0.058665448680320288 0.064420656044804542 -0.025050049377553715 0.073369272616491968 -0.026686287796917153 0.0080055248723540674 0.032472768102515225 -0.015265410328734342 0.043476386736609765 0.18276481005152206 -0.0036763913706050391 0.026835274355155675 0.11581683746600141 0.050627816527716675 0.041785493994989958 0.032107894140702142 0.033045503418241022 0.061798295259557462 0.030466091112525462 -0.0010682500492368405 -0.023365239757787155 -0.035258284291109408 0.011399726406924458 0.16596526572485265 -0.047552958614882533 0.1000626780720365 0.085961398102656919 0.19668010090378268 0.14305961401094777 0.014617286335536162 -0.013578615422340677 -0.0043764866521066167 0.066137557671377342 0.011060600089717506 0.0048768627620141697 0.13539577709598102 0.082470636086429017 -0.020115770746495232 0.045696515748980801 0.0042221675606745621 0.015275394613067357 0.051792241055473122 0.10155465946536997 0.025656844435647214 0.19301676199100382 0.11009141449531508 0.14266927387667969 0.054021487638413829 0.071428975113629528 0.013824568592247982 0.054086498833852838
leaf_weight=124164.05607962608 9522.8936829566956 370.06761360168457 21499.656780481339 2564.6846399307251 13795.187331676483 13636.031662940979 378.59966373443604 5197.9625918865204 721.77237486839294 6296.2739934921265 13201.27593100071 2209.2781937122345 264.05879378318787 1849.8473868370056 229.59558486938477 2666.1607177257538 2573.4964040517807 272.34851217269897 2300.1247944831848 11585.933151960373 9594.7552433013916 229938.94703388214 62526.250633001328 510.82029151916504 7028.6372821331024 15310.490660786629 1854.9383792877197 7315.7699794769287 125102.62295567989 11343.609107732773 6434.4170186519623 172283.08768177032 189947.18174147606 6778.5160088539124 13584.466018915176 10028.421900272369 5349.2048285007477 8258.8346221446991 14802.880029678345 16368.875468015671 24070.632934808731 1610.9712243080139 16555.093109369278 53307.038015604019 8578.5734448432922 3305.0233817100525 195.90850520133972 20830.019606590271 4648.6408615112305 6479.7640581130981 4671.4003486633301 710.56796789169312 117.29661846160889 4671.5263955593109 17171.876621961594 28475.120474338531 9865.2433857917786 15909.162124633789 919.29724073410034 80032.600852608681 61.723406314849854 33100.963773608208 9762.9783996343613 1900.8912761211395 6616.7100148200989 50.229748249053955 51484.01372730732 1550.8696179389954 7449.2159848213196 7247.9233469963074 3898.8373022079468 155.01544404029846 1320.0210697650909 3069.4190618991852 115001.21430194378 3900.6417043209076 15768.673170089722 4822.2130739688873 27311.781091690063 3641.3077027797699 4092.8026850223541 43525.13493013382 20769.828347682953 27732.746279835701 7193.6950781345367 377.9394907951355 26777.469799876213 5560.3095693588257 1952.5355656147003 4574.8480582237244 6905.8977961540222 4249.181738615036 9979.3194212913513 1615.8716361522675 22328.39975810051 21873.654180765152 33551.202726125717 160019.49488019943 34473.925087928772 1857.6490755081177 189.4080708026886 4264.8664231300354 29577.454502344131 471.48528623580933 1882.2766127586365 15942.038721084595 93156.385366201401 41895.713773965836 1767.7728383541107 1100.7531454563141 115211.17927694321 1732.4758837223053 1154.2675862312317 90803.358253598213 34005.100383758545 6140.2164634466171 42276.171090364456 5052.0511257648468 1761.033540725708 13643.825114250183 555.52252864837646 4051.3961801528931 4133.312273979187 18177.27460360527 3448.6932644844055 30567.6080057621 7039.1920778751373
leaf_count=71880 3711 96 10089 92 5049 5672 173 927 120 1964 5120 793 49 489 87 944 1124 49 203 3563 4354 123597 31641 13 1538 8291 652 1297 70773 2929 1980 90161 94325 1594 4350 3792 2283 3190 3591 3928 5298 214 6291 19961 2848 1162 32 9163 721 1027 830 79 29 1499 6078 10422 3948 5700 307 36905 12 15618 4128 536 2042 17 23332 605 1925 2155 894 21 289 1026 53563 529 4471 1256 14590 1110 1871 17807 7452 14337 1795 50 12570 1855 510 1244 2195 1510 3059 376 7373 9231 18118 88789 13071 108 45 799 5362 63 262 6392 44817 18669 506 452 49227 311 242 46327 10571 2960 17022 1585 264 4531 46 450 384 5137 850 12222 2112
internal_value=0 0.044391 -0.0173517 0.0793997 0.0287247 -0.00312322 -0.0287739 0.124442 0.0690088 0.020138 0.00422488 -0.0104813 0.0413552 0.0369358 0.00196702 0.0177937 -0.0233252 0.0780656 0.114276 0.0344223 -0.0119017 -0.0244016 -0.0252391 0.204626 0.0529263 -0.0357942 0.0708435 0.071573 -0.0336664 0.0686466 0.0571995 -0.021947 -0.0139914 0.0557831 0.0496287 0.00904168 0.0138272 0.028785 0.0678016 0.0708805 0.0779743 0.0922658 0.023932 0.0266174 0.0340297 0.0285671 0.0657858 -0.00286308 0.105415 0.110842 0.0969037 0.11133 0.0265924 0.032857 0.0414417 0.0181115 0.010274 0.0208926 0.0152763 -0.00417577 0.0405019 -0.00552879 0.00623907 0.0445724 0.0536098 0.00883948 -0.00380466 0.0377019 0.0640038 0.0505029 0.0927353 0.178054 0.0608513 0.0217379 -0.00570485 0.127196 0.0449579 0.0810858 -0.0345193 0.0362901 0.0052837 0.00310618 0.0250081 -0.010817 0.0591771 0.103567 -0.0149478 0.0437646 0.0912133 0.0682803 0.0526894 0.0513319 0.0498845 0.095983 0.0380634 -0.00510614 -0.0353308 -0.0331969 0.0126889 0.192184 0.0891824 0.0884845 0.0892354 0.109681 0.114671 0.00885727 -0.0113678 -0.000375358 0.0363276 0.0457953 0.00603196 0.0980522 0.114234 -0.0238516 0.0406583 -0.0117329 0.0155061 0.034401 0.124065 0.0264412 0.136642 0.133655 0.126543 0.0581742 0.0785053 0.0176853 0.0417485
internal_weight=0 756554 2.00276e+06 233891 522663 891824 1.11094e+06 43842.7 190048 311140 446214 445609 211523 165391 408647 291939 625478 121581 38909.5 153977 421008 589803 555552 4933.15 68467.5 485460 11413.7 83433.1 361296 74501.5 46132.1 325613 331381 19200.5 61438.9 165800 24601.3 37567.6 73779.7 62436.1 38873.5 38147.6 160733 122674 53457.7 40629.9 27459.8 242847 27869.2 22671.2 12239.7 7568.27 67300.4 38708 21843.4 28592.4 131206 69216.2 38059.4 89627.4 86677 35674.5 125204 18672.3 12237.9 121683 229211 7847.14 15067.2 7617.99 4249.76 350.924 23210 16864.6 177727 10431.6 46371.7 9558.8 345985 24366.3 79356.8 69491.6 37324.9 34251.6 23562.6 6857.7 309881 16107.5 3853.43 11353.4 10547.2 12827.8 32787.2 8931.64 75091.1 25966.5 318673 193571 35393.2 4422.33 34775.6 34503.2 34313.8 4736.35 6530.92 21291.2 119934 62725.7 8384.48 3310.03 124974 4736.59 2886.74 263086 61385.6 33873 42326.4 27380.5 3372 13705.5 11040.4 10484.8 8184.71 21890 3712.75 40596 17018.5
internal_count=1242035 237351 1004684 51557 185794 406305 598379 5721 45836 118260 193325 212980 67534 54688 179855 112853 325938 26130 5508 51738 203060 309196 291726 213 19706 272441 2950 19334 200561 17661 12846 168129 161801 5407 18168 69456 9920 13470 17541 14612 8889 6796 59246 44924 19263 14905 7272 110399 4425 3498 1986 1156 24103 13652 7577 10451 53607 25661 14322 41259 27635 16742 53442 5574 3594 49896 104727 2569 4176 2251 947 53 6325 6075 81395 1512 13992 2298 192270 8350 32857 28909 13743 17470 5723 1077 151712 5160 1046 2838 3305 4358 9642 1673 24072 11102 177680 106907 13378 200 6318 6269 6224 862 983 8675 57387 27832 2548 1245 53355 1042 553 136488 19529 17297 17039 8958 478 4543 1083 1037 834 6036 899 16014 5171
is_linear=0
shrinkage=0.1


Tree=6
num_leaves=128
num_cat=0
split_feature=23 53 23 53 23 53 23 24 77 23 24 23 78 14 87 24 24 48 24 24 6 23 67 23 71 71 132 30 23 67 24 117 24 24 20 24 134 67 23 134 67 67 56 61 4 67 134 67 62 67 80 24 20 80 80 24 67 101 29 24 101 98 104 67 67 101 46 24 136 67 32 67 80 33 24 67 14 96 61 23 23 24 24 24 34 32 67 24 24 80 23 23 107 3 24 26 24 134 87 105 134 23 117 54 134 24 134 51 61 61 23 67 62 134 6 61 80 23 24 20 24 33 61 14 46 4 24
split_gain=166545 33195.5 23960.8 6855.34 5771.53 3636.94 2964.06 2444.52 2282.49 1516.91 1512.59 1446.74 1417.38 1198.57 907.488 901.895 724.642 701.156 698.436 679.894 666.561 662.177 587.209 610.007 580.57 528.852 493.738 612.768 491.126 500.267 479.145 467.225 449.963 985.351 700.33 784.848 416.964 407.25 379.699 375.839 364.569 351.283 342.413 341.006 338.025 329.444 328.188 323.269 320.097 318.186 316.077 300.56 298.732 281.195 276.785 274.865 273.086 267.989 264.179 263.426 260.561 259.552 274.873 257.312 256.892 254.48 249.701 248.414 241.599 240.407 231.502 231.273 222.951 222.212 221.715 219.775 223.152 217.602 211.731 208.519 207.86 206.984 481.665 206.604 206.3 287.372 203.88 201.866 250.477 390.038 198.489 195.855 195.395 194.568 224.535 189.438 187.454 208.119 187.104 186.15 185.671 185.66 184.781 183.254 185.892 179.168 177.733 176.05 175.988 176.574 175.551 389.598 174.276 172.726 170.322 168.627 168.416 168.197 167.908 319.246 359.306 280.563 167.554 167.194 294.804 188.519 165.898
threshold=1.9946289062500002 5.5000000000000009 0.94604492187500011 12.640625000000002 3.2177734375000004 1.5000000000000002 0.55834960937500011 343.50000000000006 37.937500000000007 3.7148437500000004 343.50000000000006 1.3295898437500002 2.6435546875000004 3.0712890625000004 1.7856445312500002 345.00000000000006 345.00000000000006 1.0000000180025095e-35 91.500000000000014 338.00000000000006 1.8730468750000002 1.6069335937500002 0.19958496093750003 0.71459960937500011 178.50000000000003 1.0000000180025095e-35 0.92846679687500011 6.8545341491699229e-07 0.29040527343750006 0.062057495117187507 350.50000000000006 0.39941406250000006 226.00000000000003 329.50000000000006 1.5000000000000002 219.00000000000003 1.5000000000000002 0.43371582031250006 8.1328125000000018 1.0000000180025095e-35 0.64379882812500011 0.88745117187500011 4.1601562500000009 2020.5000000000002 1.4389648437500002 4.8828125000000009 1.5000000000000002 4.8828125000000009 0.40466308593750006 0.31262207031250006 19.500000000000004 353.00000000000006 1.5000000000000002 22.500000000000004 51.500000000000007 198.00000000000003 0.52368164062500011 1.5000000000000002 8.0351562500000018 5.5000000000000009 1.5000000000000002 9.0703125000000018 1.6484375000000002 0.18511962890625003 0.12414550781250001 1.5000000000000002 0.50854492187500011 5.5000000000000009 1.0000000180025095e-35 0.90649414062500011 0.32141113281250006 0.34680175781250006 42.500000000000007 7.0996093750000009 356.00000000000006 0.17449951171875003 0.78564453125000011 19.500000000000004 2020.5000000000002 5.0976562500000009 1.6606445312500002 233.00000000000003 112.50000000000001 363.00000000000006 0.39050292968750006 1.0000000180025095e-35 0.36291503906250006 91.500000000000014 226.00000000000003 56.500000000000007 0.65942382812500011 5.4589843750000009 1.1162109375000002 11.128906250000002 83.000000000000014 1.0712890625000002 4.0000000000000009 1.0000000180025095e-35 0.49987792968750006 1.2622070312500002 1.5000000000000002 2.6044921875000004 0.40051269531250006 79.500000000000014 1.5000000000000002 18.000000000000004 1.5000000000000002 0.50000000000000011 2020.5000000000002 2018.5000000000002 0.41955566406250006 0.13177490234375003 1.0000000180025095e-35 1.5000000000000002 6.1523437500000009 2019.5000000000002 55.500000000000007 3.9990234375000004 238.50000000000003 1.5000000000000002 353.00000000000006 7.4726562500000009 2019.5000000000002 1.0712890625000002 0.20184326171875003 5.6624412536621104e-07 345.00000000000006
decision_type=2 2 2 2 2 2 2 2 2 2 2 2 2 2 2 2 2 2 2 2 2 2 2 2 2 2 2 2 2 2 2 2 2 2 2 2 2 2 2 2 2 2 2 2 2 2 2 2 2 2 2 2 2 2 2 2 2 2 2 2 2 2 2 2 2 2 2 2 2 2 2 2 2 2 2 2 2 2 2 2 2 2 2 2 2 2 2 2 2 2 2 2 2 2 2 2 2 2 2 2 2 2 2 2 2 2 2 2 2 2 2 2 2 2 2 2 2 2 2 2 2 2 2 2 2 2 2
left_child=2 4 6 9 7 11 28 12 38 42 21 16 39 20 31 22 37 44 -19 57 123 46 64 -24 -10 26 84 105 -1 -30 45 -15 34 47 35 58 52 65 61 40 -2 -23 -3 60 72 87 70 -34 102 -25 117 -38 115 67 77 -36 -55 86 -20 107 -41 62 -5 -17 -8 -4 -53 -14 91 -62 -7 -18 -11 -37 110 -59 -77 -35 113 -33 -50 82 95 -68 108 -86 -13 92 89 -89 -66 -29 -16 94 -40 -58 -67 -98 -78 -84 -21 -42 -12 -45 -105 -28 -73 -48 109 -22 -31 -112 -54 -39 -95 -9 -52 -32 121 120 -120 -96 -69 -6 -125 -126 -127
right_child=1 3 5 8 13 10 15 36 24 17 48 19 53 14 30 63 71 18 32 100 25 41 23 49 -26 -27 27 68 29 74 50 79 33 54 55 73 51 78 93 43 101 -43 -44 103 -46 -47 59 -49 80 -51 116 66 112 56 -56 -57 81 75 -60 -61 69 -63 -64 -65 90 96 83 122 -70 -71 -72 106 -74 -75 -76 76 98 -79 -80 -81 -82 -83 99 -85 85 -87 -88 88 -90 -91 -92 -93 -94 114 118 -97 97 -99 -100 -101 -102 -103 -104 104 -106 -107 -108 -109 -110 -111 111 -113 -114 -115 -116 -117 -118 -119 119 -121 -122 -123 -124 124 125 126 -128
leaf_value=-0.040271039605660232 0.077731925840647864 0.049278796235735889 0.0101614804820701 0.20483329308030762 0.0089667169254263584 0.0098258823300617724 0.010029561117550065 0.044397357328944689 0.13844254058178904 0.24659064376754822 0.079619301175843565 0.078577342459313124 0.080444845858123282 0.18767657843205687 0.2326552150110695 0.011306960065782499 0.029966474437603776 0.044846652441832904 0.051212702077663041 0.00036600164704605109 0.050715262164905878 0.018636723454149514 -0.029928612283796837 -0.016802727770889266 0.22130526183309637 0.025837832894796506 0.13201969359843965 0.045843262505025503 -0.011251047722308356 -0.036430856426002835 0.08549012611775246 0.057861864925196016 0.042511154446937399 0.071619725032053286 0.097955965696721756 0.11267396729813524 0.035352027076970563 -0.013343445555625952 0.069381416273961091 0.023296920814634341 0.010783078577380742 0.004730091371803859 0.030800476572383689 0.0028508537261970153 0.083498765103239947 0.056977208452802311 0.14016749769957113 0.061187646036219193 0.015966580668630902 -0.024372009005912972 0.066812220998797203 0.071192937792405542 0.14656182221434697 0.20190225469326295 0.055201455184660443 0.066306830675659359 0.065431061425695519 0.23667785980935024 0.072777868251644659 -0.0079557620773623682 -0.021999165859071197 0.079036103014572354 0.097804554604067118 -0.012647621394534346 -0.020690661746620258 0.072699401585734583 0.056831424276160447 0.0097603022510134203 0.030585895243429709 0.0034852112631347009 -0.0027172552733446139 -0.015169020821020871 0.11781845164131846 0.24378999186972228 -0.021688625555601086 -0.0093760482496695677 0.0074655086582198814 0.097315285751677236 -0.011614377903312063 0.090152323350732866 0.03334172830604995 0.019528723459211889 0.058868929422630945 0.013899208995652446 0.041053934205741827 0.0037638959743856817 0.0059933804907643072 0.041317225434612442 0.034888795387894425 0.06893648338211987 -0.0072787252336931098 0.074183715865625999 0.027163834611178408 0.10520377259929088 0.096953059625716043 0.015352421259039302 -0.002336874125626818 -0.015515951706429793 -0.0047072854746227702 0.034293758850272762 0.017634541961217862 0.019829672930189585 0.013307207383482645 0.00050637459209386902 0.025722141398167659 0.077327699143387288 0.0038843374194899799 0.022678623524569647 0.062390320404410796 0.019423562838062389 -0.022509788229118297 -0.033909219699250169 -0.00223079655356978 -0.019945553472372424 0.15646530979720696 0.019321398600390963 0.02281570231040414 0.1556874156002469 0.094555730799828722 0.0661667192462677 0.16713638062748334 0.13109605922658571 0.023267803089407357 0.23791442878488819 0.0781898745422379 0.019502542731159485 0.049434282928789798
leaf_weight=94570.44315803051 902.64263033866882 25411.967232942581 7343.5174912214279 326.14690732955933 11200.032730340958 26256.202357530594 4041.3582428693771 8287.0010344982147 6664.6473388671875 199.96421670913696 1595.4529221057892 398.52294588088989 588.96777582168579 356.21551418304443 46.411170721054077 4952.9744439125061 2653.7435069084167 20602.090344667435 16885.708218336105 9838.6444383859634 3058.956484079361 23241.132656574249 176179.75337874889 73588.081081032753 968.40615272521973 32957.96582865715 722.98162627220154 9374.1219215393066 11132.210842251778 118970.56249332428 1106.4335165023804 5018.0807559490204 22428.447281837463 5945.1630983352661 11313.391644716263 2043.4654746055603 7765.6723756790161 54577.101946592331 2871.8607807159424 6408.0882983207703 65952.20330619812 83149.034157514572 16565.388519763947 7413.7912085056305 10720.47654914856 10324.545101881027 139.55872583389282 15794.02113199234 18794.793800711632 226382.90944230556 3374.3541796207428 8011.1317248344421 80.811160564422607 88.347130537033081 3777.5216100215912 3622.7801403999329 786.01570582389832 37.232219338417053 8560.4184947013855 74946.933876037598 3853.0866801738739 23406.829740762711 907.99356245994568 47377.010533213615 32895.471416711807 274.10660088062286 3457.5217578411102 23640.338295459747 7516.8604838848114 94204.151484727859 33473.542008876801 6608.0228335857391 410.38193035125732 137.98597717285156 16923.514876961708 117811.86288261414 14383.313961744308 7395.2370576858521 66334.468916654587 3324.929075717926 10865.580632209778 31577.473002672195 3407.805924654007 1658.6406121253967 3492.8711705207825 5061.0717649459839 13365.581835508347 24952.618630170822 37775.534048318863 6430.8388283252716 16604.303108453751 3295.8278312683105 15538.127874851227 1834.5456757545471 7699.0357694625854 19376.785026788712 20021.678172230721 29841.425417423248 103414.20285856724 32265.634522914886 16958.479437589645 34579.841770410538 570.46759819984436 3553.5494630336761 16491.603503346443 3492.3870272636414 18894.751961827278 1480.8507525920868 2622.0781524181366 4393.1128649711609 38139.363867878914 140164.00154745579 3039.2302391529083 144664.02795851231 1002.2868885993958 3964.6975643634796 1172.3319709300995 493.61194229125977 5877.7416954040527 3648.6929140090942 771.59664058685303 3501.2085914611816 15017.040135622025 63.943208456039429 604.25819063186646 25060.738682508469 1999.4694437980652
